<?xml version="1.0"?>
<opencv_storage>
<cascade>
  <stageType>BOOST</stageType>
  <featureType>LBP</featureType>
  <height>25</height>
  <width>40</width>
  <stageParams>
    <boostType>GAB</boostType>
    <minHitRate>9.9900001287460327e-01</minHitRate>
    <maxFalseAlarm>2.0000000298023224e-01</maxFalseAlarm>
    <weightTrimRate>9.4999998807907104e-01</weightTrimRate>
    <maxDepth>1</maxDepth>
    <maxWeakCount>100</maxWeakCount></stageParams>
  <featureParams>
    <maxCatCount>256</maxCatCount>
    <featSize>1</featSize></featureParams>
  <stageNum>12</stageNum>
  <stages>
    <!-- stage 0 -->
    <_>
      <maxWeakCount>4</maxWeakCount>
      <stageThreshold>-9.2067909240722656e-01</stageThreshold>
      <weakClassifiers>
        <_>
          <internalNodes>
            0 -1 23 323244793 -586608298 286261463 1599406547
            -1205303078 -1459617784 428251327 -547782503</internalNodes>
          <leafValues>
            -9.0270268917083740e-01 4.1587302088737488e-01</leafValues></_>
        <_>
          <internalNodes>
            0 -1 32 -1316679460 -648720376 291571167 -11587279
            -2112707586 -74415939 -2007340353 530221513</internalNodes>
          <leafValues>
            -9.4369286298751831e-01 4.2498502135276794e-01</leafValues></_>
        <_>
          <internalNodes>
            0 -1 15 1396995574 -682250024 285399519 524894609 -125785671
            -1283354470 -1697911825 2075875804</internalNodes>
          <leafValues>
            -8.7406551837921143e-01 4.5463073253631592e-01</leafValues></_>
        <_>
          <internalNodes>
            0 -1 36 -1827383046 -250527472 286265561 289112065
            -1979668290 -880041848 142672383 -613932919</internalNodes>
          <leafValues>
            -8.4351402521133423e-01 4.8120632767677307e-01</leafValues></_></weakClassifiers></_>
    <!-- stage 1 -->
    <_>
      <maxWeakCount>7</maxWeakCount>
      <stageThreshold>-1.4928926229476929e+00</stageThreshold>
      <weakClassifiers>
        <_>
          <internalNodes>
            0 -1 29 -774119937 -40529463 -750396673 1906015633
            -1794594049 -895575927 672894175 -615541793</internalNodes>
          <leafValues>
            -7.9331684112548828e-01 4.3016758561134338e-01</leafValues></_>
        <_>
          <internalNodes>
            0 -1 61 -673849924 993592724 1484805589 827020063
            -1844835590 -1518239541 -1547211377 -63972805</internalNodes>
          <leafValues>
            -7.0644509792327881e-01 4.3819513916969299e-01</leafValues></_>
        <_>
          <internalNodes>
            0 -1 5 -539313218 -1755466672 155359739 1025319243
            1250118367 -1442176509 1814045327 -15398223</internalNodes>
          <leafValues>
            -7.1931076049804688e-01 4.9969899654388428e-01</leafValues></_>
        <_>
          <internalNodes>
            0 -1 41 -1658889989 -2024060600 -1198508811 -1269593639
            161135214 -1191107624 -1358267977 -1619252083</internalNodes>
          <leafValues>
            -8.6722958087921143e-01 3.9632105827331543e-01</leafValues></_>
        <_>
          <internalNodes>
            0 -1 27 298440102 -619183653 906009054 -1294876589
            -2029140772 -117407351 662811369 827015655</internalNodes>
          <leafValues>
            -7.2938597202301025e-01 4.8774260282516479e-01</leafValues></_>
        <_>
          <internalNodes>
            0 -1 6 -441212766 -892731294 -1758396270 -994393182
            -1038047144 1116975136 1535892145 -206575410</internalNodes>
          <leafValues>
            -6.6672736406326294e-01 5.7077437639236450e-01</leafValues></_>
        <_>
          <internalNodes>
            0 -1 28 1214050899 -277133119 -1842867547 -1254764399
            -2144129349 1258815489 -2071864385 456877695</internalNodes>
          <leafValues>
            -7.1016603708267212e-01 5.5290091037750244e-01</leafValues></_></weakClassifiers></_>
    <!-- stage 2 -->
    <_>
      <maxWeakCount>6</maxWeakCount>
      <stageThreshold>-1.1830538511276245e+00</stageThreshold>
      <weakClassifiers>
        <_>
          <internalNodes>
            0 -1 39 -1651828225 -11144743 -552280579 -2133091
            -1173692934 -69298023 -15159617 -286348658</internalNodes>
          <leafValues>
            -8.7861269712448120e-01 2.6763990521430969e-02</leafValues></_>
        <_>
          <internalNodes>
            0 -1 56 498279931 -1109453859 1929722367 -72275275 129695222
            -1074030408 978057579 -1153804056</internalNodes>
          <leafValues>
            -8.0024516582489014e-01 2.9861852526664734e-01</leafValues></_>
        <_>
          <internalNodes>
            0 -1 3 -34063278 -67332009 1402920383 1601045978 2122866111
            -3294231 -278218307 -33303181</internalNodes>
          <leafValues>
            -7.1293783187866211e-01 4.7405040264129639e-01</leafValues></_>
        <_>
          <internalNodes>
            0 -1 49 -103757094 -636091261 -1862008689 2109949471
            -1853120328 282099880 -234303574 -909461048</internalNodes>
          <leafValues>
            -6.3351833820343018e-01 5.8757746219635010e-01</leafValues></_>
        <_>
          <internalNodes>
            0 -1 20 -2104339376 -294977388 293732830 -626261878
            -1844752246 2038960264 1942522570 -1220108246</internalNodes>
          <leafValues>
            -6.9458651542663574e-01 5.8349996805191040e-01</leafValues></_>
        <_>
          <internalNodes>
            0 -1 57 -1321445016 979333597 1898012159 801976791 952668110
            -1416435565 456317631 -1195849169</internalNodes>
          <leafValues>
            -8.6701846122741699e-01 4.4448173046112061e-01</leafValues></_></weakClassifiers></_>
    <!-- stage 3 -->
    <_>
      <maxWeakCount>6</maxWeakCount>
      <stageThreshold>-1.0799568891525269e+00</stageThreshold>
      <weakClassifiers>
        <_>
          <internalNodes>
            0 -1 73 -8388641 -1841053565 1103667460 -2092183157
            -207957691 1611169800 1740845547 -855642565</internalNodes>
          <leafValues>
            -8.0025285482406616e-01 2.8638496994972229e-01</leafValues></_>
        <_>
          <internalNodes>
            0 -1 71 -614465983 -267663203 -1056894514 546816076
            1957029896 672038941 -758590846 -1060380521</internalNodes>
          <leafValues>
            -6.9098734855651855e-01 4.1803056001663208e-01</leafValues></_>
        <_>
          <internalNodes>
            0 -1 45 -228919330 -749362502 1342247996 -540061477
            -1823940184 -231562912 734164203 -1756737633</internalNodes>
          <leafValues>
            -6.4084386825561523e-01 5.3488987684249878e-01</leafValues></_>
        <_>
          <internalNodes>
            0 -1 42 396647928 -296274464 17931995 2136700381 -1995759670
            -1349549729 1250941175 1482606997</internalNodes>
          <leafValues>
            -9.1337698698043823e-01 3.7323692440986633e-01</leafValues></_>
        <_>
          <internalNodes>
            0 -1 0 -407178518 1899808898 420544834 -716732398
            -1857854813 -2013224960 729427 1147486292</internalNodes>
          <leafValues>
            -8.3262103796005249e-01 3.8288038969039917e-01</leafValues></_>
        <_>
          <internalNodes>
            0 -1 30 1365038731 -539332320 -1878914414 1169529047
            -1765156835 -1411378773 -4020071 521949565</internalNodes>
          <leafValues>
            -7.6494574546813965e-01 4.0249332785606384e-01</leafValues></_></weakClassifiers></_>
    <!-- stage 4 -->
    <_>
      <maxWeakCount>5</maxWeakCount>
      <stageThreshold>-7.7998375892639160e-01</stageThreshold>
      <weakClassifiers>
        <_>
          <internalNodes>
            0 -1 53 -1212713477 -41604 -1075872257 -141187 -3212290
            -68437511 -84164673 -381188</internalNodes>
          <leafValues>
            -8.9374089241027832e-01 5.4631829261779785e-02</leafValues></_>
        <_>
          <internalNodes>
            0 -1 38 331176703 -99212 -1654786049 2144599773 -1074041347
            -8388737 469363455 -541321748</internalNodes>
          <leafValues>
            -8.4601670503616333e-01 3.7302961945533752e-01</leafValues></_>
        <_>
          <internalNodes>
            0 -1 16 1073708730 -8421410 -136579141 -1074381025
            -1179718673 -3416417 -1079328417 1069055485</internalNodes>
          <leafValues>
            -9.5358371734619141e-01 3.1818962097167969e-01</leafValues></_>
        <_>
          <internalNodes>
            0 -1 59 521622011 1828156919 1065242591 -621453317
            1003970038 -136353603 -1654807 -1650972432</internalNodes>
          <leafValues>
            -7.5165945291519165e-01 4.5974424481391907e-01</leafValues></_>
        <_>
          <internalNodes>
            0 -1 54 1062024496 -906473382 1343076063 1925630853
            -106859526 -1344202260 -1682990149 -16487272</internalNodes>
          <leafValues>
            -7.1380573511123657e-01 5.1032835245132446e-01</leafValues></_></weakClassifiers></_>
    <!-- stage 5 -->
    <_>
      <maxWeakCount>6</maxWeakCount>
      <stageThreshold>-1.0813835859298706e+00</stageThreshold>
      <weakClassifiers>
        <_>
          <internalNodes>
            0 -1 10 -72876065 471699 1965690254 -1763778069 1789859073
            1631584259 -764738449 -8388833</internalNodes>
          <leafValues>
            -8.5489392280578613e-01 1.3173653185367584e-01</leafValues></_>
        <_>
          <internalNodes>
            0 -1 76 -1142953537 47640843 1342656769 1646230019 250208539
            180486216 1394841658 -816055589</internalNodes>
          <leafValues>
            -6.8754076957702637e-01 4.8000010848045349e-01</leafValues></_>
        <_>
          <internalNodes>
            0 -1 17 898105343 -611263522 1495333836 1349178253
            -853932563 -549936978 554205781 1470654431</internalNodes>
          <leafValues>
            -7.9276865720748901e-01 4.0022760629653931e-01</leafValues></_>
        <_>
          <internalNodes>
            0 -1 37 -1345032849 -2099487234 -1945774603 1170382014
            -1476033674 2077851771 594501906 -688661082</internalNodes>
          <leafValues>
            -8.0942207574844360e-01 3.7963551282882690e-01</leafValues></_>
        <_>
          <internalNodes>
            0 -1 74 -210638238 9553743 738977376 -289174396 1385914897
            67109448 -800650750 -1069551273</internalNodes>
          <leafValues>
            -5.8465784788131714e-01 5.7925832271575928e-01</leafValues></_>
        <_>
          <internalNodes>
            0 -1 51 -53222700 5472381 -941160433 -1938112103 1213092274
            -1432479063 -134091005 -17003079</internalNodes>
          <leafValues>
            -6.9532924890518188e-01 5.4060423374176025e-01</leafValues></_></weakClassifiers></_>
    <!-- stage 6 -->
    <_>
      <maxWeakCount>7</maxWeakCount>
      <stageThreshold>-8.9610499143600464e-01</stageThreshold>
      <weakClassifiers>
        <_>
          <internalNodes>
            0 -1 4 -136316129 -1064126846 -1684749910 -339504806
            233513903 -234110401 1352893730 -327160193</internalNodes>
          <leafValues>
            -8.3735352754592896e-01 2.9069768264889717e-02</leafValues></_>
        <_>
          <internalNodes>
            0 -1 68 -268437049 797635447 830689548 1653669755
            -1992427712 984039963 -678271068 -420482181</internalNodes>
          <leafValues>
            -6.3272798061370850e-01 4.8094022274017334e-01</leafValues></_>
        <_>
          <internalNodes>
            0 -1 24 1037658856 -7381882 1954763259 1386153887
            -1894953766 -356300518 1621079245 -578892851</internalNodes>
          <leafValues>
            -8.0972933769226074e-01 3.7586894631385803e-01</leafValues></_>
        <_>
          <internalNodes>
            0 -1 33 351879119 -1357841321 851189991 1117030545 317455111
            -1383099505 2011425137 -170985608</internalNodes>
          <leafValues>
            -7.1692800521850586e-01 4.2209753394126892e-01</leafValues></_>
        <_>
          <internalNodes>
            0 -1 19 -1069158076 -304283265 1086374594 -910491379
            -2002775299 1248502443 -1064662954 774722187</internalNodes>
          <leafValues>
            -7.5402206182479858e-01 4.7759509086608887e-01</leafValues></_>
        <_>
          <internalNodes>
            0 -1 58 1272970524 266279305 -1332670061 -1445264875
            -710994546 -1895694264 -590410432 -121707025</internalNodes>
          <leafValues>
            -7.2103160619735718e-01 4.5013529062271118e-01</leafValues></_>
        <_>
          <internalNodes>
            0 -1 34 890338327 -1450340286 1410044036 -1998650850
            -872361250 994082887 -2113233251 -362878760</internalNodes>
          <leafValues>
            -7.6116913557052612e-01 4.4459125399589539e-01</leafValues></_></weakClassifiers></_>
    <!-- stage 7 -->
    <_>
      <maxWeakCount>7</maxWeakCount>
      <stageThreshold>-1.3255851268768311e+00</stageThreshold>
      <weakClassifiers>
        <_>
          <internalNodes>
            0 -1 67 -572530977 -102039041 -1844369795 -681974821
            -760545317 -1568437367 -494144533 -67122741</internalNodes>
          <leafValues>
            -7.6783555746078491e-01 4.6099290251731873e-01</leafValues></_>
        <_>
          <internalNodes>
            0 -1 60 836582861 -45841972 -989080139 1583045109 2041213897
            -56065879 -91492458 -860028929</internalNodes>
          <leafValues>
            -7.2428965568542480e-01 3.1193470954895020e-01</leafValues></_>
        <_>
          <internalNodes>
            0 -1 50 262090867 1582461271 356611351 1608503614
            -1908161541 -527035646 1136251880 2122841408</internalNodes>
          <leafValues>
            -7.2174382209777832e-01 3.7703421711921692e-01</leafValues></_>
        <_>
          <internalNodes>
            0 -1 70 -679479042 -1202642609 3396058 -1567188868
            1933297930 1380657834 621990831 -521798409</internalNodes>
          <leafValues>
            -6.3282859325408936e-01 4.6495291590690613e-01</leafValues></_>
        <_>
          <internalNodes>
            0 -1 9 -235707677 -791559605 -1073507064 1187955835
            1108060183 2036813907 268687713 1936972387</internalNodes>
          <leafValues>
            -6.1714226007461548e-01 5.2168399095535278e-01</leafValues></_>
        <_>
          <internalNodes>
            0 -1 1 -570437125 -84410433 1879045630 -692064844 -840057926
            2012735472 -1487464911 -151521421</internalNodes>
          <leafValues>
            -5.1538896560668945e-01 6.5252059698104858e-01</leafValues></_>
        <_>
          <internalNodes>
            0 -1 35 -1707714549 1367790743 18109247 -762836841
            1478072981 -561082041 1586479639 -537935041</internalNodes>
          <leafValues>
            -5.7914018630981445e-01 6.4246565103530884e-01</leafValues></_></weakClassifiers></_>
    <!-- stage 8 -->
    <_>
      <maxWeakCount>8</maxWeakCount>
      <stageThreshold>-1.0601707696914673e+00</stageThreshold>
      <weakClassifiers>
        <_>
          <internalNodes>
            0 -1 65 -70260833 2135403417 -587135307 -178401282
            -1398428422 -612701670 -156513588 -67115109</internalNodes>
          <leafValues>
            -7.8168129920959473e-01 2.0398010313510895e-01</leafValues></_>
        <_>
          <internalNodes>
            0 -1 31 -1858259719 -1094056757 1720294259 2145357775
            -1549865425 -565080497 51360766 -545354259</internalNodes>
          <leafValues>
            -6.8029177188873291e-01 3.4220007061958313e-01</leafValues></_>
        <_>
          <internalNodes>
            0 -1 7 -430520597 -396527639 -767507106 686717990 1663763123
            1913045098 1982265949 -708322731</internalNodes>
          <leafValues>
            -6.0658025741577148e-01 4.7080075740814209e-01</leafValues></_>
        <_>
          <internalNodes>
            0 -1 40 890260634 -983048842 -581083933 1550956895
            -628233122 1724118163 1574477191 -1409404659</internalNodes>
          <leafValues>
            -9.1259783506393433e-01 3.1084778904914856e-01</leafValues></_>
        <_>
          <internalNodes>
            0 -1 13 -441490752 1237568354 -1559390250 1821331652
            662976493 273310248 -1463137458 -250873090</internalNodes>
          <leafValues>
            -6.3760781288146973e-01 4.6252718567848206e-01</leafValues></_>
        <_>
          <internalNodes>
            0 -1 18 876949909 -291577666 981537252 -1280929410 726348001
            -622593919 -649981515 -1140982946</internalNodes>
          <leafValues>
            -6.2357687950134277e-01 5.3802746534347534e-01</leafValues></_>
        <_>
          <internalNodes>
            0 -1 64 1395638518 1556234835 940777937 1463185507 -97909890
            218277515 -532570139 -543184658</internalNodes>
          <leafValues>
            -5.5569368600845337e-01 5.7666003704071045e-01</leafValues></_>
        <_>
          <internalNodes>
            0 -1 43 1293522934 -1048489149 -799994745 -595361773
            -1425514482 -1733590973 -939086877 939127688</internalNodes>
          <leafValues>
            -7.3150295019149780e-01 4.5137065649032593e-01</leafValues></_></weakClassifiers></_>
    <!-- stage 9 -->
    <_>
      <maxWeakCount>8</maxWeakCount>
      <stageThreshold>-1.1262675523757935e+00</stageThreshold>
      <weakClassifiers>
        <_>
          <internalNodes>
            0 -1 55 -711461889 -39075233 -251439955 -577118361
            -358495234 -341792119 -83121413 -1323058</internalNodes>
          <leafValues>
            -7.7097368240356445e-01 3.3333334326744080e-01</leafValues></_>
        <_>
          <internalNodes>
            0 -1 11 2130410203 334934814 -1054812009 2006676918
            853090608 806057991 -1000642617 -2626189</internalNodes>
          <leafValues>
            -6.1804080009460449e-01 4.1365572810173035e-01</leafValues></_>
        <_>
          <internalNodes>
            0 -1 62 -1883914562 182497583 -730604394 -692199555
            -610717413 -1147422305 1054846719 -325525516</internalNodes>
          <leafValues>
            -7.5864815711975098e-01 3.5306522250175476e-01</leafValues></_>
        <_>
          <internalNodes>
            0 -1 21 2035650298 2079318877 -1072589429 1468374767
            -1832153698 -362030551 2007680503 406562885</internalNodes>
          <leafValues>
            -6.8268853425979614e-01 4.0597060322761536e-01</leafValues></_>
        <_>
          <internalNodes>
            0 -1 8 1582950895 1754306726 -1873137648 -1395486590
            -317727916 268510211 2114547600 1463020323</internalNodes>
          <leafValues>
            -6.5857034921646118e-01 4.6462148427963257e-01</leafValues></_>
        <_>
          <internalNodes>
            0 -1 25 782710748 155660403 -1337750985 -2645818 570452269
            2140913835 1858589602 -1150706700</internalNodes>
          <leafValues>
            -8.0139976739883423e-01 3.7393924593925476e-01</leafValues></_>
        <_>
          <internalNodes>
            0 -1 69 -34757066 -1430019426 268800028 -74596330 817955161
            220299853 2031416117 -759960879</internalNodes>
          <leafValues>
            -6.6829723119735718e-01 4.6194493770599365e-01</leafValues></_>
        <_>
          <internalNodes>
            0 -1 72 -3025124 1155825746 1073824198 -1593188789 -77881326
            328746624 -1278502633 -541590529</internalNodes>
          <leafValues>
            -5.6449300050735474e-01 6.0173338651657104e-01</leafValues></_></weakClassifiers></_>
    <!-- stage 10 -->
    <_>
      <maxWeakCount>7</maxWeakCount>
      <stageThreshold>-1.0377100706100464e+00</stageThreshold>
      <weakClassifiers>
        <_>
          <internalNodes>
            0 -1 66 -182728453 -19940873 -1961861855 -541619461
            -2130341733 952729688 -1155545351 -565190038</internalNodes>
          <leafValues>
            -8.0679547786712646e-01 2.0408162847161293e-02</leafValues></_>
        <_>
          <internalNodes>
            0 -1 22 905794984 -213145994 -632690465 2102350758
            -1720796469 -1946334917 1529608638 1530974589</internalNodes>
          <leafValues>
            -8.8432043790817261e-01 1.4267651736736298e-01</leafValues></_>
        <_>
          <internalNodes>
            0 -1 12 1340802670 -31882597 -1938230794 1392499100
            1481587387 -488963647 2133799396 2061462643</internalNodes>
          <leafValues>
            -8.4583646059036255e-01 2.5913727283477783e-01</leafValues></_>
        <_>
          <internalNodes>
            0 -1 48 668250417 -1285842645 -2067197923 991861195
            -1226123334 -216748130 2072766793 -648949187</internalNodes>
          <leafValues>
            -5.4448038339614868e-01 5.1079905033111572e-01</leafValues></_>
        <_>
          <internalNodes>
            0 -1 2 -488316414 -445480558 -2087708399 -274824870
            2096710525 -1019969021 1300456559 -328107146</internalNodes>
          <leafValues>
            -7.2119188308715820e-01 3.9787322282791138e-01</leafValues></_>
        <_>
          <internalNodes>
            0 -1 52 -157857832 1538894125 1082151069 -40553883
            -511520242 -1503592349 -85306953 1493700254</internalNodes>
          <leafValues>
            -6.8951314687728882e-01 4.2521268129348755e-01</leafValues></_>
        <_>
          <internalNodes>
            0 -1 26 -873523847 -666595178 -1726991057 -1890479985
            -345853151 -1431666504 782361045 -873403151</internalNodes>
          <leafValues>
            -5.6977814435958862e-01 5.4232549667358398e-01</leafValues></_></weakClassifiers></_>
    <!-- stage 11 -->
    <_>
      <maxWeakCount>6</maxWeakCount>
      <stageThreshold>-7.3334348201751709e-01</stageThreshold>
      <weakClassifiers>
        <_>
          <internalNodes>
            0 -1 63 -4461569 -572294409 1606220799 -33554457 -138412703
            -815006473 -209731585 -337903626</internalNodes>
          <leafValues>
            -7.6672589778900146e-01 8.4905660152435303e-01</leafValues></_>
        <_>
          <internalNodes>
            0 -1 75 -209191615 545554456 16843078 830861475 -1971289975
            50512002 -1677655863 -694961457</internalNodes>
          <leafValues>
            -6.7760074138641357e-01 5.2317500114440918e-01</leafValues></_>
        <_>
          <internalNodes>
            0 -1 14 -528342590 1367539727 196944 -1040154368 402695056
            -1550940111 1992319144 -141836288</internalNodes>
          <leafValues>
            -7.9514533281326294e-01 4.2877161502838135e-01</leafValues></_>
        <_>
          <internalNodes>
            0 -1 47 -1174206025 -1709866400 1078985139 -365633531
            -1673416098 -1433775999 -400489572 -1042226143</internalNodes>
          <leafValues>
            -7.0397448539733887e-01 4.8728311061859131e-01</leafValues></_>
        <_>
          <internalNodes>
            0 -1 46 491890681 -636092416 134271108 -2130181983
            -2013214683 -1476394679 -1565880045 1542103220</internalNodes>
          <leafValues>
            -7.0095539093017578e-01 5.6301319599151611e-01</leafValues></_>
        <_>
          <internalNodes>
            0 -1 44 -2141785019 -527744480 1142000196 -1694466045
            -1060566973 -251117183 -2147464828 -105459189</internalNodes>
          <leafValues>
            -7.0489192008972168e-01 5.6594842672348022e-01</leafValues></_></weakClassifiers></_></stages>
  <features>
    <_>
      <rect>
        0 1 1 3</rect></_>
    <_>
      <rect>
        0 2 1 1</rect></_>
    <_>
      <rect>
        0 2 3 4</rect></_>
    <_>
      <rect>
        0 2 5 5</rect></_>
    <_>
      <rect>
        0 5 1 2</rect></_>
    <_>
      <rect>
        0 10 7 3</rect></_>
    <_>
      <rect>
        0 11 1 1</rect></_>
    <_>
      <rect>
        0 11 1 2</rect></_>
    <_>
      <rect>
        0 14 1 2</rect></_>
    <_>
      <rect>
        0 15 1 2</rect></_>
    <_>
      <rect>
        0 17 1 2</rect></_>
    <_>
      <rect>
        0 19 1 2</rect></_>
    <_>
      <rect>
        1 6 4 1</rect></_>
    <_>
      <rect>
        1 9 1 1</rect></_>
    <_>
      <rect>
        1 13 3 2</rect></_>
    <_>
      <rect>
        2 0 7 7</rect></_>
    <_>
      <rect>
        3 1 11 8</rect></_>
    <_>
      <rect>
        3 2 11 2</rect></_>
    <_>
      <rect>
        4 1 8 2</rect></_>
    <_>
      <rect>
        4 16 12 3</rect></_>
    <_>
      <rect>
        5 2 1 1</rect></_>
    <_>
      <rect>
        5 2 7 3</rect></_>
    <_>
      <rect>
        5 4 8 3</rect></_>
    <_>
      <rect>
        6 5 9 3</rect></_>
    <_>
      <rect>
        6 11 9 3</rect></_>
    <_>
      <rect>
        6 14 4 2</rect></_>
    <_>
      <rect>
        6 20 4 1</rect></_>
    <_>
      <rect>
        7 0 10 3</rect></_>
    <_>
      <rect>
        7 15 9 3</rect></_>
    <_>
      <rect>
        8 3 9 3</rect></_>
    <_>
      <rect>
        8 14 9 3</rect></_>
    <_>
      <rect>
        8 15 6 2</rect></_>
    <_>
      <rect>
        9 4 9 6</rect></_>
    <_>
      <rect>
        9 7 5 1</rect></_>
    <_>
      <rect>
        9 11 4 1</rect></_>
    <_>
      <rect>
        10 1 6 2</rect></_>
    <_>
      <rect>
        10 12 7 3</rect></_>
    <_>
      <rect>
        10 19 7 2</rect></_>
    <_>
      <rect>
        11 5 4 2</rect></_>
    <_>
      <rect>
        11 9 3 2</rect></_>
    <_>
      <rect>
        11 9 6 2</rect></_>
    <_>
      <rect>
        11 10 6 2</rect></_>
    <_>
      <rect>
        12 5 8 3</rect></_>
    <_>
      <rect>
        12 11 6 1</rect></_>
    <_>
      <rect>
        12 18 6 2</rect></_>
    <_>
      <rect>
        13 0 1 1</rect></_>
    <_>
      <rect>
        13 16 3 1</rect></_>
    <_>
      <rect>
        14 4 5 1</rect></_>
    <_>
      <rect>
        14 21 2 1</rect></_>
    <_>
      <rect>
        15 0 1 1</rect></_>
    <_>
      <rect>
        15 15 2 1</rect></_>
    <_>
      <rect>
        18 1 4 1</rect></_>
    <_>
      <rect>
        18 9 7 3</rect></_>
    <_>
      <rect>
        18 10 3 2</rect></_>
    <_>
      <rect>
        18 16 4 1</rect></_>
    <_>
      <rect>
        19 0 1 1</rect></_>
    <_>
      <rect>
        19 5 3 2</rect></_>
    <_>
      <rect>
        21 9 6 5</rect></_>
    <_>
      <rect>
        22 12 6 2</rect></_>
    <_>
      <rect>
        22 15 4 2</rect></_>
    <_>
      <rect>
        23 7 4 1</rect></_>
    <_>
      <rect>
        25 8 5 5</rect></_>
    <_>
      <rect>
        25 15 3 1</rect></_>
    <_>
      <rect>
        25 21 1 1</rect></_>
    <_>
      <rect>
        31 2 1 1</rect></_>
    <_>
      <rect>
        33 9 1 1</rect></_>
    <_>
      <rect>
        33 21 1 1</rect></_>
    <_>
      <rect>
        34 2 1 1</rect></_>
    <_>
      <rect>
        34 6 2 3</rect></_>
    <_>
      <rect>
        36 20 1 1</rect></_>
    <_>
      <rect>
        37 2 1 1</rect></_>
    <_>
      <rect>
        37 2 1 2</rect></_>
    <_>
      <rect>
        37 8 1 1</rect></_>
    <_>
      <rect>
        37 11 1 4</rect></_>
    <_>
      <rect>
        37 12 1 2</rect></_>
    <_>
      <rect>
        37 17 1 2</rect></_>
    <_>
      <rect>
        37 19 1 2</rect></_></features></cascade>
</opencv_storage>
