<?xml version="1.0"?>
<opencv_storage>
<cascade>
  <stageType>BOOST</stageType>
  <featureType>LBP</featureType>
  <height>25</height>
  <width>40</width>
  <stageParams>
    <boostType>GAB</boostType>
    <minHitRate>9.9900001287460327e-01</minHitRate>
    <maxFalseAlarm>3.0000001192092896e-01</maxFalseAlarm>
    <weightTrimRate>9.4999998807907104e-01</weightTrimRate>
    <maxDepth>1</maxDepth>
    <maxWeakCount>100</maxWeakCount></stageParams>
  <featureParams>
    <maxCatCount>256</maxCatCount>
    <featSize>1</featSize></featureParams>
  <stageNum>9</stageNum>
  <stages>
    <!-- stage 0 -->
    <_>
      <maxWeakCount>5</maxWeakCount>
      <stageThreshold>-1.8222358226776123e+00</stageThreshold>
      <weakClassifiers>
        <_>
          <internalNodes>
            0 -1 1 -170133505 -145287787 -117349409 -536097 -1280590849
            2038894793 -1357911041 1941699071</internalNodes>
          <leafValues>
            -8.9468353986740112e-01 3.2987013459205627e-01</leafValues></_>
        <_>
          <internalNodes>
            0 -1 27 -1181001510 -238057195 -570417723 -537443875
            -527499298 1906497722 -1148540417 -138667011</internalNodes>
          <leafValues>
            -8.8959300518035889e-01 3.1076896190643311e-01</leafValues></_>
        <_>
          <internalNodes>
            0 -1 14 -1617360709 1608274394 142674099 1396297989
            -1686004034 1938522286 604140287 1609091677</internalNodes>
          <leafValues>
            -8.2180154323577881e-01 3.7524527311325073e-01</leafValues></_>
        <_>
          <internalNodes>
            0 -1 13 420565755 -16527104 -745421857 1597473030
            -1308583282 -684479958 -617705490 1193338925</internalNodes>
          <leafValues>
            -7.7899569272994995e-01 4.1170719265937805e-01</leafValues></_>
        <_>
          <internalNodes>
            0 -1 9 1026438416 -775949871 -955246133 -14196901
            -1173767444 -218107389 454083326 1528354813</internalNodes>
          <leafValues>
            -7.6799577474594116e-01 3.6579114198684692e-01</leafValues></_></weakClassifiers></_>
    <!-- stage 1 -->
    <_>
      <maxWeakCount>7</maxWeakCount>
      <stageThreshold>-1.6767308712005615e+00</stageThreshold>
      <weakClassifiers>
        <_>
          <internalNodes>
            0 -1 8 -6291461 -147097417 -552870497 -68202277 -1215320070
            -179853121 -8142081 2008799743</internalNodes>
          <leafValues>
            -8.8161009550094604e-01 7.7257886528968811e-02</leafValues></_>
        <_>
          <internalNodes>
            0 -1 35 -1175549784 -338638716 847398006 -896827152
            -1624387533 2049622158 -1484006428 -142150802</internalNodes>
          <leafValues>
            -7.6065528392791748e-01 3.0173829197883606e-01</leafValues></_>
        <_>
          <internalNodes>
            0 -1 50 -1164760630 -774438823 16847752 -112321464
            -525810974 1242341512 681449163 -1157950789</internalNodes>
          <leafValues>
            -5.8874481916427612e-01 5.0042659044265747e-01</leafValues></_>
        <_>
          <internalNodes>
            0 -1 17 -1078241057 -270580288 -543630643 1858041457
            -1163207554 1670365226 -2083621917 -1212539524</internalNodes>
          <leafValues>
            -8.4171831607818604e-01 3.4042194485664368e-01</leafValues></_>
        <_>
          <internalNodes>
            0 -1 61 -547632672 -2112999148 1296660 284639621 -58097152
            645971978 1716240864 -1059622337</internalNodes>
          <leafValues>
            -5.7046121358871460e-01 5.0111472606658936e-01</leafValues></_>
        <_>
          <internalNodes>
            0 -1 0 -142549265 -136650982 -652474982 2004926468
            1375856796 -1286668152 715854742 1527994879</internalNodes>
          <leafValues>
            -5.8673322200775146e-01 5.1273441314697266e-01</leafValues></_>
        <_>
          <internalNodes>
            0 -1 57 -1206597088 412566865 -2143252188 -2010414960
            -896810904 -769572799 -552873590 -892149662</internalNodes>
          <leafValues>
            -5.5724096298217773e-01 5.1052844524383545e-01</leafValues></_></weakClassifiers></_>
    <!-- stage 2 -->
    <_>
      <maxWeakCount>7</maxWeakCount>
      <stageThreshold>-1.5340342521667480e+00</stageThreshold>
      <weakClassifiers>
        <_>
          <internalNodes>
            0 -1 36 -486631934 -266710774 16851485 -174337856
            -1869957810 -2142551672 -954823941 -6558789</internalNodes>
          <leafValues>
            -8.4350949525833130e-01 9.7323600202798843e-03</leafValues></_>
        <_>
          <internalNodes>
            0 -1 7 -540019974 -537052705 -1727802725 2143810079
            -2083862897 -206339107 -1679047441 935034351</internalNodes>
          <leafValues>
            -7.2771072387695313e-01 3.0647715926170349e-01</leafValues></_>
        <_>
          <internalNodes>
            0 -1 38 -1420941304 1075610512 1368069526 -283180400
            -1677548686 1896501267 -1592825613 -442038278</internalNodes>
          <leafValues>
            -6.6652977466583252e-01 4.5258536934852600e-01</leafValues></_>
        <_>
          <internalNodes>
            0 -1 21 -814028231 -202174106 1212715351 -42143727
            -1427460711 -1249683061 1177074159 1060789563</internalNodes>
          <leafValues>
            -5.9575623273849487e-01 4.4760033488273621e-01</leafValues></_>
        <_>
          <internalNodes>
            0 -1 24 -1035229658 -1209113924 2046769506 -263001682
            511355630 1065287534 1207416559 -69560152</internalNodes>
          <leafValues>
            -4.7694268822669983e-01 5.9490787982940674e-01</leafValues></_>
        <_>
          <internalNodes>
            0 -1 47 -5102686 -1803199605 553894160 -510826522 -472719288
            1505313443 1811991056 -456142084</internalNodes>
          <leafValues>
            -5.7435393333435059e-01 4.7776940464973450e-01</leafValues></_>
        <_>
          <internalNodes>
            0 -1 23 -2081779520 1938505868 269619256 1917036554 21106840
            328237440 1655184329 -1489026920</internalNodes>
          <leafValues>
            -5.8001768589019775e-01 4.6714749932289124e-01</leafValues></_></weakClassifiers></_>
    <!-- stage 3 -->
    <_>
      <maxWeakCount>8</maxWeakCount>
      <stageThreshold>-1.6100339889526367e+00</stageThreshold>
      <weakClassifiers>
        <_>
          <internalNodes>
            0 -1 18 -813760675 -673984269 -1114513953 -540209122
            -232809473 -138437906 -620110882 -604246593</internalNodes>
          <leafValues>
            -8.2366240024566650e-01 -1.3531799195334315e-03</leafValues></_>
        <_>
          <internalNodes>
            0 -1 29 870047708 1876950481 -989463601 1407179127
            -1141197910 -1248592929 -1144529985 490646748</internalNodes>
          <leafValues>
            -7.9193407297134399e-01 1.3195799291133881e-01</leafValues></_>
        <_>
          <internalNodes>
            0 -1 26 765547742 -142385700 -653141617 2132242645
            -762655778 1529602203 1001052671 391788892</internalNodes>
          <leafValues>
            -8.2343935966491699e-01 2.1139876544475555e-01</leafValues></_>
        <_>
          <internalNodes>
            0 -1 60 -210371935 327106746 1092481649 250843360 438397049
            35979673 -1039965342 -1871186978</internalNodes>
          <leafValues>
            -4.6283391118049622e-01 4.8107856512069702e-01</leafValues></_>
        <_>
          <internalNodes>
            0 -1 40 -592498524 -36084794 823460008 -17739826 -234655285
            859431369 -1350052417 391970649</internalNodes>
          <leafValues>
            -6.8356686830520630e-01 3.3253958821296692e-01</leafValues></_>
        <_>
          <internalNodes>
            0 -1 3 -1347211570 -1748251940 1212772427 -543605794
            629322069 -215873142 1757011895 1064662517</internalNodes>
          <leafValues>
            -8.0124676227569580e-01 2.8570675849914551e-01</leafValues></_>
        <_>
          <internalNodes>
            0 -1 45 -5270 -753278228 63830742 -612902785 -402719015
            33354716 -130154790 -54537762</internalNodes>
          <leafValues>
            -4.0783923864364624e-01 6.2200319766998291e-01</leafValues></_>
        <_>
          <internalNodes>
            0 -1 5 -870438152 1535332604 151115487 -2079199223
            1334338301 -1432149887 981688681 1699700935</internalNodes>
          <leafValues>
            -6.8350440263748169e-01 3.4924557805061340e-01</leafValues></_></weakClassifiers></_>
    <!-- stage 4 -->
    <_>
      <maxWeakCount>9</maxWeakCount>
      <stageThreshold>-2.3557643890380859e+00</stageThreshold>
      <weakClassifiers>
        <_>
          <internalNodes>
            0 -1 33 -590365958 -246458926 496005278 1364656443
            -1740463478 -1199420928 403294938 -70266165</internalNodes>
          <leafValues>
            -8.1933903694152832e-01 1.0551181435585022e-01</leafValues></_>
        <_>
          <internalNodes>
            0 -1 6 2000977592 -1396567798 -687737121 -137046565
            1079705567 -72780853 -635504387 2124042750</internalNodes>
          <leafValues>
            -7.8654497861862183e-01 1.7547488212585449e-01</leafValues></_>
        <_>
          <internalNodes>
            0 -1 32 -216290594 1499752464 285229588 -1853386722
            1349188284 -1830628192 865058511 -620031885</internalNodes>
          <leafValues>
            -4.9393814802169800e-01 5.3286933898925781e-01</leafValues></_>
        <_>
          <internalNodes>
            0 -1 48 -1223053920 929005019 -1987882051 -1143388973
            377504247 -876551774 -925650515 1750135223</internalNodes>
          <leafValues>
            -6.6631102561950684e-01 3.8863089680671692e-01</leafValues></_>
        <_>
          <internalNodes>
            0 -1 59 -29101566 -1610592128 205713772 1384550659
            1644314754 508544 -217883454 -957886573</internalNodes>
          <leafValues>
            -5.0547730922698975e-01 5.1553350687026978e-01</leafValues></_>
        <_>
          <internalNodes>
            0 -1 52 -1793400 -676518354 -33657218 1527201710 536522200
            1093745150 -1494243670 -257195814</internalNodes>
          <leafValues>
            -4.8282724618911743e-01 5.5507004261016846e-01</leafValues></_>
        <_>
          <internalNodes>
            0 -1 43 -2004712456 1371538759 403865730 -1865973742
            805816995 285392939 548126863 -432616986</internalNodes>
          <leafValues>
            -5.0871759653091431e-01 5.1862931251525879e-01</leafValues></_>
        <_>
          <internalNodes>
            0 -1 31 -1187307782 -291682294 -1795059513 1919746195
            -1433753590 890865931 -511509325 1742212924</internalNodes>
          <leafValues>
            -8.6995571851730347e-01 2.9404544830322266e-01</leafValues></_>
        <_>
          <internalNodes>
            0 -1 55 -1112103190 -1122224084 1893657273 2097544668
            526145688 -1370014310 -141306658 -68984578</internalNodes>
          <leafValues>
            -4.6840393543243408e-01 5.9701520204544067e-01</leafValues></_></weakClassifiers></_>
    <!-- stage 5 -->
    <_>
      <maxWeakCount>11</maxWeakCount>
      <stageThreshold>-1.5321832895278931e+00</stageThreshold>
      <weakClassifiers>
        <_>
          <internalNodes>
            0 -1 53 -1319778 -112131317 1083233661 -615575268
            -1414802726 -1336891263 -2088664402 -69216005</internalNodes>
          <leafValues>
            -8.0014413595199585e-01 9.1561935842037201e-02</leafValues></_>
        <_>
          <internalNodes>
            0 -1 11 -159584463 -169907489 -1048159395 -578318077
            -1631323717 1973874922 -402155109 -348329665</internalNodes>
          <leafValues>
            -6.2144327163696289e-01 2.9531627893447876e-01</leafValues></_>
        <_>
          <internalNodes>
            0 -1 15 -47533342 1395680894 -1913714638 -109729107
            -1510023226 -1476921356 1697873854 -65032380</internalNodes>
          <leafValues>
            -4.7047731280326843e-01 4.8772200942039490e-01</leafValues></_>
        <_>
          <internalNodes>
            0 -1 54 -735010262 1361182990 -251572042 -540739326
            646686950 -612354661 -1694268951 -885602951</internalNodes>
          <leafValues>
            -5.1085358858108521e-01 4.3071252107620239e-01</leafValues></_>
        <_>
          <internalNodes>
            0 -1 12 -9021704 -715259534 293687740 364835026 2110374877
            -214986725 -2071840295 -1171542659</internalNodes>
          <leafValues>
            -5.5490010976791382e-01 4.2128509283065796e-01</leafValues></_>
        <_>
          <internalNodes>
            0 -1 51 -63182694 -1716323772 180353639 -1174519826
            1992064104 -819298570 1902952118 -914107181</internalNodes>
          <leafValues>
            -4.2077445983886719e-01 5.7197856903076172e-01</leafValues></_>
        <_>
          <internalNodes>
            0 -1 28 -1088549922 -3718916 268456683 1885119230
            -1180036970 1405337689 1401450948 1467801277</internalNodes>
          <leafValues>
            -8.2272630929946899e-01 3.1744533777236938e-01</leafValues></_>
        <_>
          <internalNodes>
            0 -1 39 -1163967538 -750697172 138989777 2136625733
            428600935 1613447202 1112732406 -103754772</internalNodes>
          <leafValues>
            -6.0422569513320923e-01 3.9153784513473511e-01</leafValues></_>
        <_>
          <internalNodes>
            0 -1 16 -835190 -647604028 805270204 1430859423 2046079384
            -1499662368 426825215 -784083042</internalNodes>
          <leafValues>
            -4.5302280783653259e-01 5.5269896984100342e-01</leafValues></_>
        <_>
          <internalNodes>
            0 -1 22 467159262 -1929297700 -1069465493 -662100967
            -2085693318 314045571 403417199 -2025146883</internalNodes>
          <leafValues>
            -6.2626248598098755e-01 4.1250687837600708e-01</leafValues></_>
        <_>
          <internalNodes>
            0 -1 4 -67381306 -595683330 2146828002 -285430018 1069356790
            1734341628 2010607606 -97260782</internalNodes>
          <leafValues>
            -4.5656794309616089e-01 5.6842231750488281e-01</leafValues></_></weakClassifiers></_>
    <!-- stage 6 -->
    <_>
      <maxWeakCount>8</maxWeakCount>
      <stageThreshold>-1.7264993190765381e+00</stageThreshold>
      <weakClassifiers>
        <_>
          <internalNodes>
            0 -1 19 -909913441 -788463533 1090822299 -718110206
            -804224876 -258998254 -1870544757 -206845525</internalNodes>
          <leafValues>
            -7.8540962934494019e-01 8.2641512155532837e-01</leafValues></_>
        <_>
          <internalNodes>
            0 -1 49 -742226469 2077605904 353370587 293666835 8437922
            -838860664 -2013142277 -846487417</internalNodes>
          <leafValues>
            -5.5781871080398560e-01 6.4450275897979736e-01</leafValues></_>
        <_>
          <internalNodes>
            0 -1 44 -672199960 -538783758 738029496 1466925044
            1207680993 1553593724 -1779047428 -748718617</internalNodes>
          <leafValues>
            -4.8204973340034485e-01 6.2256526947021484e-01</leafValues></_>
        <_>
          <internalNodes>
            0 -1 25 -439247378 1098924032 1073808217 2098200704
            184566100 -1735900670 33604890 -494165886</internalNodes>
          <leafValues>
            -5.5445730686187744e-01 5.6638693809509277e-01</leafValues></_>
        <_>
          <internalNodes>
            0 -1 20 -3675476 860747624 -285413415 1534103550 527555394
            -442992780 1442744318 -2121294100</internalNodes>
          <leafValues>
            -4.6985682845115662e-01 6.1461830139160156e-01</leafValues></_>
        <_>
          <internalNodes>
            0 -1 34 -805031230 302006299 332182 193144835 -1073117132
            -1593634685 1208156160 64096643</internalNodes>
          <leafValues>
            -7.2886240482330322e-01 4.2115312814712524e-01</leafValues></_>
        <_>
          <internalNodes>
            0 -1 2 -825299470 935247548 1073623039 1810726890 788167597
            859406327 -1216946177 -197659679</internalNodes>
          <leafValues>
            -4.7946041822433472e-01 6.7500066757202148e-01</leafValues></_>
        <_>
          <internalNodes>
            0 -1 41 -676556350 -134449483 1845310671 -1078532484
            -2076642395 -1707125259 390905274 -815890586</internalNodes>
          <leafValues>
            -4.3487015366554260e-01 7.5102156400680542e-01</leafValues></_></weakClassifiers></_>
    <!-- stage 7 -->
    <_>
      <maxWeakCount>5</maxWeakCount>
      <stageThreshold>-2.1514096260070801e+00</stageThreshold>
      <weakClassifiers>
        <_>
          <internalNodes>
            0 -1 30 1090572312 1090519041 17 553648128 -2147352576 0
            1174421512 -641531893</internalNodes>
          <leafValues>
            -8.8902008533477783e-01 1.</leafValues></_>
        <_>
          <internalNodes>
            0 -1 42 -922464190 1081410 37752836 128 268503090 33554432
            151140361 -1400799102</internalNodes>
          <leafValues>
            -7.8662937879562378e-01 8.2339966297149658e-01</leafValues></_>
        <_>
          <internalNodes>
            0 -1 58 -536892121 536870527 1593204474 -1896022146
            -76021897 -134357123 -67641649 -1604846233</internalNodes>
          <leafValues>
            -6.7220634222030640e-01 1.</leafValues></_>
        <_>
          <internalNodes>
            0 -1 10 1207701294 753857534 -16843123 796733102 -948076777
            -478169092 -1671956904 -947423660</internalNodes>
          <leafValues>
            -6.5158712863922119e-01 8.2237416505813599e-01</leafValues></_>
        <_>
          <internalNodes>
            0 -1 37 -528477816 1895858304 281 528384 268959876
            1621098752 6658 14751763</internalNodes>
          <leafValues>
            -6.9456380605697632e-01 8.4803330898284912e-01</leafValues></_></weakClassifiers></_>
    <!-- stage 8 -->
    <_>
      <maxWeakCount>2</maxWeakCount>
      <stageThreshold>1.6856718808412552e-02</stageThreshold>
      <weakClassifiers>
        <_>
          <internalNodes>
            0 -1 56 524416 1 4202496 285212672 64 1073741824 0 545292289</internalNodes>
          <leafValues>
            -9.8314327001571655e-01 1.</leafValues></_>
        <_>
          <internalNodes>
            0 -1 46 -2080309248 16908288 0 268435456 0 0 1 8651264</internalNodes>
          <leafValues>
            -9.8149049282073975e-01 1.</leafValues></_></weakClassifiers></_></stages>
  <features>
    <_>
      <rect>
        0 0 12 4</rect></_>
    <_>
      <rect>
        0 2 13 7</rect></_>
    <_>
      <rect>
        0 7 1 2</rect></_>
    <_>
      <rect>
        0 7 9 6</rect></_>
    <_>
      <rect>
        0 9 1 2</rect></_>
    <_>
      <rect>
        0 13 8 4</rect></_>
    <_>
      <rect>
        1 1 6 6</rect></_>
    <_>
      <rect>
        1 1 12 8</rect></_>
    <_>
      <rect>
        1 1 13 8</rect></_>
    <_>
      <rect>
        2 8 6 3</rect></_>
    <_>
      <rect>
        4 13 2 1</rect></_>
    <_>
      <rect>
        5 13 10 4</rect></_>
    <_>
      <rect>
        6 2 5 3</rect></_>
    <_>
      <rect>
        6 4 9 3</rect></_>
    <_>
      <rect>
        6 12 9 3</rect></_>
    <_>
      <rect>
        6 19 1 1</rect></_>
    <_>
      <rect>
        7 3 1 1</rect></_>
    <_>
      <rect>
        7 8 9 3</rect></_>
    <_>
      <rect>
        8 0 8 4</rect></_>
    <_>
      <rect>
        8 1 1 1</rect></_>
    <_>
      <rect>
        8 8 1 1</rect></_>
    <_>
      <rect>
        8 13 8 4</rect></_>
    <_>
      <rect>
        9 7 5 2</rect></_>
    <_>
      <rect>
        9 22 1 1</rect></_>
    <_>
      <rect>
        10 19 1 1</rect></_>
    <_>
      <rect>
        10 19 7 2</rect></_>
    <_>
      <rect>
        11 4 6 3</rect></_>
    <_>
      <rect>
        11 8 6 3</rect></_>
    <_>
      <rect>
        11 13 6 2</rect></_>
    <_>
      <rect>
        13 1 9 6</rect></_>
    <_>
      <rect>
        13 9 5 1</rect></_>
    <_>
      <rect>
        13 9 7 2</rect></_>
    <_>
      <rect>
        13 22 1 1</rect></_>
    <_>
      <rect>
        14 0 1 1</rect></_>
    <_>
      <rect>
        14 0 7 4</rect></_>
    <_>
      <rect>
        14 11 1 1</rect></_>
    <_>
      <rect>
        15 1 1 1</rect></_>
    <_>
      <rect>
        16 3 3 1</rect></_>
    <_>
      <rect>
        16 10 1 1</rect></_>
    <_>
      <rect>
        16 16 2 1</rect></_>
    <_>
      <rect>
        18 6 7 6</rect></_>
    <_>
      <rect>
        18 21 1 1</rect></_>
    <_>
      <rect>
        20 10 2 1</rect></_>
    <_>
      <rect>
        20 20 1 1</rect></_>
    <_>
      <rect>
        22 21 1 1</rect></_>
    <_>
      <rect>
        23 1 1 1</rect></_>
    <_>
      <rect>
        23 5 3 1</rect></_>
    <_>
      <rect>
        23 11 1 1</rect></_>
    <_>
      <rect>
        24 9 5 5</rect></_>
    <_>
      <rect>
        24 11 4 1</rect></_>
    <_>
      <rect>
        25 14 1 1</rect></_>
    <_>
      <rect>
        25 21 1 1</rect></_>
    <_>
      <rect>
        26 11 1 1</rect></_>
    <_>
      <rect>
        28 0 1 1</rect></_>
    <_>
      <rect>
        28 9 1 1</rect></_>
    <_>
      <rect>
        29 1 1 1</rect></_>
    <_>
      <rect>
        31 14 3 2</rect></_>
    <_>
      <rect>
        34 1 1 1</rect></_>
    <_>
      <rect>
        34 4 2 1</rect></_>
    <_>
      <rect>
        37 11 1 1</rect></_>
    <_>
      <rect>
        37 12 1 2</rect></_>
    <_>
      <rect>
        37 15 1 1</rect></_></features></cascade>
</opencv_storage>
