<?xml version="1.0"?>
<opencv_storage>
<cascade>
  <stageType>BOOST</stageType>
  <featureType>LBP</featureType>
  <height>25</height>
  <width>40</width>
  <stageParams>
    <boostType>GAB</boostType>
    <minHitRate>9.9900001287460327e-01</minHitRate>
    <maxFalseAlarm>3.0000001192092896e-01</maxFalseAlarm>
    <weightTrimRate>9.4999998807907104e-01</weightTrimRate>
    <maxDepth>1</maxDepth>
    <maxWeakCount>100</maxWeakCount></stageParams>
  <featureParams>
    <maxCatCount>256</maxCatCount>
    <featSize>1</featSize></featureParams>
  <stageNum>10</stageNum>
  <stages>
    <!-- stage 0 -->
    <_>
      <maxWeakCount>5</maxWeakCount>
      <stageThreshold>-1.3488475084304810e+00</stageThreshold>
      <weakClassifiers>
        <_>
          <internalNodes>
            0 -1 1 -170134785 -212527977 16802271 -71839281 -1280597057
            1904574600 -1961899777 1940613369</internalNodes>
          <leafValues>
            -8.4591680765151978e-01 4.7477361559867859e-01</leafValues></_>
        <_>
          <internalNodes>
            0 -1 33 -1181003558 -238057196 -989782587 -545832547
            -930283554 832739514 -1417115137 -139715591</internalNodes>
          <leafValues>
            -8.3955919742584229e-01 4.1646704077720642e-01</leafValues></_>
        <_>
          <internalNodes>
            0 -1 15 -1067130359 -7143205 -2143104161 1565889813
            -1836010819 1904380331 -936986209 721963279</internalNodes>
          <leafValues>
            -7.8016674518585205e-01 4.2445614933967590e-01</leafValues></_>
        <_>
          <internalNodes>
            0 -1 47 894979308 -774941374 1213793677 -653438779
            -351866947 -1249804229 61791231 532266223</internalNodes>
          <leafValues>
            -6.5371882915496826e-01 5.1992422342300415e-01</leafValues></_>
        <_>
          <internalNodes>
            0 -1 11 -620174371 -217366438 -1996488618 1564737602
            285776008 -247330168 680118427 1041767555</internalNodes>
          <leafValues>
            -6.0476976633071899e-01 5.9687101840972900e-01</leafValues></_></weakClassifiers></_>
    <!-- stage 1 -->
    <_>
      <maxWeakCount>6</maxWeakCount>
      <stageThreshold>-1.1096433401107788e+00</stageThreshold>
      <weakClassifiers>
        <_>
          <internalNodes>
            0 -1 7 -6291461 -136375845 -771500897 -615034657 -1836320049
            -192773590 -1718893585 2005654015</internalNodes>
          <leafValues>
            -7.6973354816436768e-01 3.4336525201797485e-01</leafValues></_>
        <_>
          <internalNodes>
            0 -1 20 -1154937702 -585563430 -939523887 356897033
            -1708328708 2011922571 1107355903 1599928509</internalNodes>
          <leafValues>
            -7.9423344135284424e-01 2.9618754982948303e-01</leafValues></_>
        <_>
          <internalNodes>
            0 -1 30 889281754 2142982796 -653141689 1897742860
            -1869948402 1200259211 -1987392850 123382860</internalNodes>
          <leafValues>
            -8.4129726886749268e-01 2.7076089382171631e-01</leafValues></_>
        <_>
          <internalNodes>
            0 -1 34 -1793914693 -285143040 1342476485 -1136029631
            -2117941142 -158662520 -1474688878 -683086680</internalNodes>
          <leafValues>
            -7.1527171134948730e-01 3.9716657996177673e-01</leafValues></_>
        <_>
          <internalNodes>
            0 -1 9 -26876694 1372243098 -1073678312 421430546 286163050
            950160019 1315883049 1946673635</internalNodes>
          <leafValues>
            -6.0301393270492554e-01 4.3354472517967224e-01</leafValues></_>
        <_>
          <internalNodes>
            0 -1 45 -15327472 865030529 1233191030 402739539 269516958
            -1013939704 151184075 1089460875</internalNodes>
          <leafValues>
            -6.4714860916137695e-01 4.1850018501281738e-01</leafValues></_></weakClassifiers></_>
    <!-- stage 2 -->
    <_>
      <maxWeakCount>6</maxWeakCount>
      <stageThreshold>-1.8052245378494263e+00</stageThreshold>
      <weakClassifiers>
        <_>
          <internalNodes>
            0 -1 40 -1326774136 -482066176 436338704 -823426944
            -1442131966 838991872 -1316843440 -140590536</internalNodes>
          <leafValues>
            -8.8269120454788208e-01 2.5993883609771729e-01</leafValues></_>
        <_>
          <internalNodes>
            0 -1 56 -140366942 -2071375734 622018576 -992800346
            -1568636928 1101021186 1887552034 -221526296</internalNodes>
          <leafValues>
            -7.1993398666381836e-01 4.9598705768585205e-01</leafValues></_>
        <_>
          <internalNodes>
            0 -1 35 -1311204728 -1803403104 38976 -204800000 -2147352280
            536936448 164514 -2011004790</internalNodes>
          <leafValues>
            -7.0761913061141968e-01 5.4374480247497559e-01</leafValues></_>
        <_>
          <internalNodes>
            0 -1 53 -435444064 34832384 21004352 1359400976 839026816
            -1207959550 -2130542456 -313554232</internalNodes>
          <leafValues>
            -5.9687364101409912e-01 6.8024653196334839e-01</leafValues></_>
        <_>
          <internalNodes>
            0 -1 4 -278204860 -17907864 788221558 -1896993088 1265926000
            896889840 1450592167 -958427837</internalNodes>
          <leafValues>
            -6.1679685115814209e-01 6.5337657928466797e-01</leafValues></_>
        <_>
          <internalNodes>
            0 -1 6 -16255910 -14462639 -921644707 -989806079 -1593263652
            656654737 -2004628823 935024891</internalNodes>
          <leafValues>
            -6.3986074924468994e-01 6.8310672044754028e-01</leafValues></_></weakClassifiers></_>
    <!-- stage 3 -->
    <_>
      <maxWeakCount>6</maxWeakCount>
      <stageThreshold>-1.3118660449981689e+00</stageThreshold>
      <weakClassifiers>
        <_>
          <internalNodes>
            0 -1 55 -1282178904 -1069252608 -804003392 -767410176
            -502611742 -2138800088 -1182629654 -207641962</internalNodes>
          <leafValues>
            -7.7979797124862671e-01 3.5675674676895142e-01</leafValues></_>
        <_>
          <internalNodes>
            0 -1 69 -612109822 -2143158272 -2147465146 840302735
            33730592 229504 -1610578806 -1028929141</internalNodes>
          <leafValues>
            -6.2508428096771240e-01 5.8721202611923218e-01</leafValues></_>
        <_>
          <internalNodes>
            0 -1 27 -1826914304 -1593606144 -1056948080 1459617792
            -1560051192 1094746256 541237770 -2093350677</internalNodes>
          <leafValues>
            -6.1761969327926636e-01 5.5891513824462891e-01</leafValues></_>
        <_>
          <internalNodes>
            0 -1 60 -270228992 397223470 -42062210 -586731602
            -1610961448 1630616062 -420495638 -236224310</internalNodes>
          <leafValues>
            -5.4297107458114624e-01 6.6038006544113159e-01</leafValues></_>
        <_>
          <internalNodes>
            0 -1 64 -692944158 904019342 -213184322 -539689680
            -135582466 1337474559 -1088715288 -768162443</internalNodes>
          <leafValues>
            -5.5989187955856323e-01 6.0438150167465210e-01</leafValues></_>
        <_>
          <internalNodes>
            0 -1 57 -65349606 1495497412 -1967195545 -654393626
            -12813024 -810910602 1902919348 -533826478</internalNodes>
          <leafValues>
            -4.8732921481132507e-01 7.1543741226196289e-01</leafValues></_></weakClassifiers></_>
    <!-- stage 4 -->
    <_>
      <maxWeakCount>9</maxWeakCount>
      <stageThreshold>-1.3818064928054810e+00</stageThreshold>
      <weakClassifiers>
        <_>
          <internalNodes>
            0 -1 23 -684130467 1461301555 151114063 -586579682
            -259941665 -476348288 -402052708 -746854917</internalNodes>
          <leafValues>
            -7.2695213556289673e-01 2.2176870703697205e-01</leafValues></_>
        <_>
          <internalNodes>
            0 -1 68 -355732722 38895634 352669702 -1933324143 285967145
            106514 -1030904943 -789579009</internalNodes>
          <leafValues>
            -4.8398566246032715e-01 5.3436034917831421e-01</leafValues></_>
        <_>
          <internalNodes>
            0 -1 3 -1370493186 -775480685 -1853323186 2139171167
            271690214 -1274543987 -1927447790 -346724907</internalNodes>
          <leafValues>
            -6.0065537691116333e-01 4.1532802581787109e-01</leafValues></_>
        <_>
          <internalNodes>
            0 -1 43 -224616960 1888129282 4722700 -674529280 8561486
            -2008349816 559712991 -1147211830</internalNodes>
          <leafValues>
            -5.2629178762435913e-01 5.3255957365036011e-01</leafValues></_>
        <_>
          <internalNodes>
            0 -1 14 -1722649016 -77829754 -1073446521 -687385698
            -1867857750 1122681033 -1341587954 1069047293</internalNodes>
          <leafValues>
            -8.9263182878494263e-01 3.2381871342658997e-01</leafValues></_>
        <_>
          <internalNodes>
            0 -1 65 -372272862 286412928 2015428676 1971446552
            -930921948 -2086633472 1749232318 1424981558</internalNodes>
          <leafValues>
            -6.6737854480743408e-01 3.5187748074531555e-01</leafValues></_>
        <_>
          <internalNodes>
            0 -1 10 -1016928062 1619984401 1224802823 -1014781437
            -1069283174 688128 -1576859582 -769429041</internalNodes>
          <leafValues>
            -4.8443013429641724e-01 5.4645252227783203e-01</leafValues></_>
        <_>
          <internalNodes>
            0 -1 25 -870985931 -1996479183 1090519313 1834537229
            142697004 -2138953725 -402012151 1962101551</internalNodes>
          <leafValues>
            -5.9584110975265503e-01 4.4882398843765259e-01</leafValues></_>
        <_>
          <internalNodes>
            0 -1 0 1968660632 -779079679 -771145387 964813642 2038621663
            1409 -796140887 1602375660</internalNodes>
          <leafValues>
            -6.9999498128890991e-01 3.7761610746383667e-01</leafValues></_></weakClassifiers></_>
    <!-- stage 5 -->
    <_>
      <maxWeakCount>11</maxWeakCount>
      <stageThreshold>-1.4902276992797852e+00</stageThreshold>
      <weakClassifiers>
        <_>
          <internalNodes>
            0 -1 39 -1752475174 -203751080 1359169837 -312499860
            -1100551305 1889749647 898296823 -135468070</internalNodes>
          <leafValues>
            -8.2964456081390381e-01 -3.4987796097993851e-02</leafValues></_>
        <_>
          <internalNodes>
            0 -1 52 918108040 -228888111 1359074754 -67216241
            -2104815458 327322240 -2122265938 -18184002</internalNodes>
          <leafValues>
            -6.4626926183700562e-01 3.2397133111953735e-01</leafValues></_>
        <_>
          <internalNodes>
            0 -1 32 -1148693268 1942700516 1493593030 -681634819
            -1346725569 -472153472 -645726601 -337995588</internalNodes>
          <leafValues>
            -7.0833349227905273e-01 3.2195472717285156e-01</leafValues></_>
        <_>
          <internalNodes>
            0 -1 37 1910650220 823137594 1497176136 -652656567
            -1014256585 1907884680 1779112425 -4477568</internalNodes>
          <leafValues>
            -5.5663573741912842e-01 4.2336836457252502e-01</leafValues></_>
        <_>
          <internalNodes>
            0 -1 18 1614927856 860229635 -1693739576 -91815484
            -360656872 -190315902 1661421633 1000591679</internalNodes>
          <leafValues>
            -5.8836656808853149e-01 4.0011584758758545e-01</leafValues></_>
        <_>
          <internalNodes>
            0 -1 12 -70368604 -14268196 -268550163 -807796761 1912042942
            -1384153218 -8929809 -303317169</internalNodes>
          <leafValues>
            -4.2375719547271729e-01 5.8985936641693115e-01</leafValues></_>
        <_>
          <internalNodes>
            0 -1 63 466984252 399593541 1476489622 -1849077742
            -1845235371 -552894329 -111832436 163228572</internalNodes>
          <leafValues>
            -7.7530342340469360e-01 3.2836166024208069e-01</leafValues></_>
        <_>
          <internalNodes>
            0 -1 29 -211176710 2006674108 1056849468 811707644
            1063696123 -680648231 1986920393 -37793643</internalNodes>
          <leafValues>
            -4.5000192523002625e-01 5.7927310466766357e-01</leafValues></_>
        <_>
          <internalNodes>
            0 -1 31 541226089 -300941230 88151 -1856372414 -1475663781
            -536836928 692165113 -1215524833</internalNodes>
          <leafValues>
            -5.9169405698776245e-01 4.3778872489929199e-01</leafValues></_>
        <_>
          <internalNodes>
            0 -1 19 -881202 535190726 805254838 1431948943 972337592
            -1499695136 292607998 -113010849</internalNodes>
          <leafValues>
            -4.1787043213844299e-01 6.6100519895553589e-01</leafValues></_>
        <_>
          <internalNodes>
            0 -1 17 -1960575806 353765472 554074272 -1793355520
            -1332780913 -903870444 327885310 -1092193362</internalNodes>
          <leafValues>
            -5.1478189229965210e-01 5.3976392745971680e-01</leafValues></_></weakClassifiers></_>
    <!-- stage 6 -->
    <_>
      <maxWeakCount>8</maxWeakCount>
      <stageThreshold>-1.0483835935592651e+00</stageThreshold>
      <weakClassifiers>
        <_>
          <internalNodes>
            0 -1 61 -108275574 -804036597 -671018983 -741388216
            -1416969838 -461356925 -2147442454 -619996981</internalNodes>
          <leafValues>
            -6.8312388658523560e-01 4.9186992645263672e-01</leafValues></_>
        <_>
          <internalNodes>
            0 -1 59 -116225878 -786071104 302150273 -1862205297
            -96278901 440402096 -251486066 -112571682</internalNodes>
          <leafValues>
            -5.4110538959503174e-01 4.9219506978988647e-01</leafValues></_>
        <_>
          <internalNodes>
            0 -1 62 -1634292998 645066286 747878298 -1645119538
            1081403306 1441812094 67427790 -216566537</internalNodes>
          <leafValues>
            -4.6531927585601807e-01 5.4651623964309692e-01</leafValues></_>
        <_>
          <internalNodes>
            0 -1 16 -111787288 -757727022 -1828468518 1167661266
            -267566661 -763226613 -2143606567 -1171539843</internalNodes>
          <leafValues>
            -5.7214558124542236e-01 4.6739450097084045e-01</leafValues></_>
        <_>
          <internalNodes>
            0 -1 13 -355806738 1477460105 -796911661 -648183470
            -1466333056 -1165883391 420154025 -229440959</internalNodes>
          <leafValues>
            -5.0781250000000000e-01 5.6270837783813477e-01</leafValues></_>
        <_>
          <internalNodes>
            0 -1 46 -768683896 -675481931 1845310670 1068787324
            -2076519516 -1170254347 -1748001358 -736624721</internalNodes>
          <leafValues>
            -4.1541036963462830e-01 6.4632838964462280e-01</leafValues></_>
        <_>
          <internalNodes>
            0 -1 67 -538313442 1526656076 2097052082 338161517
            1870307012 280755158 -1095263097 -628884489</internalNodes>
          <leafValues>
            -4.6510896086692810e-01 6.3551467657089233e-01</leafValues></_>
        <_>
          <internalNodes>
            0 -1 42 -1662312734 796135140 2004018684 1999902703
            -1613779538 -294150536 1020714476 -297892353</internalNodes>
          <leafValues>
            -4.8303374648094177e-01 5.9930777549743652e-01</leafValues></_></weakClassifiers></_>
    <!-- stage 7 -->
    <_>
      <maxWeakCount>10</maxWeakCount>
      <stageThreshold>-1.3324917554855347e+00</stageThreshold>
      <weakClassifiers>
        <_>
          <internalNodes>
            0 -1 58 -200555282 -1851228022 -754437047 -183561904
            -777680734 -1414848366 -526341974 -742402353</internalNodes>
          <leafValues>
            -6.6402113437652588e-01 5.0000000000000000e-01</leafValues></_>
        <_>
          <internalNodes>
            0 -1 8 -577545166 -2129554632 -1006562217 -801564606
            -1333473255 427821195 1225299971 -70591351</internalNodes>
          <leafValues>
            -6.1021423339843750e-01 4.0228095650672913e-01</leafValues></_>
        <_>
          <internalNodes>
            0 -1 41 -1731194090 454230272 1342429315 -263548799
            -334880582 1516863656 1778958768 1386981609</internalNodes>
          <leafValues>
            -7.0588362216949463e-01 3.3992436528205872e-01</leafValues></_>
        <_>
          <internalNodes>
            0 -1 5 -1072445782 1347764250 17926362 -1801334502 134245632
            571475969 1080213987 -198720910</internalNodes>
          <leafValues>
            -5.1237958669662476e-01 5.0038272142410278e-01</leafValues></_>
        <_>
          <internalNodes>
            0 -1 26 -22099790 -1079252166 1673248563 -761266222
            502893080 667365151 783726810 -1610615844</internalNodes>
          <leafValues>
            -4.3785366415977478e-01 6.3130778074264526e-01</leafValues></_>
        <_>
          <internalNodes>
            0 -1 54 470975635 1627427337 1074021656 -1224325999
            -779992464 -1408696163 -1206793600 -576706306</internalNodes>
          <leafValues>
            -5.6596231460571289e-01 5.4390496015548706e-01</leafValues></_>
        <_>
          <internalNodes>
            0 -1 36 -1610809606 -269485316 922679282 -356516237
            -1342243253 1073741823 2012903415 -604447361</internalNodes>
          <leafValues>
            -5.1083421707153320e-01 5.7185035943984985e-01</leafValues></_>
        <_>
          <internalNodes>
            0 -1 49 542605374 -1912339772 -1962917620 -620687295
            958562714 -1995439998 -925982591 -1923383066</internalNodes>
          <leafValues>
            -5.1386958360671997e-01 5.7029956579208374e-01</leafValues></_>
        <_>
          <internalNodes>
            0 -1 2 1654051098 71360727 151044373 -702304032 301990107
            -2105540216 1207993027 -29277358</internalNodes>
          <leafValues>
            -5.7807862758636475e-01 5.4326879978179932e-01</leafValues></_>
        <_>
          <internalNodes>
            0 -1 60 -18570267 -675436882 -42045825 1498886142 -537137708
            -1049118210 -1494225246 -608496190</internalNodes>
          <leafValues>
            -4.2580774426460266e-01 6.9950288534164429e-01</leafValues></_></weakClassifiers></_>
    <!-- stage 8 -->
    <_>
      <maxWeakCount>6</maxWeakCount>
      <stageThreshold>-1.1055697202682495e+00</stageThreshold>
      <weakClassifiers>
        <_>
          <internalNodes>
            0 -1 66 -754675696 -1694400192 67125248 -788455164 8945801
            -1342177152 679512202 -7425381</internalNodes>
          <leafValues>
            -7.0531821250915527e-01 7.9342722892761230e-01</leafValues></_>
        <_>
          <internalNodes>
            0 -1 44 -656719216 1343586306 0 -2076080121 -1073741816
            -2147450880 327683 -1676949369</internalNodes>
          <leafValues>
            -6.2589794397354126e-01 5.8985662460327148e-01</leafValues></_>
        <_>
          <internalNodes>
            0 -1 21 -1762201944 -25165837 -1124073612 209616767
            -1644232834 -1098928131 998111101 -536885251</internalNodes>
          <leafValues>
            -5.8069753646850586e-01 6.9380754232406616e-01</leafValues></_>
        <_>
          <internalNodes>
            0 -1 48 1736342766 2079276983 -281215121 -553680906
            805252811 -805339265 -1342505093 -269451940</internalNodes>
          <leafValues>
            -5.1522731781005859e-01 7.0693486928939819e-01</leafValues></_>
        <_>
          <internalNodes>
            0 -1 28 -1123554938 2134454268 -155222660 1171459951
            1878461883 251188868 -1206546436 179033320</internalNodes>
          <leafValues>
            -5.2877038717269897e-01 6.8577826023101807e-01</leafValues></_>
        <_>
          <internalNodes>
            0 -1 38 -209026605 268599297 285212686 1708037 -1576894464
            -1878457344 -1610547072 -2121645525</internalNodes>
          <leafValues>
            -5.7996147871017456e-01 7.5971734523773193e-01</leafValues></_></weakClassifiers></_>
    <!-- stage 9 -->
    <_>
      <maxWeakCount>4</maxWeakCount>
      <stageThreshold>-1.3686169385910034e+00</stageThreshold>
      <weakClassifiers>
        <_>
          <internalNodes>
            0 -1 22 1342292608 0 276 1342177296 -2147483648 -2013265888
            26 -1440349934</internalNodes>
          <leafValues>
            -8.3739089965820313e-01 1.</leafValues></_>
        <_>
          <internalNodes>
            0 -1 51 -1860124656 335560704 1 -801046527 8421376
            -2147483648 11 1207959554</internalNodes>
          <leafValues>
            -7.5516915321350098e-01 9.3343156576156616e-01</leafValues></_>
        <_>
          <internalNodes>
            0 -1 24 617228328 721353823 1842347814 -708056074 -605143200
            1962727541 1023162481 -1575254152</internalNodes>
          <leafValues>
            -6.2959873676300049e-01 1.</leafValues></_>
        <_>
          <internalNodes>
            0 -1 50 67309568 270663701 0 268435457 268468234 536870912
            65544 1648575168</internalNodes>
          <leafValues>
            -7.2788554430007935e-01 8.5354185104370117e-01</leafValues></_></weakClassifiers></_></stages>
  <features>
    <_>
      <rect>
        0 1 7 6</rect></_>
    <_>
      <rect>
        0 2 13 7</rect></_>
    <_>
      <rect>
        0 3 5 5</rect></_>
    <_>
      <rect>
        0 7 8 6</rect></_>
    <_>
      <rect>
        0 8 1 1</rect></_>
    <_>
      <rect>
        0 11 1 1</rect></_>
    <_>
      <rect>
        1 0 12 8</rect></_>
    <_>
      <rect>
        1 1 13 8</rect></_>
    <_>
      <rect>
        1 8 10 3</rect></_>
    <_>
      <rect>
        1 11 2 1</rect></_>
    <_>
      <rect>
        1 12 1 2</rect></_>
    <_>
      <rect>
        2 0 11 4</rect></_>
    <_>
      <rect>
        2 1 4 1</rect></_>
    <_>
      <rect>
        3 19 2 1</rect></_>
    <_>
      <rect>
        5 3 10 7</rect></_>
    <_>
      <rect>
        5 13 10 4</rect></_>
    <_>
      <rect>
        6 2 5 3</rect></_>
    <_>
      <rect>
        6 18 1 1</rect></_>
    <_>
      <rect>
        7 0 11 3</rect></_>
    <_>
      <rect>
        7 3 1 1</rect></_>
    <_>
      <rect>
        7 12 9 3</rect></_>
    <_>
      <rect>
        7 16 6 2</rect></_>
    <_>
      <rect>
        7 21 3 1</rect></_>
    <_>
      <rect>
        8 0 8 4</rect></_>
    <_>
      <rect>
        8 7 1 1</rect></_>
    <_>
      <rect>
        8 16 8 3</rect></_>
    <_>
      <rect>
        8 18 1 1</rect></_>
    <_>
      <rect>
        8 21 1 1</rect></_>
    <_>
      <rect>
        9 20 1 1</rect></_>
    <_>
      <rect>
        9 22 1 1</rect></_>
    <_>
      <rect>
        10 4 7 3</rect></_>
    <_>
      <rect>
        10 18 7 2</rect></_>
    <_>
      <rect>
        11 8 3 3</rect></_>
    <_>
      <rect>
        11 8 6 3</rect></_>
    <_>
      <rect>
        11 10 6 2</rect></_>
    <_>
      <rect>
        11 11 1 1</rect></_>
    <_>
      <rect>
        12 12 7 2</rect></_>
    <_>
      <rect>
        13 14 2 1</rect></_>
    <_>
      <rect>
        14 2 6 2</rect></_>
    <_>
      <rect>
        14 9 3 2</rect></_>
    <_>
      <rect>
        14 11 1 1</rect></_>
    <_>
      <rect>
        14 14 4 1</rect></_>
    <_>
      <rect>
        14 21 1 1</rect></_>
    <_>
      <rect>
        15 1 1 1</rect></_>
    <_>
      <rect>
        16 7 8 6</rect></_>
    <_>
      <rect>
        16 10 8 5</rect></_>
    <_>
      <rect>
        18 21 1 1</rect></_>
    <_>
      <rect>
        19 9 6 3</rect></_>
    <_>
      <rect>
        19 13 5 2</rect></_>
    <_>
      <rect>
        20 2 2 1</rect></_>
    <_>
      <rect>
        20 6 2 1</rect></_>
    <_>
      <rect>
        21 13 3 1</rect></_>
    <_>
      <rect>
        21 14 2 1</rect></_>
    <_>
      <rect>
        22 1 1 1</rect></_>
    <_>
      <rect>
        22 4 3 2</rect></_>
    <_>
      <rect>
        22 8 1 1</rect></_>
    <_>
      <rect>
        23 11 1 1</rect></_>
    <_>
      <rect>
        25 21 1 1</rect></_>
    <_>
      <rect>
        26 1 1 1</rect></_>
    <_>
      <rect>
        26 8 1 1</rect></_>
    <_>
      <rect>
        26 11 1 1</rect></_>
    <_>
      <rect>
        28 0 1 1</rect></_>
    <_>
      <rect>
        28 1 1 1</rect></_>
    <_>
      <rect>
        28 1 4 6</rect></_>
    <_>
      <rect>
        28 9 1 1</rect></_>
    <_>
      <rect>
        33 15 2 1</rect></_>
    <_>
      <rect>
        35 16 1 1</rect></_>
    <_>
      <rect>
        37 8 1 1</rect></_>
    <_>
      <rect>
        37 8 1 2</rect></_>
    <_>
      <rect>
        37 11 1 1</rect></_></features></cascade>
</opencv_storage>
