<?xml version="1.0"?>
<opencv_storage>
<cascade>
  <stageType>BOOST</stageType>
  <featureType>LBP</featureType>
  <height>25</height>
  <width>40</width>
  <stageParams>
    <boostType>GAB</boostType>
    <minHitRate>9.9900001287460327e-01</minHitRate>
    <maxFalseAlarm>3.0000001192092896e-01</maxFalseAlarm>
    <weightTrimRate>9.4999998807907104e-01</weightTrimRate>
    <maxDepth>1</maxDepth>
    <maxWeakCount>100</maxWeakCount></stageParams>
  <featureParams>
    <maxCatCount>256</maxCatCount>
    <featSize>1</featSize></featureParams>
  <stageNum>17</stageNum>
  <stages>
    <!-- stage 0 -->
    <_>
      <maxWeakCount>4</maxWeakCount>
      <stageThreshold>-7.9624742269515991e-01</stageThreshold>
      <weakClassifiers>
        <_>
          <internalNodes>
            0 -1 36 826282201 -685944751 573789 1897517075 -1979152193
            -1249279860 76079547 -68239207</internalNodes>
          <leafValues>
            -8.9612841606140137e-01 4.2857143282890320e-01</leafValues></_>
        <_>
          <internalNodes>
            0 -1 45 957372666 -16711424 25199967 1461141509 -1467907666
            261128361 948488895 254445580</internalNodes>
          <leafValues>
            -9.3656629323959351e-01 3.6425888538360596e-01</leafValues></_>
        <_>
          <internalNodes>
            0 -1 28 1342231499 -611303407 268452417 1834287377
            -1979170050 -351600630 -2143254353 256573515</internalNodes>
          <leafValues>
            -7.1651357412338257e-01 6.3867217302322388e-01</leafValues></_>
        <_>
          <internalNodes>
            0 -1 46 -1852747686 -238190315 -1073736609 -680312811
            -930306086 -1148544870 -1417115137 -1624761351</internalNodes>
          <leafValues>
            -8.7256419658660889e-01 5.2820473909378052e-01</leafValues></_></weakClassifiers></_>
    <!-- stage 1 -->
    <_>
      <maxWeakCount>5</maxWeakCount>
      <stageThreshold>-1.1347382068634033e+00</stageThreshold>
      <weakClassifiers>
        <_>
          <internalNodes>
            0 -1 5 -787551253 377351 -2138353653 -523483126 1879081985
            537002113 -1071429629 -236456205</internalNodes>
          <leafValues>
            -7.8621906042098999e-01 3.2319390773773193e-01</leafValues></_>
        <_>
          <internalNodes>
            0 -1 31 -1852777252 2034876417 17940630 1392595351
            -875914550 -887910397 436568255 -597431097</internalNodes>
          <leafValues>
            -7.0923936367034912e-01 4.6858665347099304e-01</leafValues></_>
        <_>
          <internalNodes>
            0 -1 40 -1684267270 -41860976 1118363 2131558405 -1566520918
            -133496317 436397767 1595727277</internalNodes>
          <leafValues>
            -8.7426185607910156e-01 3.9132013916969299e-01</leafValues></_>
        <_>
          <internalNodes>
            0 -1 70 -146276900 855883783 17482760 352829514 -1207663474
            -1740570223 1648822698 -589051693</internalNodes>
          <leafValues>
            -5.8829301595687866e-01 6.6373109817504883e-01</leafValues></_>
        <_>
          <internalNodes>
            0 -1 83 -268452246 -1629585442 1996484350 -654528785
            -1107317024 1073184766 -1610616482 -1418209841</internalNodes>
          <leafValues>
            -5.5171978473663330e-01 7.3925095796585083e-01</leafValues></_></weakClassifiers></_>
    <!-- stage 2 -->
    <_>
      <maxWeakCount>4</maxWeakCount>
      <stageThreshold>-1.8155316114425659e+00</stageThreshold>
      <weakClassifiers>
        <_>
          <internalNodes>
            0 -1 64 -1280601400 -215805808 1628554240 -215891968
            -1878611832 -1333624704 -2113877266 -223684444</internalNodes>
          <leafValues>
            -8.7267386913299561e-01 2.2994652390480042e-01</leafValues></_>
        <_>
          <internalNodes>
            0 -1 9 -96239472 431071258 -805126126 1440198806 1476526082
            -2113929216 -368901594 -141297101</internalNodes>
          <leafValues>
            -7.4383223056793213e-01 5.2578914165496826e-01</leafValues></_>
        <_>
          <internalNodes>
            0 -1 66 -291798710 -267747318 64 -41054208 -2013134184
            -1584267264 -1476165624 -41250751</internalNodes>
          <leafValues>
            -7.3566287755966187e-01 6.4052116870880127e-01</leafValues></_>
        <_>
          <internalNodes>
            0 -1 47 999506426 -272154559 -1861873455 647434451
            -1597898742 -351092734 1523106467 -822421836</internalNodes>
          <leafValues>
            -8.3954668045043945e-01 4.9214893579483032e-01</leafValues></_></weakClassifiers></_>
    <!-- stage 3 -->
    <_>
      <maxWeakCount>3</maxWeakCount>
      <stageThreshold>-9.9820828437805176e-01</stageThreshold>
      <weakClassifiers>
        <_>
          <internalNodes>
            0 -1 73 -761364342 -1858011136 8336 -183959488 163848
            -2147483648 98954 -72639606</internalNodes>
          <leafValues>
            -8.2276278734207153e-01 5.8196723461151123e-01</leafValues></_>
        <_>
          <internalNodes>
            0 -1 50 -1339940858 -654079999 1073741968 -744816632
            537034889 524288 142745738 -1817542528</internalNodes>
          <leafValues>
            -8.3244138956069946e-01 5.5606949329376221e-01</leafValues></_>
        <_>
          <internalNodes>
            0 -1 6 -762150750 -1065156608 20496 -771564928 -1073577975
            1074790400 -2138931007 -477392694</internalNodes>
          <leafValues>
            -7.3151499032974243e-01 7.4673157930374146e-01</leafValues></_></weakClassifiers></_>
    <!-- stage 4 -->
    <_>
      <maxWeakCount>5</maxWeakCount>
      <stageThreshold>-1.0170848369598389e+00</stageThreshold>
      <weakClassifiers>
        <_>
          <internalNodes>
            0 -1 91 -206579765 75893262 50196 -1690185589 807502568
            570949761 -2012528245 -805307669</internalNodes>
          <leafValues>
            -7.8503870964050293e-01 4.6551725268363953e-01</leafValues></_>
        <_>
          <internalNodes>
            0 -1 10 -236194878 -787185270 1082130560 1996982273
            -759123583 155748358 -1473998832 -427341785</internalNodes>
          <leafValues>
            -7.1116089820861816e-01 4.9308392405509949e-01</leafValues></_>
        <_>
          <internalNodes>
            0 -1 17 -285213366 -1493238050 -822149378 -282607650
            -184748092 1316437503 -1631586837 -404242473</internalNodes>
          <leafValues>
            -5.9674054384231567e-01 6.5046036243438721e-01</leafValues></_>
        <_>
          <internalNodes>
            0 -1 88 -6966520 134906002 -2146885216 822560771 -368983932
            310378762 1981980679 -23659425</internalNodes>
          <leafValues>
            -6.9733947515487671e-01 5.7460319995880127e-01</leafValues></_>
        <_>
          <internalNodes>
            0 -1 11 -786869538 -796802880 268454211 1435078673
            2014118047 -668858360 1745539499 -1631071920</internalNodes>
          <leafValues>
            -6.7825102806091309e-01 5.8040314912796021e-01</leafValues></_></weakClassifiers></_>
    <!-- stage 5 -->
    <_>
      <maxWeakCount>6</maxWeakCount>
      <stageThreshold>-1.0972499847412109e+00</stageThreshold>
      <weakClassifiers>
        <_>
          <internalNodes>
            0 -1 21 -1085048069 -605867065 1225521295 -1827178735
            -2143226401 -116930294 -914167185 2142829053</internalNodes>
          <leafValues>
            -8.8366889953613281e-01 -2.9940119013190269e-02</leafValues></_>
        <_>
          <internalNodes>
            0 -1 4 -581643536 1733939591 -1122738991 823317763
            1745482046 -1407057895 -2113317137 -1879557955</internalNodes>
          <leafValues>
            -7.3982387781143188e-01 3.3409830927848816e-01</leafValues></_>
        <_>
          <internalNodes>
            0 -1 2 -134221261 1087510090 -1341079164 -492500992
            269549706 -805288318 1074002434 1685572107</internalNodes>
          <leafValues>
            -7.1739161014556885e-01 4.4475346803665161e-01</leafValues></_>
        <_>
          <internalNodes>
            0 -1 48 999901403 -817098688 -1253974887 1414631833
            -804523938 -1196848957 277412791 -336719603</internalNodes>
          <leafValues>
            -7.5754284858703613e-01 4.3096262216567993e-01</leafValues></_>
        <_>
          <internalNodes>
            0 -1 39 1682246533 -938392829 -737127587 1116435 -1559230447
            -1440571262 -2008970938 -380911543</internalNodes>
          <leafValues>
            -7.3542767763137817e-01 4.8996537923812866e-01</leafValues></_>
        <_>
          <internalNodes>
            0 -1 33 -716640033 -754937712 -1677573824 826147205
            -2146818849 -1593735162 143100091 780673611</internalNodes>
          <leafValues>
            -6.8796777725219727e-01 5.1061266660690308e-01</leafValues></_></weakClassifiers></_>
    <!-- stage 6 -->
    <_>
      <maxWeakCount>6</maxWeakCount>
      <stageThreshold>-8.2959246635437012e-01</stageThreshold>
      <weakClassifiers>
        <_>
          <internalNodes>
            0 -1 80 -366229866 -1689583549 -1945829295 -770129855
            -1073033078 -2122317791 -517307990 -91518562</internalNodes>
          <leafValues>
            -7.9606437683105469e-01 3.0685919523239136e-01</leafValues></_>
        <_>
          <internalNodes>
            0 -1 21 1061125822 -637574076 -1073655585 -715692913
            -2122267410 -846790389 -2147319523 799571369</internalNodes>
          <leafValues>
            -9.4868290424346924e-01 2.6328212022781372e-01</leafValues></_>
        <_>
          <internalNodes>
            0 -1 52 -242056320 -1300103040 100892752 2110804240
            1141023146 8454200 -670166856 -788395990</internalNodes>
          <leafValues>
            -7.4393874406814575e-01 4.3596875667572021e-01</leafValues></_>
        <_>
          <internalNodes>
            0 -1 69 -3441494 1005338094 1995316203 2146366589 -958407746
            939524063 1463549874 -1097908757</internalNodes>
          <leafValues>
            -5.8560866117477417e-01 6.3790917396545410e-01</leafValues></_>
        <_>
          <internalNodes>
            0 -1 23 -643098106 -1333591534 33305 2084586002 -1559101430
            -1610547072 721649817 -735918080</internalNodes>
          <leafValues>
            -6.8753427267074585e-01 5.8433973789215088e-01</leafValues></_>
        <_>
          <internalNodes>
            0 -1 1 -1040985894 1347813696 -1610383350 -686571519
            -1073047377 1881342082 -2130312517 -22428894</internalNodes>
          <leafValues>
            -5.6255960464477539e-01 6.9545638561248779e-01</leafValues></_></weakClassifiers></_>
    <!-- stage 7 -->
    <_>
      <maxWeakCount>5</maxWeakCount>
      <stageThreshold>-1.1946257352828979e+00</stageThreshold>
      <weakClassifiers>
        <_>
          <internalNodes>
            0 -1 77 -190841893 -768769534 -1593669164 -205275111
            -2138667380 -796917598 -469187925 -73672498</internalNodes>
          <leafValues>
            -7.2690761089324951e-01 6.6666668653488159e-01</leafValues></_>
        <_>
          <internalNodes>
            0 -1 92 -661991250 -2138701310 1879175251 1158615061
            480313492 620925057 -805273201 -1756421389</internalNodes>
          <leafValues>
            -6.8475514650344849e-01 4.9017852544784546e-01</leafValues></_>
        <_>
          <internalNodes>
            0 -1 35 -1759814022 -317095408 -939505277 412717060
            1518889155 -39352285 537436593 -80039492</internalNodes>
          <leafValues>
            -8.0417311191558838e-01 4.6145799756050110e-01</leafValues></_>
        <_>
          <internalNodes>
            0 -1 51 -244387122 -770882942 1073742868 -53587941
            -1577025533 -200276992 294240427 -1622488165</internalNodes>
          <leafValues>
            -6.5471470355987549e-01 5.9810400009155273e-01</leafValues></_>
        <_>
          <internalNodes>
            0 -1 44 407262490 -192560931 218171741 -100237311
            -2143188864 -2013132663 -2105540607 -1285074787</internalNodes>
          <leafValues>
            -7.6463997364044189e-01 5.5874449014663696e-01</leafValues></_></weakClassifiers></_>
    <!-- stage 8 -->
    <_>
      <maxWeakCount>7</maxWeakCount>
      <stageThreshold>-1.3287755250930786e+00</stageThreshold>
      <weakClassifiers>
        <_>
          <internalNodes>
            0 -1 87 -537395677 -804548407 -2146369522 1343963392
            -2134663080 1610776609 -1606229845 -389286189</internalNodes>
          <leafValues>
            -7.8577858209609985e-01 2.3943662643432617e-01</leafValues></_>
        <_>
          <internalNodes>
            0 -1 3 1401380062 -250527469 -805142499 -654098168
            1904902894 -645234175 -905281093 -771234698</internalNodes>
          <leafValues>
            -6.9322901964187622e-01 4.3433409929275513e-01</leafValues></_>
        <_>
          <internalNodes>
            0 -1 60 -1319605798 -808873792 1224755609 1935348695
            134793355 -290914286 594579 -661593359</internalNodes>
          <leafValues>
            -7.9746711254119873e-01 4.1431796550750732e-01</leafValues></_>
        <_>
          <internalNodes>
            0 -1 62 -1648291398 -1256285166 -536776636 -201191397
            63668425 1083838497 1111736483 -1283013733</internalNodes>
          <leafValues>
            -6.4801746606826782e-01 5.0136071443557739e-01</leafValues></_>
        <_>
          <internalNodes>
            0 -1 61 -719512296 429074053 -2147286905 -1769914362
            -2122168166 270532737 -2147106677 2014208755</internalNodes>
          <leafValues>
            -7.9233413934707642e-01 4.6538922190666199e-01</leafValues></_>
        <_>
          <internalNodes>
            0 -1 72 -83717426 1900216386 83951616 -578387709 -1031554872
            538574848 536875177 -1011138421</internalNodes>
          <leafValues>
            -5.1253789663314819e-01 7.3329645395278931e-01</leafValues></_>
        <_>
          <internalNodes>
            0 -1 38 -1857154185 1641349138 135669 -201244544 1778417673
            -662503416 -2130673632 216512640</internalNodes>
          <leafValues>
            -7.8174203634262085e-01 5.1530224084854126e-01</leafValues></_></weakClassifiers></_>
    <!-- stage 9 -->
    <_>
      <maxWeakCount>6</maxWeakCount>
      <stageThreshold>-1.4888496398925781e+00</stageThreshold>
      <weakClassifiers>
        <_>
          <internalNodes>
            0 -1 18 -610796913 -770342574 287391970 -1051293502
            1611252915 -242221055 -450658101 -93324609</internalNodes>
          <leafValues>
            -7.2580647468566895e-01 6.1290323734283447e-01</leafValues></_>
        <_>
          <internalNodes>
            0 -1 55 -865870489 -984198845 71356693 -1627029360
            -1945460038 -670875648 -939349881 -3522465</internalNodes>
          <leafValues>
            -6.0693764686584473e-01 5.3827971220016479e-01</leafValues></_>
        <_>
          <internalNodes>
            0 -1 84 -236215386 -1247477304 -536847598 1363771393
            1384325182 1084384410 1644929178 -962870573</internalNodes>
          <leafValues>
            -5.6626176834106445e-01 6.1915582418441772e-01</leafValues></_>
        <_>
          <internalNodes>
            0 -1 76 974639166 1967177953 -246988779 1364590722
            -494663570 -2004638519 -2145287264 -586700050</internalNodes>
          <leafValues>
            -6.2843906879425049e-01 5.9577715396881104e-01</leafValues></_>
        <_>
          <internalNodes>
            0 -1 85 -1939488074 562235794 -2147381220 -238171862
            277946377 151177089 822125371 -292032829</internalNodes>
          <leafValues>
            -6.4528298377990723e-01 5.9147834777832031e-01</leafValues></_>
        <_>
          <internalNodes>
            0 -1 49 -1657333601 -753729455 -1862204981 1677787331
            -132628328 -536674303 -2003860533 531256776</internalNodes>
          <leafValues>
            -7.8391987085342407e-01 4.9846065044403076e-01</leafValues></_></weakClassifiers></_>
    <!-- stage 10 -->
    <_>
      <maxWeakCount>7</maxWeakCount>
      <stageThreshold>-1.1622581481933594e+00</stageThreshold>
      <weakClassifiers>
        <_>
          <internalNodes>
            0 -1 32 -48516126 -751529966 1426262099 -1286766111
            -1073052534 -2145288060 -805065811 -65025250</internalNodes>
          <leafValues>
            -7.9398357868194580e-01 2.2147651016712189e-01</leafValues></_>
        <_>
          <internalNodes>
            0 -1 8 -640164157 -1945935867 -1056798581 1497531522
            1073930787 3276902 1208975495 -277624185</internalNodes>
          <leafValues>
            -5.4717111587524414e-01 6.6081523895263672e-01</leafValues></_>
        <_>
          <internalNodes>
            0 -1 63 855708767 -474525693 -784773345 1363759121 616622466
            -868200301 1648411747 -1686500448</internalNodes>
          <leafValues>
            -7.8880912065505981e-01 4.3236202001571655e-01</leafValues></_>
        <_>
          <internalNodes>
            0 -1 12 -1293237342 1418023302 -2146877024 -685169664
            1351148169 556072960 -2147325829 -211027382</internalNodes>
          <leafValues>
            -5.8439052104949951e-01 5.9432280063629150e-01</leafValues></_>
        <_>
          <internalNodes>
            0 -1 56 -1845361562 -1785449444 1090519076 855879698
            806013086 545817646 1118513583 -70291413</internalNodes>
          <leafValues>
            -6.5297269821166992e-01 5.2905613183975220e-01</leafValues></_>
        <_>
          <internalNodes>
            0 -1 16 -1132276418 395350272 65691 1493533577 537012667
            -1391919102 1610784954 1763562144</internalNodes>
          <leafValues>
            -7.3121923208236694e-01 5.4255163669586182e-01</leafValues></_>
        <_>
          <internalNodes>
            0 -1 78 -761606694 -645872607 -1877999486 -217929527
            109285506 -267739068 1653473930 -882704256</internalNodes>
          <leafValues>
            -5.7411396503448486e-01 6.7722463607788086e-01</leafValues></_></weakClassifiers></_>
    <!-- stage 11 -->
    <_>
      <maxWeakCount>6</maxWeakCount>
      <stageThreshold>-9.3057143688201904e-01</stageThreshold>
      <weakClassifiers>
        <_>
          <internalNodes>
            0 -1 79 -103813201 -986463983 1342783512 -674691960
            -1056791862 -1711112064 -630551864 -8920609</internalNodes>
          <leafValues>
            -7.4683547019958496e-01 3.8095238804817200e-01</leafValues></_>
        <_>
          <internalNodes>
            0 -1 37 950603881 -213444025 1501708737 1997472002
            -2138894151 -561315839 1887472008 -546776092</internalNodes>
          <leafValues>
            -8.0982780456542969e-01 2.9749149084091187e-01</leafValues></_>
        <_>
          <internalNodes>
            0 -1 67 547738781 687911249 -737079213 -112512751 -936795541
            2072019457 1449376907 -685891156</internalNodes>
          <leafValues>
            -6.5426361560821533e-01 4.6989926695823669e-01</leafValues></_>
        <_>
          <internalNodes>
            0 -1 90 -707009821 -1035815920 -805187940 415612934
            -32985040 629252394 1722518185 349695659</internalNodes>
          <leafValues>
            -6.9446337223052979e-01 4.8922902345657349e-01</leafValues></_>
        <_>
          <internalNodes>
            0 -1 19 -830868851 -787447552 1208041602 28704835 -901740485
            274203136 948356014 1334536747</internalNodes>
          <leafValues>
            -6.7249506711959839e-01 5.1158499717712402e-01</leafValues></_>
        <_>
          <internalNodes>
            0 -1 24 -686727974 -1824058622 -1357671921 1460888093
            285619413 277348617 281739958 2146490525</internalNodes>
          <leafValues>
            -7.6824831962585449e-01 4.4323158264160156e-01</leafValues></_></weakClassifiers></_>
    <!-- stage 12 -->
    <_>
      <maxWeakCount>7</maxWeakCount>
      <stageThreshold>-1.1171965599060059e+00</stageThreshold>
      <weakClassifiers>
        <_>
          <internalNodes>
            0 -1 58 -606105473 1396377627 -1861615271 -1748528985
            -659381814 -1463148416 -108820277 -342955093</internalNodes>
          <leafValues>
            -7.5042736530303955e-01 3.2444444298744202e-01</leafValues></_>
        <_>
          <internalNodes>
            0 -1 81 -1736706150 822104082 -2146417856 -1316073390
            -1836564274 -1204756415 93563341 -320152329</internalNodes>
          <leafValues>
            -6.7461425065994263e-01 3.9186945557594299e-01</leafValues></_>
        <_>
          <internalNodes>
            0 -1 41 -591335085 -1043300140 -2013216746 -544403255
            -1459502884 210059288 1845668073 -1525917361</internalNodes>
          <leafValues>
            -6.3439214229583740e-01 4.8991030454635620e-01</leafValues></_>
        <_>
          <internalNodes>
            0 -1 14 -7674674 1242497280 1686229460 1745051652 25302172
            1375936601 -1979456954 -246678618</internalNodes>
          <leafValues>
            -6.7514801025390625e-01 5.0995844602584839e-01</leafValues></_>
        <_>
          <internalNodes>
            0 -1 29 -1852681024 -1052639184 289603864 -539622859
            537270714 -927432536 419480264 -198184320</internalNodes>
          <leafValues>
            -6.0235488414764404e-01 5.8670687675476074e-01</leafValues></_>
        <_>
          <internalNodes>
            0 -1 86 -94965733 1377518086 -1056833216 672858112
            -1811232766 -2147483648 -468484023 -763701546</internalNodes>
          <leafValues>
            -5.8031165599822998e-01 6.4179384708404541e-01</leafValues></_>
        <_>
          <internalNodes>
            0 -1 20 -1992174129 -1786571503 -1986527174 1074192901
            -2130541569 -1723236205 268648981 -49419557</internalNodes>
          <leafValues>
            -5.7584089040756226e-01 6.4898526668548584e-01</leafValues></_></weakClassifiers></_>
    <!-- stage 13 -->
    <_>
      <maxWeakCount>6</maxWeakCount>
      <stageThreshold>-8.4764569997787476e-01</stageThreshold>
      <weakClassifiers>
        <_>
          <internalNodes>
            0 -1 42 -212879137 -779284445 1097138448 -737689534
            -2096901973 -523370478 -1043739765 -135268693</internalNodes>
          <leafValues>
            -7.2950822114944458e-01 4.8571428656578064e-01</leafValues></_>
        <_>
          <internalNodes>
            0 -1 65 -1586343207 -111869952 1359151519 -553089256
            -1526690593 -133651934 1270393505 -1650740396</internalNodes>
          <leafValues>
            -7.3138815164566040e-01 4.2501893639564514e-01</leafValues></_>
        <_>
          <internalNodes>
            0 -1 71 -471999196 760029203 -1727901537 151093940
            -1715464005 -1417461632 692263118 -130502386</internalNodes>
          <leafValues>
            -7.3267066478729248e-01 4.2663654685020447e-01</leafValues></_>
        <_>
          <internalNodes>
            0 -1 43 -1333256361 1493343504 17072462 -628141491
            -209696039 -567700792 2046920729 23808668</internalNodes>
          <leafValues>
            -7.4746298789978027e-01 4.2059832811355591e-01</leafValues></_>
        <_>
          <internalNodes>
            0 -1 27 -175398390 286851589 545280276 -421115903 936658
            -1984396544 906244230 -2094726377</internalNodes>
          <leafValues>
            -6.9955074787139893e-01 5.1973408460617065e-01</leafValues></_>
        <_>
          <internalNodes>
            0 -1 53 1045697273 -41545727 402669751 1486229659
            -2104846050 -1986363374 59494616 -768874336</internalNodes>
          <leafValues>
            -6.9084060192108154e-01 5.2678519487380981e-01</leafValues></_></weakClassifiers></_>
    <!-- stage 14 -->
    <_>
      <maxWeakCount>6</maxWeakCount>
      <stageThreshold>-9.3636846542358398e-01</stageThreshold>
      <weakClassifiers>
        <_>
          <internalNodes>
            0 -1 26 -72629249 -705967997 1628045466 1998819496
            -259329651 1480820736 -2138844509 -1316109</internalNodes>
          <leafValues>
            -7.1244978904724121e-01 5.4666668176651001e-01</leafValues></_>
        <_>
          <internalNodes>
            0 -1 59 -1238872837 -179875676 -1056926637 -183367095
            -1322986498 2032697506 -1597888321 535572141</internalNodes>
          <leafValues>
            -8.3050787448883057e-01 2.9365167021751404e-01</leafValues></_>
        <_>
          <internalNodes>
            0 -1 89 -271326704 1216414209 -767454847 459457745
            1242075266 1115721765 -665339389 -1931233865</internalNodes>
          <leafValues>
            -6.0257434844970703e-01 5.1133692264556885e-01</leafValues></_>
        <_>
          <internalNodes>
            0 -1 68 -1995768360 -2071157888 -1604990575 1847214084
            1074282737 394397824 1091692701 -88292519</internalNodes>
          <leafValues>
            -7.4406850337982178e-01 4.3931537866592407e-01</leafValues></_>
        <_>
          <internalNodes>
            0 -1 13 335705109 -1068433408 -1878898873 -762642175
            -1442157889 -670326656 1091232143 515302416</internalNodes>
          <leafValues>
            -7.1846908330917358e-01 4.6495828032493591e-01</leafValues></_>
        <_>
          <internalNodes>
            0 -1 74 193500280 1812144647 268554324 1946484758 1107305166
            -853966669 -1442037397 1920390041</internalNodes>
          <leafValues>
            -7.4975353479385376e-01 4.4584000110626221e-01</leafValues></_></weakClassifiers></_>
    <!-- stage 15 -->
    <_>
      <maxWeakCount>6</maxWeakCount>
      <stageThreshold>-6.7005956172943115e-01</stageThreshold>
      <weakClassifiers>
        <_>
          <internalNodes>
            0 -1 25 -253759089 -805203961 -266002408 -108396137
            -243167026 -2113241086 -459570500 -11333</internalNodes>
          <leafValues>
            -7.2048193216323853e-01 6.1333334445953369e-01</leafValues></_>
        <_>
          <internalNodes>
            0 -1 75 -2028789621 -2096398080 318832641 -753629112
            -935296887 -1878917119 -1014429687 -379337539</internalNodes>
          <leafValues>
            -6.5185248851776123e-01 4.8182192444801331e-01</leafValues></_>
        <_>
          <internalNodes>
            0 -1 57 -267926334 -757037997 471012147 828539056
            -2141036408 42635416 964755594 1414671079</internalNodes>
          <leafValues>
            -7.9554623365402222e-01 4.0361273288726807e-01</leafValues></_>
        <_>
          <internalNodes>
            0 -1 15 -289468689 -72565142 -83888145 -1275073555
            1879040702 -814743718 2013198331 -939526152</internalNodes>
          <leafValues>
            -5.7008099555969238e-01 6.0053229331970215e-01</leafValues></_>
        <_>
          <internalNodes>
            0 -1 54 63506640 185696643 1283 -872210176 -1610571703
            53608452 -1207250301 1921699977</internalNodes>
          <leafValues>
            -8.4538072347640991e-01 5.0403141975402832e-01</leafValues></_>
        <_>
          <internalNodes>
            0 -1 30 -1320873835 -653049831 17437011 1342243143
            1086447746 -931004303 -2100690743 -1680866593</internalNodes>
          <leafValues>
            -5.9016382694244385e-01 6.4293682575225830e-01</leafValues></_></weakClassifiers></_>
    <!-- stage 16 -->
    <_>
      <maxWeakCount>5</maxWeakCount>
      <stageThreshold>-9.9472910165786743e-01</stageThreshold>
      <weakClassifiers>
        <_>
          <internalNodes>
            0 -1 82 -800628309 -746143741 956305418 -670367737
            1518370848 8390656 -2147448406 -243023517</internalNodes>
          <leafValues>
            -7.7005791664123535e-01 6.7741936445236206e-01</leafValues></_>
        <_>
          <internalNodes>
            0 -1 7 -104858650 1073643263 1879048189 989511295 -545489647
            2147418103 -138445508 -680001741</internalNodes>
          <leafValues>
            -5.7444876432418823e-01 7.6131838560104370e-01</leafValues></_>
        <_>
          <internalNodes>
            0 -1 34 -250771266 -536870902 -2147483647 95059969 268436494
            -1188986880 -2121367383 1697296545</internalNodes>
          <leafValues>
            -7.2372585535049438e-01 5.6455528736114502e-01</leafValues></_>
        <_>
          <internalNodes>
            0 -1 22 889865370 -1845165562 4292781 -452657149 -2147450736
            -2147352496 -938876928 1871218957</internalNodes>
          <leafValues>
            -8.7561804056167603e-01 4.7235971689224243e-01</leafValues></_>
        <_>
          <internalNodes>
            0 -1 0 1342751254 -738164732 -2147481573 981467171
            1107296294 4292610 268501120 -1805393133</internalNodes>
          <leafValues>
            -6.7492681741714478e-01 6.8945842981338501e-01</leafValues></_></weakClassifiers></_></stages>
  <features>
    <_>
      <rect>
        0 1 1 1</rect></_>
    <_>
      <rect>
        0 2 1 1</rect></_>
    <_>
      <rect>
        0 5 1 2</rect></_>
    <_>
      <rect>
        0 5 7 3</rect></_>
    <_>
      <rect>
        0 8 13 4</rect></_>
    <_>
      <rect>
        0 10 1 3</rect></_>
    <_>
      <rect>
        0 11 1 1</rect></_>
    <_>
      <rect>
        0 11 1 4</rect></_>
    <_>
      <rect>
        0 13 1 3</rect></_>
    <_>
      <rect>
        0 20 1 1</rect></_>
    <_>
      <rect>
        1 0 1 1</rect></_>
    <_>
      <rect>
        1 2 7 4</rect></_>
    <_>
      <rect>
        1 7 1 1</rect></_>
    <_>
      <rect>
        1 8 6 2</rect></_>
    <_>
      <rect>
        1 9 1 1</rect></_>
    <_>
      <rect>
        1 11 5 1</rect></_>
    <_>
      <rect>
        1 11 7 2</rect></_>
    <_>
      <rect>
        1 14 1 1</rect></_>
    <_>
      <rect>
        1 16 1 2</rect></_>
    <_>
      <rect>
        2 16 10 3</rect></_>
    <_>
      <rect>
        3 1 11 3</rect></_>
    <_>
      <rect>
        3 1 11 8</rect></_>
    <_>
      <rect>
        3 1 12 7</rect></_>
    <_>
      <rect>
        3 8 1 1</rect></_>
    <_>
      <rect>
        3 10 9 4</rect></_>
    <_>
      <rect>
        3 16 1 1</rect></_>
    <_>
      <rect>
        3 17 1 2</rect></_>
    <_>
      <rect>
        4 0 1 1</rect></_>
    <_>
      <rect>
        4 15 10 3</rect></_>
    <_>
      <rect>
        5 2 1 1</rect></_>
    <_>
      <rect>
        5 2 4 2</rect></_>
    <_>
      <rect>
        5 5 10 3</rect></_>
    <_>
      <rect>
        6 19 1 1</rect></_>
    <_>
      <rect>
        7 1 9 3</rect></_>
    <_>
      <rect>
        7 20 1 1</rect></_>
    <_>
      <rect>
        8 10 6 2</rect></_>
    <_>
      <rect>
        8 11 8 3</rect></_>
    <_>
      <rect>
        8 13 4 2</rect></_>
    <_>
      <rect>
        8 17 4 1</rect></_>
    <_>
      <rect>
        8 19 6 2</rect></_>
    <_>
      <rect>
        9 12 7 3</rect></_>
    <_>
      <rect>
        9 16 9 3</rect></_>
    <_>
      <rect>
        9 22 1 1</rect></_>
    <_>
      <rect>
        10 0 9 3</rect></_>
    <_>
      <rect>
        10 1 7 2</rect></_>
    <_>
      <rect>
        10 4 7 3</rect></_>
    <_>
      <rect>
        11 8 6 3</rect></_>
    <_>
      <rect>
        11 8 7 2</rect></_>
    <_>
      <rect>
        11 9 6 2</rect></_>
    <_>
      <rect>
        12 5 3 2</rect></_>
    <_>
      <rect>
        12 8 1 1</rect></_>
    <_>
      <rect>
        13 0 1 1</rect></_>
    <_>
      <rect>
        13 3 1 1</rect></_>
    <_>
      <rect>
        13 8 3 1</rect></_>
    <_>
      <rect>
        13 11 8 2</rect></_>
    <_>
      <rect>
        13 18 7 2</rect></_>
    <_>
      <rect>
        13 22 1 1</rect></_>
    <_>
      <rect>
        14 0 1 1</rect></_>
    <_>
      <rect>
        15 1 1 1</rect></_>
    <_>
      <rect>
        15 10 3 2</rect></_>
    <_>
      <rect>
        16 6 6 2</rect></_>
    <_>
      <rect>
        16 9 8 5</rect></_>
    <_>
      <rect>
        16 20 1 1</rect></_>
    <_>
      <rect>
        17 5 4 2</rect></_>
    <_>
      <rect>
        18 13 1 1</rect></_>
    <_>
      <rect>
        19 9 4 2</rect></_>
    <_>
      <rect>
        22 0 1 1</rect></_>
    <_>
      <rect>
        23 15 4 1</rect></_>
    <_>
      <rect>
        24 3 3 1</rect></_>
    <_>
      <rect>
        24 21 1 1</rect></_>
    <_>
      <rect>
        25 1 5 5</rect></_>
    <_>
      <rect>
        25 11 5 3</rect></_>
    <_>
      <rect>
        26 2 1 1</rect></_>
    <_>
      <rect>
        26 19 1 1</rect></_>
    <_>
      <rect>
        27 19 3 1</rect></_>
    <_>
      <rect>
        29 3 2 1</rect></_>
    <_>
      <rect>
        31 2 1 1</rect></_>
    <_>
      <rect>
        31 18 1 1</rect></_>
    <_>
      <rect>
        31 19 1 1</rect></_>
    <_>
      <rect>
        33 9 1 1</rect></_>
    <_>
      <rect>
        34 2 1 1</rect></_>
    <_>
      <rect>
        34 18 1 2</rect></_>
    <_>
      <rect>
        35 2 1 1</rect></_>
    <_>
      <rect>
        36 10 1 1</rect></_>
    <_>
      <rect>
        36 13 1 1</rect></_>
    <_>
      <rect>
        36 20 1 1</rect></_>
    <_>
      <rect>
        37 0 1 2</rect></_>
    <_>
      <rect>
        37 2 1 2</rect></_>
    <_>
      <rect>
        37 8 1 1</rect></_>
    <_>
      <rect>
        37 8 1 3</rect></_>
    <_>
      <rect>
        37 15 1 1</rect></_>
    <_>
      <rect>
        37 17 1 2</rect></_>
    <_>
      <rect>
        37 21 1 1</rect></_></features></cascade>
</opencv_storage>
