<?xml version="1.0"?>
<opencv_storage>
<cascade>
  <stageType>BOOST</stageType>
  <featureType>LBP</featureType>
  <height>40</height>
  <width>40</width>
  <stageParams>
    <boostType>GAB</boostType>
    <minHitRate>9.9900001287460327e-01</minHitRate>
    <maxFalseAlarm>3.0000001192092896e-01</maxFalseAlarm>
    <weightTrimRate>9.4999998807907104e-01</weightTrimRate>
    <maxDepth>1</maxDepth>
    <maxWeakCount>100</maxWeakCount></stageParams>
  <featureParams>
    <maxCatCount>256</maxCatCount>
    <featSize>1</featSize></featureParams>
  <stageNum>10</stageNum>
  <stages>
    <!-- stage 0 -->
    <_>
      <maxWeakCount>4</maxWeakCount>
      <stageThreshold>-9.4907826185226440e-01</stageThreshold>
      <weakClassifiers>
        <_>
          <internalNodes>
            0 -1 2 -111675410 -10497963 34063199 -179310325 -1970558801
            -66402070 -2021610761 -186384409</internalNodes>
          <leafValues>
            -9.0533804893493652e-01 2.9010990262031555e-01</leafValues></_>
        <_>
          <internalNodes>
            0 -1 59 -655553 -8757 -576987169 -134220353 -1711310217
            -315509 -53543561 2147348351</internalNodes>
          <leafValues>
            -8.7514519691467285e-01 5.1275610923767090e-01</leafValues></_>
        <_>
          <internalNodes>
            0 -1 7 -11809298 -141081783 536969558 -136932901 -1190164342
            1931259939 2114754250 -789980476</internalNodes>
          <leafValues>
            -9.0658819675445557e-01 5.0893777608871460e-01</leafValues></_>
        <_>
          <internalNodes>
            0 -1 20 -238031634 1310509110 -805203497 -392488687
            -255067582 -578039527 -364249515 -61474726</internalNodes>
          <leafValues>
            -8.2170605659484863e-01 5.4254519939422607e-01</leafValues></_></weakClassifiers></_>
    <!-- stage 1 -->
    <_>
      <maxWeakCount>4</maxWeakCount>
      <stageThreshold>-1.1049627065658569e+00</stageThreshold>
      <weakClassifiers>
        <_>
          <internalNodes>
            0 -1 17 -69214721 -34368257 -553560578 1072930124 1394757631
            -73826117 -539255381 2146533299</internalNodes>
          <leafValues>
            -8.8200587034225464e-01 1.1111111193895340e-01</leafValues></_>
        <_>
          <internalNodes>
            0 -1 3 1677678463 -270573657 -624721921 -288647266
            -100935169 -1076426833 1909119447 1972517814</internalNodes>
          <leafValues>
            -8.8466143608093262e-01 3.3889564871788025e-01</leafValues></_>
        <_>
          <internalNodes>
            0 -1 35 -546308618 -71318501 -703334945 -69741805 -430212333
            -673459749 -1399267459 -989860929</internalNodes>
          <leafValues>
            -7.0093506574630737e-01 5.8760458230972290e-01</leafValues></_>
        <_>
          <internalNodes>
            0 -1 58 -2129923 -796193 -1689124869 -71701059 -1077712003
            -1923873 -70320267 2080226215</internalNodes>
          <leafValues>
            -8.5403442382812500e-01 4.9364122748374939e-01</leafValues></_></weakClassifiers></_>
    <!-- stage 2 -->
    <_>
      <maxWeakCount>5</maxWeakCount>
      <stageThreshold>-1.5330549478530884e+00</stageThreshold>
      <weakClassifiers>
        <_>
          <internalNodes>
            0 -1 1 -170670354 -711110185 -1051667969 -4775785 -22742017
            -208494149 -1165362691 -171967533</internalNodes>
          <leafValues>
            -8.7975645065307617e-01 2.9304029420018196e-02</leafValues></_>
        <_>
          <internalNodes>
            0 -1 13 -603990018 -1120144034 -788246057 -73034 2014083696
            1250678970 -74352003 -33804</internalNodes>
          <leafValues>
            -8.1057077646255493e-01 3.3143174648284912e-01</leafValues></_>
        <_>
          <internalNodes>
            0 -1 36 2135421941 -1913657905 -837889537 -1342976611
            -941843780 -493174718 -1553689 -1648490566</internalNodes>
          <leafValues>
            -7.1021693944931030e-01 5.0489550828933716e-01</leafValues></_>
        <_>
          <internalNodes>
            0 -1 27 -2359802 -958243 -183765057 -84993 -141821287
            -74857894 1944780798 -1057632297</internalNodes>
          <leafValues>
            -8.1344550848007202e-01 4.4956535100936890e-01</leafValues></_>
        <_>
          <internalNodes>
            0 -1 46 996669406 983548385 -804138535 719245602 1627500500
            1707614885 -271853060 1409210871</internalNodes>
          <leafValues>
            -8.8075506687164307e-01 4.6582227945327759e-01</leafValues></_></weakClassifiers></_>
    <!-- stage 3 -->
    <_>
      <maxWeakCount>6</maxWeakCount>
      <stageThreshold>-1.4298342466354370e+00</stageThreshold>
      <weakClassifiers>
        <_>
          <internalNodes>
            0 -1 50 -3673225 -73690213 -784231457 -790785569 -106038713
            -1920810321 -1715874052 -989861637</internalNodes>
          <leafValues>
            -8.6873155832290649e-01 7.5396828353404999e-02</leafValues></_>
        <_>
          <internalNodes>
            0 -1 5 1859119599 1188022271 -1056763892 -1169241114
            -1206287519 2069086442 -1553256397 -147330185</internalNodes>
          <leafValues>
            -7.9932337999343872e-01 2.9977262020111084e-01</leafValues></_>
        <_>
          <internalNodes>
            0 -1 6 1845362651 -839588393 -1072918073 -269576941
            -336594253 -88145091 -156243017 2063433615</internalNodes>
          <leafValues>
            -7.7595770359039307e-01 4.1757503151893616e-01</leafValues></_>
        <_>
          <internalNodes>
            0 -1 37 -487589003 -132890225 688014295 -113262182
            -662455730 -83292005 412822523 -1522742276</internalNodes>
          <leafValues>
            -7.4547296762466431e-01 4.7897687554359436e-01</leafValues></_>
        <_>
          <internalNodes>
            0 -1 9 -614728961 -422559272 16830942 -914452004 -234211013
            714059968 -561038823 -230723870</internalNodes>
          <leafValues>
            -7.2153776884078979e-01 4.8077395558357239e-01</leafValues></_>
        <_>
          <internalNodes>
            0 -1 11 1917284447 525816137 1342330843 1986433307
            1380931711 1263501440 2015224172 2065103589</internalNodes>
          <leafValues>
            -7.9126405715942383e-01 4.3796479701995850e-01</leafValues></_></weakClassifiers></_>
    <!-- stage 4 -->
    <_>
      <maxWeakCount>7</maxWeakCount>
      <stageThreshold>-1.6316847801208496e+00</stageThreshold>
      <weakClassifiers>
        <_>
          <internalNodes>
            0 -1 24 -289144845 -137676594 1103856991 -538980137
            -665861185 -401964397 -74732825 -310904209</internalNodes>
          <leafValues>
            -8.0494320392608643e-01 1.7906336486339569e-01</leafValues></_>
        <_>
          <internalNodes>
            0 -1 16 869938150 -2019851929 -1073098346 -1143287417
            -1340462906 -620093217 1082753599 -277646489</internalNodes>
          <leafValues>
            -7.5399321317672729e-01 3.4244295954704285e-01</leafValues></_>
        <_>
          <internalNodes>
            0 -1 15 249557339 -2041069127 1116848635 -543694383
            -1316259137 -20215287 -107223297 2145385471</internalNodes>
          <leafValues>
            -7.6128470897674561e-01 4.2291608452796936e-01</leafValues></_>
        <_>
          <internalNodes>
            0 -1 49 -359872258 -1902325593 -2041490059 -161541691
            -339450627 -2111665919 -1232501507 -940897743</internalNodes>
          <leafValues>
            -6.0608261823654175e-01 5.5331283807754517e-01</leafValues></_>
        <_>
          <internalNodes>
            0 -1 21 1530951110 -1724401197 -1862184622 -1388723448
            -1064709698 -74724213 -745843841 902043531</internalNodes>
          <leafValues>
            -9.0981656312942505e-01 3.8669958710670471e-01</leafValues></_>
        <_>
          <internalNodes>
            0 -1 33 -268437517 -268501017 -4097 1873215486 -1073760649
            -10 -2132002 -8409435</internalNodes>
          <leafValues>
            -5.7152557373046875e-01 6.1469680070877075e-01</leafValues></_>
        <_>
          <internalNodes>
            0 -1 4 -17040177 1862205438 -65537 1878654966 -129
            -536870921 -137 -1252524193</internalNodes>
          <leafValues>
            -5.5437433719635010e-01 6.0775375366210938e-01</leafValues></_></weakClassifiers></_>
    <!-- stage 5 -->
    <_>
      <maxWeakCount>7</maxWeakCount>
      <stageThreshold>-1.7189252376556396e+00</stageThreshold>
      <weakClassifiers>
        <_>
          <internalNodes>
            0 -1 41 -103095566 -146545098 1881227389 -612564616
            -929675568 -1258204154 148521710 -71578725</internalNodes>
          <leafValues>
            -8.1428092718124390e-01 2.0217096805572510e-01</leafValues></_>
        <_>
          <internalNodes>
            0 -1 12 -786443298 -1722611429 -1215704706 -10759905
            1485570443 -1198817265 -99951713 805157438</internalNodes>
          <leafValues>
            -8.3687818050384521e-01 2.9010662436485291e-01</leafValues></_>
        <_>
          <internalNodes>
            0 -1 40 -128844568 -16547696 -1879044013 -714719098
            -636835798 981729281 676367239 -133221761</internalNodes>
          <leafValues>
            -6.3587397336959839e-01 5.1757204532623291e-01</leafValues></_>
        <_>
          <internalNodes>
            0 -1 0 -1907461378 -140537379 -721301121 -790974205
            -108332670 -1425473525 464230813 -781853867</internalNodes>
          <leafValues>
            -7.3256838321685791e-01 4.4909676909446716e-01</leafValues></_>
        <_>
          <internalNodes>
            0 -1 57 1863783251 -1290026991 -2130640207 -2029072101
            2038462612 -587022333 -211754020 1322115582</internalNodes>
          <leafValues>
            -7.5736838579177856e-01 4.2529809474945068e-01</leafValues></_>
        <_>
          <internalNodes>
            0 -1 54 422524183 1006731521 151097749 441860383 1024395935
            705241226 -879904590 -19947365</internalNodes>
          <leafValues>
            -6.1527341604232788e-01 5.2593046426773071e-01</leafValues></_>
        <_>
          <internalNodes>
            0 -1 45 -1520184492 793018710 -1877665446 -1082141355
            1107894504 1251639502 1074351773 1524128091</internalNodes>
          <leafValues>
            -8.1799846887588501e-01 3.9735704660415649e-01</leafValues></_></weakClassifiers></_>
    <!-- stage 6 -->
    <_>
      <maxWeakCount>7</maxWeakCount>
      <stageThreshold>-1.7245514392852783e+00</stageThreshold>
      <weakClassifiers>
        <_>
          <internalNodes>
            0 -1 44 -330952528 -1089254942 369153426 -682654985
            -57755236 -1287127039 -99438091 -1140991087</internalNodes>
          <leafValues>
            -8.6053413152694702e-01 3.9062500000000000e-02</leafValues></_>
        <_>
          <internalNodes>
            0 -1 38 -1312309008 1099895298 151572563 -684991352
            269099140 139169920 1899119246 -1826098965</internalNodes>
          <leafValues>
            -7.0037353038787842e-01 4.0940728783607483e-01</leafValues></_>
        <_>
          <internalNodes>
            0 -1 23 1591959391 815463389 -855550498 -170114422
            1145588200 1904996769 -104191018 -1208124487</internalNodes>
          <leafValues>
            -7.0791208744049072e-01 4.4307568669319153e-01</leafValues></_>
        <_>
          <internalNodes>
            0 -1 39 2077638522 -642670141 -2012216934 -440278073
            1201629824 -89972587 974330813 -436709030</internalNodes>
          <leafValues>
            -7.9107052087783813e-01 3.7878981232643127e-01</leafValues></_>
        <_>
          <internalNodes>
            0 -1 14 -1311588080 828179609 1426691583 2107426185
            2124228988 2073102402 2056194236 -11197854</internalNodes>
          <leafValues>
            -6.3148254156112671e-01 4.8996847867965698e-01</leafValues></_>
        <_>
          <internalNodes>
            0 -1 19 1679152746 -70057199 -268431090 -16299869 -91979078
            -1152712565 -766860550 1891353142</internalNodes>
          <leafValues>
            -8.7462317943572998e-01 3.4218361973762512e-01</leafValues></_>
        <_>
          <internalNodes>
            0 -1 43 1092572724 1225785751 -1583132329 1300890904
            -770979408 2106228957 671181485 -91766301</internalNodes>
          <leafValues>
            -6.5500342845916748e-01 4.8142498731613159e-01</leafValues></_></weakClassifiers></_>
    <!-- stage 7 -->
    <_>
      <maxWeakCount>7</maxWeakCount>
      <stageThreshold>-1.5817593336105347e+00</stageThreshold>
      <weakClassifiers>
        <_>
          <internalNodes>
            0 -1 47 -124060936 -75378672 289870519 -1619005353
            -1843033871 -360660966 34066606 -78686001</internalNodes>
          <leafValues>
            -8.0074548721313477e-01 1.0793238133192062e-01</leafValues></_>
        <_>
          <internalNodes>
            0 -1 29 -640686105 -674559605 -1760847769 1343088991
            -662680814 2078703655 -485830659 -562180</internalNodes>
          <leafValues>
            -6.4140737056732178e-01 3.9897221326828003e-01</leafValues></_>
        <_>
          <internalNodes>
            0 -1 31 -283382985 -300444773 -1793469474 -48383660
            -2088547910 2101023635 -70013003 -1258393603</internalNodes>
          <leafValues>
            -6.5405541658401489e-01 4.3846127390861511e-01</leafValues></_>
        <_>
          <internalNodes>
            0 -1 32 2094955515 -803810309 1884029137 -979860903
            -106251535 -1080317797 650832756 -1613370197</internalNodes>
          <leafValues>
            -5.7472014427185059e-01 5.0706607103347778e-01</leafValues></_>
        <_>
          <internalNodes>
            0 -1 8 -1795235844 -1728691921 360710622 -770190446 34566312
            -879050581 1628597048 2065006388</internalNodes>
          <leafValues>
            -8.9714586734771729e-01 3.5757246613502502e-01</leafValues></_>
        <_>
          <internalNodes>
            0 -1 28 -572868882 1347145998 -2130636388 -1705524794
            -666694798 2073660041 -1444185381 -390226763</internalNodes>
          <leafValues>
            -7.0906507968902588e-01 3.9598947763442993e-01</leafValues></_>
        <_>
          <internalNodes>
            0 -1 55 1081176987 -1659584239 1073775062 -1365810220
            -720781079 562266114 -1004223361 -204046529</internalNodes>
          <leafValues>
            -5.4980242252349854e-01 5.6279784440994263e-01</leafValues></_></weakClassifiers></_>
    <!-- stage 8 -->
    <_>
      <maxWeakCount>6</maxWeakCount>
      <stageThreshold>-1.2228125333786011e+00</stageThreshold>
      <weakClassifiers>
        <_>
          <internalNodes>
            0 -1 53 -1723861065 -71672897 -2095689449 2147455436
            -913576969 -1953604982 -561301505 -5505125</internalNodes>
          <leafValues>
            -7.5099664926528931e-01 3.6819171905517578e-01</leafValues></_>
        <_>
          <internalNodes>
            0 -1 25 -681115650 -136916973 -786745481 736096670
            -615556156 2065320577 -740336833 -138630303</internalNodes>
          <leafValues>
            -7.5310719013214111e-01 2.8626334667205811e-01</leafValues></_>
        <_>
          <internalNodes>
            0 -1 10 -639898130 -624913579 -1786654250 2145157253
            -206669122 2073594505 -116840068 1002601142</internalNodes>
          <leafValues>
            -8.1778436899185181e-01 2.9988268017768860e-01</leafValues></_>
        <_>
          <internalNodes>
            0 -1 18 -579706886 294310362 1593885005 -1669069423
            -1112296975 -1753119825 818883792 2146393079</internalNodes>
          <leafValues>
            -7.2388380765914917e-01 3.4483739733695984e-01</leafValues></_>
        <_>
          <internalNodes>
            0 -1 42 1348359925 722108542 26214877 -889433253 -669842841
            -527843223 1805830430 1405943676</internalNodes>
          <leafValues>
            -8.4459960460662842e-01 3.3592510223388672e-01</leafValues></_>
        <_>
          <internalNodes>
            0 -1 52 -1714245386 -2037137408 537510034 1581736113
            467773100 -492716029 -1585403689 -1658896225</internalNodes>
          <leafValues>
            -5.5819976329803467e-01 5.2262878417968750e-01</leafValues></_></weakClassifiers></_>
    <!-- stage 9 -->
    <_>
      <maxWeakCount>7</maxWeakCount>
      <stageThreshold>-1.4325246810913086e+00</stageThreshold>
      <weakClassifiers>
        <_>
          <internalNodes>
            0 -1 48 -571474761 -706219633 17768627 1573647775 -676085045
            -1615171190 -1594635285 -268436761</internalNodes>
          <leafValues>
            -7.4907749891281128e-01 3.3333334326744080e-01</leafValues></_>
        <_>
          <internalNodes>
            0 -1 34 -1157660938 -691011497 -1271334402 -1497694725
            -813105260 2124042659 -95552516 -956342165</internalNodes>
          <leafValues>
            -6.8335920572280884e-01 3.5632973909378052e-01</leafValues></_>
        <_>
          <internalNodes>
            0 -1 26 1054602613 -1423978282 1528159486 -7185921
            -1148460716 734750119 1570503348 -1610844745</internalNodes>
          <leafValues>
            -6.7118513584136963e-01 4.0550735592842102e-01</leafValues></_>
        <_>
          <internalNodes>
            0 -1 56 1977498623 501192669 -792069428 -1075919558
            -74735728 1542435295 -117309707 2147476309</internalNodes>
          <leafValues>
            -7.2246748208999634e-01 3.6164826154708862e-01</leafValues></_>
        <_>
          <internalNodes>
            0 -1 51 -601040914 2135362004 -259894063 -2104376367
            -1434246146 -1952645094 -1836454960 -1409368079</internalNodes>
          <leafValues>
            -5.6164455413818359e-01 4.9794012308120728e-01</leafValues></_>
        <_>
          <internalNodes>
            0 -1 30 -1722404404 1981165655 -2129622988 1709064905 758740
            -1034712405 -919352330 -1042421105</internalNodes>
          <leafValues>
            -7.4559658765792847e-01 3.9618873596191406e-01</leafValues></_>
        <_>
          <internalNodes>
            0 -1 22 2145350757 -11624732 -403243273 -11078918 1718611709
            2138007935 2088599359 -25215938</internalNodes>
          <leafValues>
            -4.9969133734703064e-01 6.0664081573486328e-01</leafValues></_></weakClassifiers></_></stages>
  <features>
    <_>
      <rect>
        0 0 9 6</rect></_>
    <_>
      <rect>
        0 0 13 6</rect></_>
    <_>
      <rect>
        0 0 13 8</rect></_>
    <_>
      <rect>
        0 1 8 3</rect></_>
    <_>
      <rect>
        0 2 8 9</rect></_>
    <_>
      <rect>
        0 9 7 8</rect></_>
    <_>
      <rect>
        0 10 2 2</rect></_>
    <_>
      <rect>
        0 13 13 6</rect></_>
    <_>
      <rect>
        0 18 4 7</rect></_>
    <_>
      <rect>
        0 25 8 4</rect></_>
    <_>
      <rect>
        0 27 10 2</rect></_>
    <_>
      <rect>
        0 30 4 3</rect></_>
    <_>
      <rect>
        1 10 13 10</rect></_>
    <_>
      <rect>
        1 25 6 5</rect></_>
    <_>
      <rect>
        1 31 9 3</rect></_>
    <_>
      <rect>
        2 0 2 2</rect></_>
    <_>
      <rect>
        2 17 4 5</rect></_>
    <_>
      <rect>
        2 22 10 6</rect></_>
    <_>
      <rect>
        3 33 7 2</rect></_>
    <_>
      <rect>
        4 5 11 6</rect></_>
    <_>
      <rect>
        5 11 5 5</rect></_>
    <_>
      <rect>
        5 18 8 7</rect></_>
    <_>
      <rect>
        6 26 1 1</rect></_>
    <_>
      <rect>
        6 28 4 3</rect></_>
    <_>
      <rect>
        7 2 6 6</rect></_>
    <_>
      <rect>
        7 23 6 5</rect></_>
    <_>
      <rect>
        8 30 4 2</rect></_>
    <_>
      <rect>
        9 1 10 9</rect></_>
    <_>
      <rect>
        9 19 5 3</rect></_>
    <_>
      <rect>
        9 24 4 2</rect></_>
    <_>
      <rect>
        11 19 5 2</rect></_>
    <_>
      <rect>
        12 15 9 6</rect></_>
    <_>
      <rect>
        12 18 5 3</rect></_>
    <_>
      <rect>
        12 24 5 3</rect></_>
    <_>
      <rect>
        12 26 2 2</rect></_>
    <_>
      <rect>
        13 5 9 9</rect></_>
    <_>
      <rect>
        13 20 4 5</rect></_>
    <_>
      <rect>
        14 9 6 7</rect></_>
    <_>
      <rect>
        14 17 1 1</rect></_>
    <_>
      <rect>
        14 17 3 5</rect></_>
    <_>
      <rect>
        14 23 1 1</rect></_>
    <_>
      <rect>
        14 25 2 1</rect></_>
    <_>
      <rect>
        15 16 4 5</rect></_>
    <_>
      <rect>
        15 23 4 3</rect></_>
    <_>
      <rect>
        15 28 3 1</rect></_>
    <_>
      <rect>
        17 26 5 3</rect></_>
    <_>
      <rect>
        19 22 7 6</rect></_>
    <_>
      <rect>
        21 15 1 1</rect></_>
    <_>
      <rect>
        21 17 2 3</rect></_>
    <_>
      <rect>
        21 23 1 1</rect></_>
    <_>
      <rect>
        22 2 6 5</rect></_>
    <_>
      <rect>
        22 19 2 1</rect></_>
    <_>
      <rect>
        22 24 1 1</rect></_>
    <_>
      <rect>
        22 24 3 2</rect></_>
    <_>
      <rect>
        22 31 5 2</rect></_>
    <_>
      <rect>
        23 23 4 4</rect></_>
    <_>
      <rect>
        25 33 5 2</rect></_>
    <_>
      <rect>
        28 9 4 10</rect></_>
    <_>
      <rect>
        33 1 2 1</rect></_>
    <_>
      <rect>
        34 3 2 1</rect></_></features></cascade>
</opencv_storage>
