<?xml version="1.0"?>
<opencv_storage>
<stage12>
  <maxWeakCount>7</maxWeakCount>
  <stageThreshold>-1.1171965599060059e+00</stageThreshold>
  <weakClassifiers>
    <_>
      <internalNodes>
        0 -1 16064 -606105473 1396377627 -1861615271 -1748528985
        -659381814 -1463148416 -108820277 -342955093</internalNodes>
      <leafValues>
        -7.5042736530303955e-01 3.2444444298744202e-01</leafValues></_>
    <_>
      <internalNodes>
        0 -1 25687 -1736706150 822104082 -2146417856 -1316073390
        -1836564274 -1204756415 93563341 -320152329</internalNodes>
      <leafValues>
        -6.7461425065994263e-01 3.9186945557594299e-01</leafValues></_>
    <_>
      <internalNodes>
        0 -1 11406 -591335085 -1043300140 -2013216746 -544403255
        -1459502884 210059288 1845668073 -1525917361</internalNodes>
      <leafValues>
        -6.3439214229583740e-01 4.8991030454635620e-01</leafValues></_>
    <_>
      <internalNodes>
        0 -1 2080 -7674674 1242497280 1686229460 1745051652 25302172
        1375936601 -1979456954 -246678618</internalNodes>
      <leafValues>
        -6.7514801025390625e-01 5.0995844602584839e-01</leafValues></_>
    <_>
      <internalNodes>
        0 -1 6376 -1852681024 -1052639184 289603864 -539622859 537270714
        -927432536 419480264 -198184320</internalNodes>
      <leafValues>
        -6.0235488414764404e-01 5.8670687675476074e-01</leafValues></_>
    <_>
      <internalNodes>
        0 -1 25901 -94965733 1377518086 -1056833216 672858112
        -1811232766 -2147483648 -468484023 -763701546</internalNodes>
      <leafValues>
        -5.8031165599822998e-01 6.4179384708404541e-01</leafValues></_>
    <_>
      <internalNodes>
        0 -1 3978 -1992174129 -1786571503 -1986527174 1074192901
        -2130541569 -1723236205 268648981 -49419557</internalNodes>
      <leafValues>
        -5.7584089040756226e-01 6.4898526668548584e-01</leafValues></_></weakClassifiers></stage12>
</opencv_storage>
