<?xml version="1.0"?>
<opencv_storage>
<stage5>
  <maxWeakCount>6</maxWeakCount>
  <stageThreshold>-1.0972499847412109e+00</stageThreshold>
  <weakClassifiers>
    <_>
      <internalNodes>
        0 -1 3983 -1085048069 -605867065 1225521295 -1827178735
        -2143226401 -116930294 -914167185 2142829053</internalNodes>
      <leafValues>
        -8.8366889953613281e-01 -2.9940119013190269e-02</leafValues></_>
    <_>
      <internalNodes>
        0 -1 778 -581643536 1733939591 -1122738991 823317763 1745482046
        -1407057895 -2113317137 -1879557955</internalNodes>
      <leafValues>
        -7.3982387781143188e-01 3.3409830927848816e-01</leafValues></_>
    <_>
      <internalNodes>
        0 -1 482 -134221261 1087510090 -1341079164 -492500992 269549706
        -805288318 1074002434 1685572107</internalNodes>
      <leafValues>
        -7.1739161014556885e-01 4.4475346803665161e-01</leafValues></_>
    <_>
      <internalNodes>
        0 -1 13066 999901403 -817098688 -1253974887 1414631833
        -804523938 -1196848957 277412791 -336719603</internalNodes>
      <leafValues>
        -7.5754284858703613e-01 4.3096262216567993e-01</leafValues></_>
    <_>
      <internalNodes>
        0 -1 10461 1682246533 -938392829 -737127587 1116435 -1559230447
        -1440571262 -2008970938 -380911543</internalNodes>
      <leafValues>
        -7.3542767763137817e-01 4.8996537923812866e-01</leafValues></_>
    <_>
      <internalNodes>
        0 -1 8554 -716640033 -754937712 -1677573824 826147205
        -2146818849 -1593735162 143100091 780673611</internalNodes>
      <leafValues>
        -6.8796777725219727e-01 5.1061266660690308e-01</leafValues></_></weakClassifiers></stage5>
</opencv_storage>
