<?xml version="1.0"?>
<opencv_storage>
<stage9>
  <maxWeakCount>6</maxWeakCount>
  <stageThreshold>-1.4888496398925781e+00</stageThreshold>
  <weakClassifiers>
    <_>
      <internalNodes>
        0 -1 2445 -610796913 -770342574 287391970 -1051293502 1611252915
        -242221055 -450658101 -93324609</internalNodes>
      <leafValues>
        -7.2580647468566895e-01 6.1290323734283447e-01</leafValues></_>
    <_>
      <internalNodes>
        0 -1 15150 -865870489 -984198845 71356693 -1627029360
        -1945460038 -670875648 -939349881 -3522465</internalNodes>
      <leafValues>
        -6.0693764686584473e-01 5.3827971220016479e-01</leafValues></_>
    <_>
      <internalNodes>
        0 -1 25878 -236215386 -1247477304 -536847598 1363771393
        1384325182 1084384410 1644929178 -962870573</internalNodes>
      <leafValues>
        -5.6626176834106445e-01 6.1915582418441772e-01</leafValues></_>
    <_>
      <internalNodes>
        0 -1 24848 974639166 1967177953 -246988779 1364590722 -494663570
        -2004638519 -2145287264 -586700050</internalNodes>
      <leafValues>
        -6.2843906879425049e-01 5.9577715396881104e-01</leafValues></_>
    <_>
      <internalNodes>
        0 -1 25897 -1939488074 562235794 -2147381220 -238171862
        277946377 151177089 822125371 -292032829</internalNodes>
      <leafValues>
        -6.4528298377990723e-01 5.9147834777832031e-01</leafValues></_>
    <_>
      <internalNodes>
        0 -1 13746 -1657333601 -753729455 -1862204981 1677787331
        -132628328 -536674303 -2003860533 531256776</internalNodes>
      <leafValues>
        -7.8391987085342407e-01 4.9846065044403076e-01</leafValues></_></weakClassifiers></stage9>
</opencv_storage>
