<?xml version="1.0"?>
<opencv_storage>
<stage14>
  <maxWeakCount>6</maxWeakCount>
  <stageThreshold>-9.3636846542358398e-01</stageThreshold>
  <weakClassifiers>
    <_>
      <internalNodes>
        0 -1 4893 -72629249 -705967997 1628045466 1998819496 -259329651
        1480820736 -2138844509 -1316109</internalNodes>
      <leafValues>
        -7.1244978904724121e-01 5.4666668176651001e-01</leafValues></_>
    <_>
      <internalNodes>
        0 -1 16531 -1238872837 -179875676 -1056926637 -183367095
        -1322986498 2032697506 -1597888321 535572141</internalNodes>
      <leafValues>
        -8.3050787448883057e-01 2.9365167021751404e-01</leafValues></_>
    <_>
      <internalNodes>
        0 -1 25957 -271326704 1216414209 -767454847 459457745 1242075266
        1115721765 -665339389 -1931233865</internalNodes>
      <leafValues>
        -6.0257434844970703e-01 5.1133692264556885e-01</leafValues></_>
    <_>
      <internalNodes>
        0 -1 22129 -1995768360 -2071157888 -1604990575 1847214084
        1074282737 394397824 1091692701 -88292519</internalNodes>
      <leafValues>
        -7.4406850337982178e-01 4.3931537866592407e-01</leafValues></_>
    <_>
      <internalNodes>
        0 -1 2041 335705109 -1068433408 -1878898873 -762642175
        -1442157889 -670326656 1091232143 515302416</internalNodes>
      <leafValues>
        -7.1846908330917358e-01 4.6495828032493591e-01</leafValues></_>
    <_>
      <internalNodes>
        0 -1 23784 193500280 1812144647 268554324 1946484758 1107305166
        -853966669 -1442037397 1920390041</internalNodes>
      <leafValues>
        -7.4975353479385376e-01 4.4584000110626221e-01</leafValues></_></weakClassifiers></stage14>
</opencv_storage>
