<?xml version="1.0"?>
<opencv_storage>
<stage10>
  <maxWeakCount>7</maxWeakCount>
  <stageThreshold>-1.1622581481933594e+00</stageThreshold>
  <weakClassifiers>
    <_>
      <internalNodes>
        0 -1 8345 -48516126 -751529966 1426262099 -1286766111
        -1073052534 -2145288060 -805065811 -65025250</internalNodes>
      <leafValues>
        -7.9398357868194580e-01 2.2147651016712189e-01</leafValues></_>
    <_>
      <internalNodes>
        0 -1 1016 -640164157 -1945935867 -1056798581 1497531522
        1073930787 3276902 1208975495 -277624185</internalNodes>
      <leafValues>
        -5.4717111587524414e-01 6.6081523895263672e-01</leafValues></_>
    <_>
      <internalNodes>
        0 -1 17878 855708767 -474525693 -784773345 1363759121 616622466
        -868200301 1648411747 -1686500448</internalNodes>
      <leafValues>
        -7.8880912065505981e-01 4.3236202001571655e-01</leafValues></_>
    <_>
      <internalNodes>
        0 -1 1937 -1293237342 1418023302 -2146877024 -685169664
        1351148169 556072960 -2147325829 -211027382</internalNodes>
      <leafValues>
        -5.8439052104949951e-01 5.9432280063629150e-01</leafValues></_>
    <_>
      <internalNodes>
        0 -1 15191 -1845361562 -1785449444 1090519076 855879698
        806013086 545817646 1118513583 -70291413</internalNodes>
      <leafValues>
        -6.5297269821166992e-01 5.2905613183975220e-01</leafValues></_>
    <_>
      <internalNodes>
        0 -1 2235 -1132276418 395350272 65691 1493533577 537012667
        -1391919102 1610784954 1763562144</internalNodes>
      <leafValues>
        -7.3121923208236694e-01 5.4255163669586182e-01</leafValues></_>
    <_>
      <internalNodes>
        0 -1 25085 -761606694 -645872607 -1877999486 -217929527
        109285506 -267739068 1653473930 -882704256</internalNodes>
      <leafValues>
        -5.7411396503448486e-01 6.7722463607788086e-01</leafValues></_></weakClassifiers></stage10>
</opencv_storage>
