<?xml version="1.0"?>
<opencv_storage>
<stage13>
  <maxWeakCount>6</maxWeakCount>
  <stageThreshold>-8.4764569997787476e-01</stageThreshold>
  <weakClassifiers>
    <_>
      <internalNodes>
        0 -1 11490 -212879137 -779284445 1097138448 -737689534
        -2096901973 -523370478 -1043739765 -135268693</internalNodes>
      <leafValues>
        -7.2950822114944458e-01 4.8571428656578064e-01</leafValues></_>
    <_>
      <internalNodes>
        0 -1 19436 -1586343207 -111869952 1359151519 -553089256
        -1526690593 -133651934 1270393505 -1650740396</internalNodes>
      <leafValues>
        -7.3138815164566040e-01 4.2501893639564514e-01</leafValues></_>
    <_>
      <internalNodes>
        0 -1 22868 -471999196 760029203 -1727901537 151093940
        -1715464005 -1417461632 692263118 -130502386</internalNodes>
      <leafValues>
        -7.3267066478729248e-01 4.2663654685020447e-01</leafValues></_>
    <_>
      <internalNodes>
        0 -1 11566 -1333256361 1493343504 17072462 -628141491 -209696039
        -567700792 2046920729 23808668</internalNodes>
      <leafValues>
        -7.4746298789978027e-01 4.2059832811355591e-01</leafValues></_>
    <_>
      <internalNodes>
        0 -1 5000 -175398390 286851589 545280276 -421115903 936658
        -1984396544 906244230 -2094726377</internalNodes>
      <leafValues>
        -6.9955074787139893e-01 5.1973408460617065e-01</leafValues></_>
    <_>
      <internalNodes>
        0 -1 14805 1045697273 -41545727 402669751 1486229659 -2104846050
        -1986363374 59494616 -768874336</internalNodes>
      <leafValues>
        -6.9084060192108154e-01 5.2678519487380981e-01</leafValues></_></weakClassifiers></stage13>
</opencv_storage>
