<?xml version="1.0"?>
<opencv_storage>
<stage11>
  <maxWeakCount>6</maxWeakCount>
  <stageThreshold>-9.3057143688201904e-01</stageThreshold>
  <weakClassifiers>
    <_>
      <internalNodes>
        0 -1 25420 -103813201 -986463983 1342783512 -674691960
        -1056791862 -1711112064 -630551864 -8920609</internalNodes>
      <leafValues>
        -7.4683547019958496e-01 3.8095238804817200e-01</leafValues></_>
    <_>
      <internalNodes>
        0 -1 10293 950603881 -213444025 1501708737 1997472002
        -2138894151 -561315839 1887472008 -546776092</internalNodes>
      <leafValues>
        -8.0982780456542969e-01 2.9749149084091187e-01</leafValues></_>
    <_>
      <internalNodes>
        0 -1 21934 547738781 687911249 -737079213 -112512751 -936795541
        2072019457 1449376907 -685891156</internalNodes>
      <leafValues>
        -6.5426361560821533e-01 4.6989926695823669e-01</leafValues></_>
    <_>
      <internalNodes>
        0 -1 25985 -707009821 -1035815920 -805187940 415612934 -32985040
        629252394 1722518185 349695659</internalNodes>
      <leafValues>
        -6.9446337223052979e-01 4.8922902345657349e-01</leafValues></_>
    <_>
      <internalNodes>
        0 -1 3685 -830868851 -787447552 1208041602 28704835 -901740485
        274203136 948356014 1334536747</internalNodes>
      <leafValues>
        -6.7249506711959839e-01 5.1158499717712402e-01</leafValues></_>
    <_>
      <internalNodes>
        0 -1 4623 -686727974 -1824058622 -1357671921 1460888093
        285619413 277348617 281739958 2146490525</internalNodes>
      <leafValues>
        -7.6824831962585449e-01 4.4323158264160156e-01</leafValues></_></weakClassifiers></stage11>
</opencv_storage>
