<?xml version="1.0"?>
<opencv_storage>
<stage8>
  <maxWeakCount>7</maxWeakCount>
  <stageThreshold>-1.3287755250930786e+00</stageThreshold>
  <weakClassifiers>
    <_>
      <internalNodes>
        0 -1 25917 -537395677 -804548407 -2146369522 1343963392
        -2134663080 1610776609 -1606229845 -389286189</internalNodes>
      <leafValues>
        -7.8577858209609985e-01 2.3943662643432617e-01</leafValues></_>
    <_>
      <internalNodes>
        0 -1 519 1401380062 -250527469 -805142499 -654098168 1904902894
        -645234175 -905281093 -771234698</internalNodes>
      <leafValues>
        -6.9322901964187622e-01 4.3433409929275513e-01</leafValues></_>
    <_>
      <internalNodes>
        0 -1 17175 -1319605798 -808873792 1224755609 1935348695
        134793355 -290914286 594579 -661593359</internalNodes>
      <leafValues>
        -7.9746711254119873e-01 4.1431796550750732e-01</leafValues></_>
    <_>
      <internalNodes>
        0 -1 17576 -1648291398 -1256285166 -536776636 -201191397
        63668425 1083838497 1111736483 -1283013733</internalNodes>
      <leafValues>
        -6.4801746606826782e-01 5.0136071443557739e-01</leafValues></_>
    <_>
      <internalNodes>
        0 -1 17319 -719512296 429074053 -2147286905 -1769914362
        -2122168166 270532737 -2147106677 2014208755</internalNodes>
      <leafValues>
        -7.9233413934707642e-01 4.6538922190666199e-01</leafValues></_>
    <_>
      <internalNodes>
        0 -1 23064 -83717426 1900216386 83951616 -578387709 -1031554872
        538574848 536875177 -1011138421</internalNodes>
      <leafValues>
        -5.1253789663314819e-01 7.3329645395278931e-01</leafValues></_>
    <_>
      <internalNodes>
        0 -1 10416 -1857154185 1641349138 135669 -201244544 1778417673
        -662503416 -2130673632 216512640</internalNodes>
      <leafValues>
        -7.8174203634262085e-01 5.1530224084854126e-01</leafValues></_></weakClassifiers></stage8>
</opencv_storage>
