<?xml version="1.0"?>
<opencv_storage>
<stage8>
  <maxWeakCount>6</maxWeakCount>
  <stageThreshold>-1.1055697202682495e+00</stageThreshold>
  <weakClassifiers>
    <_>
      <internalNodes>
        0 -1 25788 -754675696 -1694400192 67125248 -788455164 8945801
        -1342177152 679512202 -7425381</internalNodes>
      <leafValues>
        -7.0531821250915527e-01 7.9342722892761230e-01</leafValues></_>
    <_>
      <internalNodes>
        0 -1 17239 -656719216 1343586306 0 -2076080121 -1073741816
        -2147450880 327683 -1676949369</internalNodes>
      <leafValues>
        -6.2589794397354126e-01 5.8985662460327148e-01</leafValues></_>
    <_>
      <internalNodes>
        0 -1 9384 -1762201944 -25165837 -1124073612 209616767
        -1644232834 -1098928131 998111101 -536885251</internalNodes>
      <leafValues>
        -5.8069753646850586e-01 6.9380754232406616e-01</leafValues></_>
    <_>
      <internalNodes>
        0 -1 19563 1736342766 2079276983 -281215121 -553680906 805252811
        -805339265 -1342505093 -269451940</internalNodes>
      <leafValues>
        -5.1522731781005859e-01 7.0693486928939819e-01</leafValues></_>
    <_>
      <internalNodes>
        0 -1 11470 -1123554938 2134454268 -155222660 1171459951
        1878461883 251188868 -1206546436 179033320</internalNodes>
      <leafValues>
        -5.2877038717269897e-01 6.8577826023101807e-01</leafValues></_>
    <_>
      <internalNodes>
        0 -1 15364 -209026605 268599297 285212686 1708037 -1576894464
        -1878457344 -1610547072 -2121645525</internalNodes>
      <leafValues>
        -5.7996147871017456e-01 7.5971734523773193e-01</leafValues></_></weakClassifiers></stage8>
</opencv_storage>
