<?xml version="1.0"?>
<opencv_storage>
<stage7>
  <maxWeakCount>10</maxWeakCount>
  <stageThreshold>-1.3324917554855347e+00</stageThreshold>
  <weakClassifiers>
    <_>
      <internalNodes>
        0 -1 23032 -200555282 -1851228022 -754437047 -183561904
        -777680734 -1414848366 -526341974 -742402353</internalNodes>
      <leafValues>
        -6.6402113437652588e-01 5.0000000000000000e-01</leafValues></_>
    <_>
      <internalNodes>
        0 -1 2062 -577545166 -2129554632 -1006562217 -801564606
        -1333473255 427821195 1225299971 -70591351</internalNodes>
      <leafValues>
        -6.1021423339843750e-01 4.0228095650672913e-01</leafValues></_>
    <_>
      <internalNodes>
        0 -1 15865 -1731194090 454230272 1342429315 -263548799
        -334880582 1516863656 1778958768 1386981609</internalNodes>
      <leafValues>
        -7.0588362216949463e-01 3.3992436528205872e-01</leafValues></_>
    <_>
      <internalNodes>
        0 -1 910 -1072445782 1347764250 17926362 -1801334502 134245632
        571475969 1080213987 -198720910</internalNodes>
      <leafValues>
        -5.1237958669662476e-01 5.0038272142410278e-01</leafValues></_>
    <_>
      <internalNodes>
        0 -1 10430 -22099790 -1079252166 1673248563 -761266222 502893080
        667365151 783726810 -1610615844</internalNodes>
      <leafValues>
        -4.3785366415977478e-01 6.3130778074264526e-01</leafValues></_>
    <_>
      <internalNodes>
        0 -1 21095 470975635 1627427337 1074021656 -1224325999
        -779992464 -1408696163 -1206793600 -576706306</internalNodes>
      <leafValues>
        -5.6596231460571289e-01 5.4390496015548706e-01</leafValues></_>
    <_>
      <internalNodes>
        0 -1 14091 -1610809606 -269485316 922679282 -356516237
        -1342243253 1073741823 2012903415 -604447361</internalNodes>
      <leafValues>
        -5.1083421707153320e-01 5.7185035943984985e-01</leafValues></_>
    <_>
      <internalNodes>
        0 -1 19803 542605374 -1912339772 -1962917620 -620687295
        958562714 -1995439998 -925982591 -1923383066</internalNodes>
      <leafValues>
        -5.1386958360671997e-01 5.7029956579208374e-01</leafValues></_>
    <_>
      <internalNodes>
        0 -1 331 1654051098 71360727 151044373 -702304032 301990107
        -2105540216 1207993027 -29277358</internalNodes>
      <leafValues>
        -5.7807862758636475e-01 5.4326879978179932e-01</leafValues></_>
    <_>
      <internalNodes>
        0 -1 23280 -18570267 -675436882 -42045825 1498886142 -537137708
        -1049118210 -1494225246 -608496190</internalNodes>
      <leafValues>
        -4.2580774426460266e-01 6.9950288534164429e-01</leafValues></_></weakClassifiers></stage7>
</opencv_storage>
