<?xml version="1.0"?>
<opencv_storage>
<stage6>
  <maxWeakCount>8</maxWeakCount>
  <stageThreshold>-1.0483835935592651e+00</stageThreshold>
  <weakClassifiers>
    <_>
      <internalNodes>
        0 -1 23800 -108275574 -804036597 -671018983 -741388216
        -1416969838 -461356925 -2147442454 -619996981</internalNodes>
      <leafValues>
        -6.8312388658523560e-01 4.9186992645263672e-01</leafValues></_>
    <_>
      <internalNodes>
        0 -1 23220 -116225878 -786071104 302150273 -1862205297 -96278901
        440402096 -251486066 -112571682</internalNodes>
      <leafValues>
        -5.4110538959503174e-01 4.9219506978988647e-01</leafValues></_>
    <_>
      <internalNodes>
        0 -1 23832 -1634292998 645066286 747878298 -1645119538
        1081403306 1441812094 67427790 -216566537</internalNodes>
      <leafValues>
        -4.6531927585601807e-01 5.4651623964309692e-01</leafValues></_>
    <_>
      <internalNodes>
        0 -1 7506 -111787288 -757727022 -1828468518 1167661266
        -267566661 -763226613 -2143606567 -1171539843</internalNodes>
      <leafValues>
        -5.7214558124542236e-01 4.6739450097084045e-01</leafValues></_>
    <_>
      <internalNodes>
        0 -1 4942 -355806738 1477460105 -796911661 -648183470
        -1466333056 -1165883391 420154025 -229440959</internalNodes>
      <leafValues>
        -5.0781250000000000e-01 5.6270837783813477e-01</leafValues></_>
    <_>
      <internalNodes>
        0 -1 18986 -768683896 -675481931 1845310670 1068787324
        -2076519516 -1170254347 -1748001358 -736624721</internalNodes>
      <leafValues>
        -4.1541036963462830e-01 6.4632838964462280e-01</leafValues></_>
    <_>
      <internalNodes>
        0 -1 25955 -538313442 1526656076 2097052082 338161517 1870307012
        280755158 -1095263097 -628884489</internalNodes>
      <leafValues>
        -4.6510896086692810e-01 6.3551467657089233e-01</leafValues></_>
    <_>
      <internalNodes>
        0 -1 15984 -1662312734 796135140 2004018684 1999902703
        -1613779538 -294150536 1020714476 -297892353</internalNodes>
      <leafValues>
        -4.8303374648094177e-01 5.9930777549743652e-01</leafValues></_></weakClassifiers></stage6>
</opencv_storage>
