<?xml version="1.0"?>
<opencv_storage>
<stage2>
  <maxWeakCount>6</maxWeakCount>
  <stageThreshold>-1.8052245378494263e+00</stageThreshold>
  <weakClassifiers>
    <_>
      <internalNodes>
        0 -1 15760 -1326774136 -482066176 436338704 -823426944
        -1442131966 838991872 -1316843440 -140590536</internalNodes>
      <leafValues>
        -8.8269120454788208e-01 2.5993883609771729e-01</leafValues></_>
    <_>
      <internalNodes>
        0 -1 21850 -140366942 -2071375734 622018576 -992800346
        -1568636928 1101021186 1887552034 -221526296</internalNodes>
      <leafValues>
        -7.1993398666381836e-01 4.9598705768585205e-01</leafValues></_>
    <_>
      <internalNodes>
        0 -1 13130 -1311204728 -1803403104 38976 -204800000 -2147352280
        536936448 164514 -2011004790</internalNodes>
      <leafValues>
        -7.0761913061141968e-01 5.4374480247497559e-01</leafValues></_>
    <_>
      <internalNodes>
        0 -1 20948 -435444064 34832384 21004352 1359400976 839026816
        -1207959550 -2130542456 -313554232</internalNodes>
      <leafValues>
        -5.9687364101409912e-01 6.8024653196334839e-01</leafValues></_>
    <_>
      <internalNodes>
        0 -1 715 -278204860 -17907864 788221558 -1896993088 1265926000
        896889840 1450592167 -958427837</internalNodes>
      <leafValues>
        -6.1679685115814209e-01 6.5337657928466797e-01</leafValues></_>
    <_>
      <internalNodes>
        0 -1 1395 -16255910 -14462639 -921644707 -989806079 -1593263652
        656654737 -2004628823 935024891</internalNodes>
      <leafValues>
        -6.3986074924468994e-01 6.8310672044754028e-01</leafValues></_></weakClassifiers></stage2>
</opencv_storage>
