<?xml version="1.0"?>
<opencv_storage>
<stage3>
  <maxWeakCount>6</maxWeakCount>
  <stageThreshold>-1.3118660449981689e+00</stageThreshold>
  <weakClassifiers>
    <_>
      <internalNodes>
        0 -1 21230 -1282178904 -1069252608 -804003392 -767410176
        -502611742 -2138800088 -1182629654 -207641962</internalNodes>
      <leafValues>
        -7.7979797124862671e-01 3.5675674676895142e-01</leafValues></_>
    <_>
      <internalNodes>
        0 -1 25970 -612109822 -2143158272 -2147465146 840302735 33730592
        229504 -1610578806 -1028929141</internalNodes>
      <leafValues>
        -6.2508428096771240e-01 5.8721202611923218e-01</leafValues></_>
    <_>
      <internalNodes>
        0 -1 10480 -1826914304 -1593606144 -1056948080 1459617792
        -1560051192 1094746256 541237770 -2093350677</internalNodes>
      <leafValues>
        -6.1761969327926636e-01 5.5891513824462891e-01</leafValues></_>
    <_>
      <internalNodes>
        0 -1 23280 -270228992 397223470 -42062210 -586731602 -1610961448
        1630616062 -420495638 -236224310</internalNodes>
      <leafValues>
        -5.4297107458114624e-01 6.6038006544113159e-01</leafValues></_>
    <_>
      <internalNodes>
        0 -1 24040 -692944158 904019342 -213184322 -539689680 -135582466
        1337474559 -1088715288 -768162443</internalNodes>
      <leafValues>
        -5.5989187955856323e-01 6.0438150167465210e-01</leafValues></_>
    <_>
      <internalNodes>
        0 -1 22990 -65349606 1495497412 -1967195545 -654393626 -12813024
        -810910602 1902919348 -533826478</internalNodes>
      <leafValues>
        -4.8732921481132507e-01 7.1543741226196289e-01</leafValues></_></weakClassifiers></stage3>
</opencv_storage>
