<?xml version="1.0"?>
<opencv_storage>
<stage1>
  <maxWeakCount>7</maxWeakCount>
  <stageThreshold>-1.4928926229476929e+00</stageThreshold>
  <weakClassifiers>
    <_>
      <internalNodes>
        0 -1 9788 -774119937 -40529463 -750396673 1906015633 -1794594049
        -895575927 672894175 -615541793</internalNodes>
      <leafValues>
        -7.9331684112548828e-01 4.3016758561134338e-01</leafValues></_>
    <_>
      <internalNodes>
        0 -1 22799 -673849924 993592724 1484805589 827020063 -1844835590
        -1518239541 -1547211377 -63972805</internalNodes>
      <leafValues>
        -7.0644509792327881e-01 4.3819513916969299e-01</leafValues></_>
    <_>
      <internalNodes>
        0 -1 877 -539313218 -1755466672 155359739 1025319243 1250118367
        -1442176509 1814045327 -15398223</internalNodes>
      <leafValues>
        -7.1931076049804688e-01 4.9969899654388428e-01</leafValues></_>
    <_>
      <internalNodes>
        0 -1 13111 -1658889989 -2024060600 -1198508811 -1269593639
        161135214 -1191107624 -1358267977 -1619252083</internalNodes>
      <leafValues>
        -8.6722958087921143e-01 3.9632105827331543e-01</leafValues></_>
    <_>
      <internalNodes>
        0 -1 8474 298440102 -619183653 906009054 -1294876589 -2029140772
        -117407351 662811369 827015655</internalNodes>
      <leafValues>
        -7.2938597202301025e-01 4.8774260282516479e-01</leafValues></_>
    <_>
      <internalNodes>
        0 -1 910 -441212766 -892731294 -1758396270 -994393182
        -1038047144 1116975136 1535892145 -206575410</internalNodes>
      <leafValues>
        -6.6672736406326294e-01 5.7077437639236450e-01</leafValues></_>
    <_>
      <internalNodes>
        0 -1 9361 1214050899 -277133119 -1842867547 -1254764399
        -2144129349 1258815489 -2071864385 456877695</internalNodes>
      <leafValues>
        -7.1016603708267212e-01 5.5290091037750244e-01</leafValues></_></weakClassifiers></stage1>
</opencv_storage>
