<?xml version="1.0"?>
<opencv_storage>
<stage5>
  <maxWeakCount>6</maxWeakCount>
  <stageThreshold>-1.0813835859298706e+00</stageThreshold>
  <weakClassifiers>
    <_>
      <internalNodes>
        0 -1 1184 -72876065 471699 1965690254 -1763778069 1789859073
        1631584259 -764738449 -8388833</internalNodes>
      <leafValues>
        -8.5489392280578613e-01 1.3173653185367584e-01</leafValues></_>
    <_>
      <internalNodes>
        0 -1 25996 -1142953537 47640843 1342656769 1646230019 250208539
        180486216 1394841658 -816055589</internalNodes>
      <leafValues>
        -6.8754076957702637e-01 4.8000010848045349e-01</leafValues></_>
    <_>
      <internalNodes>
        0 -1 4063 898105343 -611263522 1495333836 1349178253 -853932563
        -549936978 554205781 1470654431</internalNodes>
      <leafValues>
        -7.9276865720748901e-01 4.0022760629653931e-01</leafValues></_>
    <_>
      <internalNodes>
        0 -1 12463 -1345032849 -2099487234 -1945774603 1170382014
        -1476033674 2077851771 594501906 -688661082</internalNodes>
      <leafValues>
        -8.0942207574844360e-01 3.7963551282882690e-01</leafValues></_>
    <_>
      <internalNodes>
        0 -1 25975 -210638238 9553743 738977376 -289174396 1385914897
        67109448 -800650750 -1069551273</internalNodes>
      <leafValues>
        -5.8465784788131714e-01 5.7925832271575928e-01</leafValues></_>
    <_>
      <internalNodes>
        0 -1 18380 -53222700 5472381 -941160433 -1938112103 1213092274
        -1432479063 -134091005 -17003079</internalNodes>
      <leafValues>
        -6.9532924890518188e-01 5.4060423374176025e-01</leafValues></_></weakClassifiers></stage5>
</opencv_storage>
