<?xml version="1.0"?>
<opencv_storage>
<stage11>
  <maxWeakCount>6</maxWeakCount>
  <stageThreshold>-7.3334348201751709e-01</stageThreshold>
  <weakClassifiers>
    <_>
      <internalNodes>
        0 -1 22990 -4461569 -572294409 1606220799 -33554457 -138412703
        -815006473 -209731585 -337903626</internalNodes>
      <leafValues>
        -7.6672589778900146e-01 8.4905660152435303e-01</leafValues></_>
    <_>
      <internalNodes>
        0 -1 25992 -209191615 545554456 16843078 830861475 -1971289975
        50512002 -1677655863 -694961457</internalNodes>
      <leafValues>
        -6.7760074138641357e-01 5.2317500114440918e-01</leafValues></_>
    <_>
      <internalNodes>
        0 -1 2323 -528342590 1367539727 196944 -1040154368 402695056
        -1550940111 1992319144 -141836288</internalNodes>
      <leafValues>
        -7.9514533281326294e-01 4.2877161502838135e-01</leafValues></_>
    <_>
      <internalNodes>
        0 -1 15468 -1174206025 -1709866400 1078985139 -365633531
        -1673416098 -1433775999 -400489572 -1042226143</internalNodes>
      <leafValues>
        -7.0397448539733887e-01 4.8728311061859131e-01</leafValues></_>
    <_>
      <internalNodes>
        0 -1 15098 491890681 -636092416 134271108 -2130181983
        -2013214683 -1476394679 -1565880045 1542103220</internalNodes>
      <leafValues>
        -7.0095539093017578e-01 5.6301319599151611e-01</leafValues></_>
    <_>
      <internalNodes>
        0 -1 14248 -2141785019 -527744480 1142000196 -1694466045
        -1060566973 -251117183 -2147464828 -105459189</internalNodes>
      <leafValues>
        -7.0489192008972168e-01 5.6594842672348022e-01</leafValues></_></weakClassifiers></stage11>
</opencv_storage>
