<?xml version="1.0"?>
<opencv_storage>
<stage3>
  <maxWeakCount>6</maxWeakCount>
  <stageThreshold>-1.0799568891525269e+00</stageThreshold>
  <weakClassifiers>
    <_>
      <internalNodes>
        0 -1 25973 -8388641 -1841053565 1103667460 -2092183157
        -207957691 1611169800 1740845547 -855642565</internalNodes>
      <leafValues>
        -8.0025285482406616e-01 2.8638496994972229e-01</leafValues></_>
    <_>
      <internalNodes>
        0 -1 25917 -614465983 -267663203 -1056894514 546816076
        1957029896 672038941 -758590846 -1060380521</internalNodes>
      <leafValues>
        -6.9098734855651855e-01 4.1803056001663208e-01</leafValues></_>
    <_>
      <internalNodes>
        0 -1 14300 -228919330 -749362502 1342247996 -540061477
        -1823940184 -231562912 734164203 -1756737633</internalNodes>
      <leafValues>
        -6.4084386825561523e-01 5.3488987684249878e-01</leafValues></_>
    <_>
      <internalNodes>
        0 -1 13777 396647928 -296274464 17931995 2136700381 -1995759670
        -1349549729 1250941175 1482606997</internalNodes>
      <leafValues>
        -9.1337698698043823e-01 3.7323692440986633e-01</leafValues></_>
    <_>
      <internalNodes>
        0 -1 106 -407178518 1899808898 420544834 -716732398 -1857854813
        -2013224960 729427 1147486292</internalNodes>
      <leafValues>
        -8.3262103796005249e-01 3.8288038969039917e-01</leafValues></_>
    <_>
      <internalNodes>
        0 -1 10346 1365038731 -539332320 -1878914414 1169529047
        -1765156835 -1411378773 -4020071 521949565</internalNodes>
      <leafValues>
        -7.6494574546813965e-01 4.0249332785606384e-01</leafValues></_></weakClassifiers></stage3>
</opencv_storage>
