<?xml version="1.0"?>
<opencv_storage>
<stage6>
  <maxWeakCount>7</maxWeakCount>
  <stageThreshold>-8.9610499143600464e-01</stageThreshold>
  <weakClassifiers>
    <_>
      <internalNodes>
        0 -1 482 -136316129 -1064126846 -1684749910 -339504806 233513903
        -234110401 1352893730 -327160193</internalNodes>
      <leafValues>
        -8.3735352754592896e-01 2.9069768264889717e-02</leafValues></_>
    <_>
      <internalNodes>
        0 -1 25594 -268437049 797635447 830689548 1653669755 -1992427712
        984039963 -678271068 -420482181</internalNodes>
      <leafValues>
        -6.3272798061370850e-01 4.8094022274017334e-01</leafValues></_>
    <_>
      <internalNodes>
        0 -1 8104 1037658856 -7381882 1954763259 1386153887 -1894953766
        -356300518 1621079245 -578892851</internalNodes>
      <leafValues>
        -8.0972933769226074e-01 3.7586894631385803e-01</leafValues></_>
    <_>
      <internalNodes>
        0 -1 11014 351879119 -1357841321 851189991 1117030545 317455111
        -1383099505 2011425137 -170985608</internalNodes>
      <leafValues>
        -7.1692800521850586e-01 4.2209753394126892e-01</leafValues></_>
    <_>
      <internalNodes>
        0 -1 6091 -1069158076 -304283265 1086374594 -910491379
        -2002775299 1248502443 -1064662954 774722187</internalNodes>
      <leafValues>
        -7.5402206182479858e-01 4.7759509086608887e-01</leafValues></_>
    <_>
      <internalNodes>
        0 -1 21365 1272970524 266279305 -1332670061 -1445264875
        -710994546 -1895694264 -590410432 -121707025</internalNodes>
      <leafValues>
        -7.2103160619735718e-01 4.5013529062271118e-01</leafValues></_>
    <_>
      <internalNodes>
        0 -1 11212 890338327 -1450340286 1410044036 -1998650850
        -872361250 994082887 -2113233251 -362878760</internalNodes>
      <leafValues>
        -7.6116913557052612e-01 4.4459125399589539e-01</leafValues></_></weakClassifiers></stage6>
</opencv_storage>
