<?xml version="1.0"?>
<opencv_storage>
<stage9>
  <maxWeakCount>8</maxWeakCount>
  <stageThreshold>-1.1262675523757935e+00</stageThreshold>
  <weakClassifiers>
    <_>
      <internalNodes>
        0 -1 19000 -711461889 -39075233 -251439955 -577118361 -358495234
        -341792119 -83121413 -1323058</internalNodes>
      <leafValues>
        -7.7097368240356445e-01 3.3333334326744080e-01</leafValues></_>
    <_>
      <internalNodes>
        0 -1 1236 2130410203 334934814 -1054812009 2006676918 853090608
        806057991 -1000642617 -2626189</internalNodes>
      <leafValues>
        -6.1804080009460449e-01 4.1365572810173035e-01</leafValues></_>
    <_>
      <internalNodes>
        0 -1 22931 -1883914562 182497583 -730604394 -692199555
        -610717413 -1147422305 1054846719 -325525516</internalNodes>
      <leafValues>
        -7.5864815711975098e-01 3.5306522250175476e-01</leafValues></_>
    <_>
      <internalNodes>
        0 -1 6420 2035650298 2079318877 -1072589429 1468374767
        -1832153698 -362030551 2007680503 406562885</internalNodes>
      <leafValues>
        -6.8268853425979614e-01 4.0597060322761536e-01</leafValues></_>
    <_>
      <internalNodes>
        0 -1 1067 1582950895 1754306726 -1873137648 -1395486590
        -317727916 268510211 2114547600 1463020323</internalNodes>
      <leafValues>
        -6.5857034921646118e-01 4.6462148427963257e-01</leafValues></_>
    <_>
      <internalNodes>
        0 -1 8212 782710748 155660403 -1337750985 -2645818 570452269
        2140913835 1858589602 -1150706700</internalNodes>
      <leafValues>
        -8.0139976739883423e-01 3.7393924593925476e-01</leafValues></_>
    <_>
      <internalNodes>
        0 -1 25897 -34757066 -1430019426 268800028 -74596330 817955161
        220299853 2031416117 -759960879</internalNodes>
      <leafValues>
        -6.6829723119735718e-01 4.6194493770599365e-01</leafValues></_>
    <_>
      <internalNodes>
        0 -1 25955 -3025124 1155825746 1073824198 -1593188789 -77881326
        328746624 -1278502633 -541590529</internalNodes>
      <leafValues>
        -5.6449300050735474e-01 6.0173338651657104e-01</leafValues></_></weakClassifiers></stage9>
</opencv_storage>
