<?xml version="1.0"?>
<opencv_storage>
<stage2>
  <maxWeakCount>6</maxWeakCount>
  <stageThreshold>-1.1830538511276245e+00</stageThreshold>
  <weakClassifiers>
    <_>
      <internalNodes>
        0 -1 13051 -1651828225 -11144743 -552280579 -2133091 -1173692934
        -69298023 -15159617 -286348658</internalNodes>
      <leafValues>
        -8.7861269712448120e-01 2.6763990521430969e-02</leafValues></_>
    <_>
      <internalNodes>
        0 -1 19272 498279931 -1109453859 1929722367 -72275275 129695222
        -1074030408 978057579 -1153804056</internalNodes>
      <leafValues>
        -8.0024516582489014e-01 2.9861852526664734e-01</leafValues></_>
    <_>
      <internalNodes>
        0 -1 240 -34063278 -67332009 1402920383 1601045978 2122866111
        -3294231 -278218307 -33303181</internalNodes>
      <leafValues>
        -7.1293783187866211e-01 4.7405040264129639e-01</leafValues></_>
    <_>
      <internalNodes>
        0 -1 16000 -103757094 -636091261 -1862008689 2109949471
        -1853120328 282099880 -234303574 -909461048</internalNodes>
      <leafValues>
        -6.3351833820343018e-01 5.8757746219635010e-01</leafValues></_>
    <_>
      <internalNodes>
        0 -1 6376 -2104339376 -294977388 293732830 -626261878
        -1844752246 2038960264 1942522570 -1220108246</internalNodes>
      <leafValues>
        -6.9458651542663574e-01 5.8349996805191040e-01</leafValues></_>
    <_>
      <internalNodes>
        0 -1 20689 -1321445016 979333597 1898012159 801976791 952668110
        -1416435565 456317631 -1195849169</internalNodes>
      <leafValues>
        -8.6701846122741699e-01 4.4448173046112061e-01</leafValues></_></weakClassifiers></stage2>
</opencv_storage>
