<?xml version="1.0"?>
<opencv_storage>
<stage8>
  <maxWeakCount>8</maxWeakCount>
  <stageThreshold>-1.0601707696914673e+00</stageThreshold>
  <weakClassifiers>
    <_>
      <internalNodes>
        0 -1 25420 -70260833 2135403417 -587135307 -178401282
        -1398428422 -612701670 -156513588 -67115109</internalNodes>
      <leafValues>
        -7.8168129920959473e-01 2.0398010313510895e-01</leafValues></_>
    <_>
      <internalNodes>
        0 -1 10366 -1858259719 -1094056757 1720294259 2145357775
        -1549865425 -565080497 51360766 -545354259</internalNodes>
      <leafValues>
        -6.8029177188873291e-01 3.4220007061958313e-01</leafValues></_>
    <_>
      <internalNodes>
        0 -1 911 -430520597 -396527639 -767507106 686717990 1663763123
        1913045098 1982265949 -708322731</internalNodes>
      <leafValues>
        -6.0658025741577148e-01 4.7080075740814209e-01</leafValues></_>
    <_>
      <internalNodes>
        0 -1 13066 890260634 -983048842 -581083933 1550956895 -628233122
        1724118163 1574477191 -1409404659</internalNodes>
      <leafValues>
        -9.1259783506393433e-01 3.1084778904914856e-01</leafValues></_>
    <_>
      <internalNodes>
        0 -1 2080 -441490752 1237568354 -1559390250 1821331652 662976493
        273310248 -1463137458 -250873090</internalNodes>
      <leafValues>
        -6.3760781288146973e-01 4.6252718567848206e-01</leafValues></_>
    <_>
      <internalNodes>
        0 -1 5153 876949909 -291577666 981537252 -1280929410 726348001
        -622593919 -649981515 -1140982946</internalNodes>
      <leafValues>
        -6.2357687950134277e-01 5.3802746534347534e-01</leafValues></_>
    <_>
      <internalNodes>
        0 -1 24848 1395638518 1556234835 940777937 1463185507 -97909890
        218277515 -532570139 -543184658</internalNodes>
      <leafValues>
        -5.5569368600845337e-01 5.7666003704071045e-01</leafValues></_>
    <_>
      <internalNodes>
        0 -1 14050 1293522934 -1048489149 -799994745 -595361773
        -1425514482 -1733590973 -939086877 939127688</internalNodes>
      <leafValues>
        -7.3150295019149780e-01 4.5137065649032593e-01</leafValues></_></weakClassifiers></stage8>
</opencv_storage>
