<?xml version="1.0"?>
<opencv_storage>
<stage10>
  <maxWeakCount>7</maxWeakCount>
  <stageThreshold>-1.0377100706100464e+00</stageThreshold>
  <weakClassifiers>
    <_>
      <internalNodes>
        0 -1 25496 -182728453 -19940873 -1961861855 -541619461
        -2130341733 952729688 -1155545351 -565190038</internalNodes>
      <leafValues>
        -8.0679547786712646e-01 2.0408162847161293e-02</leafValues></_>
    <_>
      <internalNodes>
        0 -1 6581 905794984 -213145994 -632690465 2102350758 -1720796469
        -1946334917 1529608638 1530974589</internalNodes>
      <leafValues>
        -8.8432043790817261e-01 1.4267651736736298e-01</leafValues></_>
    <_>
      <internalNodes>
        0 -1 1877 1340802670 -31882597 -1938230794 1392499100 1481587387
        -488963647 2133799396 2061462643</internalNodes>
      <leafValues>
        -8.4583646059036255e-01 2.5913727283477783e-01</leafValues></_>
    <_>
      <internalNodes>
        0 -1 15985 668250417 -1285842645 -2067197923 991861195
        -1226123334 -216748130 2072766793 -648949187</internalNodes>
      <leafValues>
        -5.4448038339614868e-01 5.1079905033111572e-01</leafValues></_>
    <_>
      <internalNodes>
        0 -1 225 -488316414 -445480558 -2087708399 -274824870 2096710525
        -1019969021 1300456559 -328107146</internalNodes>
      <leafValues>
        -7.2119188308715820e-01 3.9787322282791138e-01</leafValues></_>
    <_>
      <internalNodes>
        0 -1 18752 -157857832 1538894125 1082151069 -40553883 -511520242
        -1503592349 -85306953 1493700254</internalNodes>
      <leafValues>
        -6.8951314687728882e-01 4.2521268129348755e-01</leafValues></_>
    <_>
      <internalNodes>
        0 -1 8370 -873523847 -666595178 -1726991057 -1890479985
        -345853151 -1431666504 782361045 -873403151</internalNodes>
      <leafValues>
        -5.6977814435958862e-01 5.4232549667358398e-01</leafValues></_></weakClassifiers></stage10>
</opencv_storage>
