<?xml version="1.0"?>
<opencv_storage>
<cascade>
  <stageType>BOOST</stageType>
  <featureType>LBP</featureType>
  <height>25</height>
  <width>40</width>
  <stageParams>
    <boostType>GAB</boostType>
    <minHitRate>9.9900001287460327e-01</minHitRate>
    <maxFalseAlarm>2.0000000298023224e-01</maxFalseAlarm>
    <weightTrimRate>9.4999998807907104e-01</weightTrimRate>
    <maxDepth>1</maxDepth>
    <maxWeakCount>100</maxWeakCount></stageParams>
  <featureParams>
    <maxCatCount>256</maxCatCount>
    <featSize>1</featSize></featureParams>
  <stageNum>10</stageNum>
  <stages>
    <!-- stage 0 -->
    <_>
      <maxWeakCount>4</maxWeakCount>
      <stageThreshold>-7.9326051473617554e-01</stageThreshold>
      <weakClassifiers>
        <_>
          <internalNodes>
            0 -1 17 -1290764835 -15400888 285274589 1594972637
            -1308456818 -108494840 151558843 -1626826616</internalNodes>
          <leafValues>
            -9.1957670450210571e-01 3.6082473397254944e-01</leafValues></_>
        <_>
          <internalNodes>
            0 -1 22 1025071318 -182644524 -2130668385 -1780545191
            -628561413 -108330599 -1584870725 -1148317267</internalNodes>
          <leafValues>
            -9.0774834156036377e-01 4.4115966558456421e-01</leafValues></_>
        <_>
          <internalNodes>
            0 -1 29 -250031922 -786366462 1073840312 -549236472
            -1568505688 -251658232 -746540913 -1857420593</internalNodes>
          <leafValues>
            -7.6401656866073608e-01 6.7661452293395996e-01</leafValues></_>
        <_>
          <internalNodes>
            0 -1 32 -1177546022 -1686679319 289477599 -572712613
            -1434445142 -106297304 -1190595089 725237896</internalNodes>
          <leafValues>
            -9.5915812253952026e-01 5.1767957210540771e-01</leafValues></_></weakClassifiers></_>
    <!-- stage 1 -->
    <_>
      <maxWeakCount>5</maxWeakCount>
      <stageThreshold>-1.2451270818710327e+00</stageThreshold>
      <weakClassifiers>
        <_>
          <internalNodes>
            0 -1 12 -648947461 -35966701 1284610525 -715451623
            -645350657 -343736311 1486982095 -1076159813</internalNodes>
          <leafValues>
            -7.8102189302444458e-01 6.5714287757873535e-01</leafValues></_>
        <_>
          <internalNodes>
            0 -1 7 -1780526369 -137141549 -2088680033 -241305705
            -1736259078 -1144880966 -896881669 1002136061</internalNodes>
          <leafValues>
            -8.0961585044860840e-01 5.3134065866470337e-01</leafValues></_>
        <_>
          <internalNodes>
            0 -1 14 1934661073 -674705128 1359024477 328620180
            -1956048642 -629077830 -1719037719 -1166073413</internalNodes>
          <leafValues>
            -7.6712632179260254e-01 6.1604201793670654e-01</leafValues></_>
        <_>
          <internalNodes>
            0 -1 1 -711801252 -720128998 218235157 2135495106
            -1467438337 -86310774 999201709 1063323839</internalNodes>
          <leafValues>
            -8.1810712814331055e-01 5.5514252185821533e-01</leafValues></_>
        <_>
          <internalNodes>
            0 -1 11 286315019 -583171821 269537529 2064880977 -393688387
            -1680179173 684427455 169384313</internalNodes>
          <leafValues>
            -7.8346192836761475e-01 5.4880112409591675e-01</leafValues></_></weakClassifiers></_>
    <!-- stage 2 -->
    <_>
      <maxWeakCount>4</maxWeakCount>
      <stageThreshold>-1.0306749343872070e+00</stageThreshold>
      <weakClassifiers>
        <_>
          <internalNodes>
            0 -1 31 931403259 -10919556 340382583 834370399 -1700348163
            -1882355317 -274285573 -546809125</internalNodes>
          <leafValues>
            -8.6229509115219116e-01 7.7881619334220886e-02</leafValues></_>
        <_>
          <internalNodes>
            0 -1 23 -1424941572 -38044832 -75647493 -1210212385
            -611673154 -1438930535 -1412781313 -1087759432</internalNodes>
          <leafValues>
            -9.4369322061538696e-01 2.4281111359596252e-01</leafValues></_>
        <_>
          <internalNodes>
            0 -1 27 -113015302 -120110953 319457165 -540043053
            -1392369422 13664692 1041357723 -1677743701</internalNodes>
          <leafValues>
            -6.5192276239395142e-01 6.2813067436218262e-01</leafValues></_>
        <_>
          <internalNodes>
            0 -1 10 -1687063844 -150489634 -2012165634 1939428051
            -543490130 -814905253 -1685347621 -653229581</internalNodes>
          <leafValues>
            -6.9944494962692261e-01 5.8732050657272339e-01</leafValues></_></weakClassifiers></_>
    <!-- stage 3 -->
    <_>
      <maxWeakCount>5</maxWeakCount>
      <stageThreshold>-1.1238737106323242e+00</stageThreshold>
      <weakClassifiers>
        <_>
          <internalNodes>
            0 -1 38 -207884040 -36617525 16814361 -248438511 -202723158
            -108904238 -637341042 -206071671</internalNodes>
          <leafValues>
            -8.3910387754440308e-01 2.3622047901153564e-01</leafValues></_>
        <_>
          <internalNodes>
            0 -1 25 -1793633029 -371773116 444833749 -1636059681
            -1957430932 -108453749 -402102030 -537056263</internalNodes>
          <leafValues>
            -7.9441106319427490e-01 3.8125449419021606e-01</leafValues></_>
        <_>
          <internalNodes>
            0 -1 5 -612106593 831199383 1349308634 -858859455 1984897648
            1359413252 -379376817 -547358033</internalNodes>
          <leafValues>
            -6.4845162630081177e-01 6.7008364200592041e-01</leafValues></_>
        <_>
          <internalNodes>
            0 -1 34 -1678852923 -16928906 1023340538 1945989109
            -1092682014 402489271 1677187007 -140510273</internalNodes>
          <leafValues>
            -5.6552046537399292e-01 7.4809044599533081e-01</leafValues></_>
        <_>
          <internalNodes>
            0 -1 28 -77967334 -606973476 -653686437 -137244164
            -125068709 -108492736 -1576424709 -1178716940</internalNodes>
          <leafValues>
            -6.7024624347686768e-01 6.4883583784103394e-01</leafValues></_></weakClassifiers></_>
    <!-- stage 4 -->
    <_>
      <maxWeakCount>4</maxWeakCount>
      <stageThreshold>-1.0359807014465332e+00</stageThreshold>
      <weakClassifiers>
        <_>
          <internalNodes>
            0 -1 35 1033723231 -1074826275 -276834307 -540035619
            1518328799 -4326469 -39166017 -276234292</internalNodes>
          <leafValues>
            -8.8565266132354736e-01 1.8446601927280426e-01</leafValues></_>
        <_>
          <internalNodes>
            0 -1 33 1069489503 -1141375011 -1644888139 -4411523
            -66635105 -612402253 -738314256 -4393515</internalNodes>
          <leafValues>
            -8.4033370018005371e-01 4.1431352496147156e-01</leafValues></_>
        <_>
          <internalNodes>
            0 -1 18 -957218987 -1365461289 -1906541022 -1499680451
            -1415749835 -1897261388 -577808036 -1098579991</internalNodes>
          <leafValues>
            -8.4868538379669189e-01 4.7053873538970947e-01</leafValues></_>
        <_>
          <internalNodes>
            0 -1 19 778974559 -19563777 -1789695505 -91333929
            -2114069095 -545267717 -1297517103 -403220113</internalNodes>
          <leafValues>
            -7.8607481718063354e-01 5.1083403825759888e-01</leafValues></_></weakClassifiers></_>
    <!-- stage 5 -->
    <_>
      <maxWeakCount>5</maxWeakCount>
      <stageThreshold>-4.2130175232887268e-01</stageThreshold>
      <weakClassifiers>
        <_>
          <internalNodes>
            0 -1 0 -815793353 1652032710 268648704 -372123125
            -1742528506 -1817345781 1913381191 -461641121</internalNodes>
          <leafValues>
            -8.4599155187606812e-01 1.3194444775581360e-01</leafValues></_>
        <_>
          <internalNodes>
            0 -1 46 -150998198 -901004777 276830250 -1969803123
            310616150 1376340232 810160653 -958399837</internalNodes>
          <leafValues>
            -7.5492519140243530e-01 4.2000523209571838e-01</leafValues></_>
        <_>
          <internalNodes>
            0 -1 45 -629146674 139379866 -1073741822 -1320603633
            -1020542302 43516930 1126607107 -1023935553</internalNodes>
          <leafValues>
            -6.8417191505432129e-01 5.6513690948486328e-01</leafValues></_>
        <_>
          <internalNodes>
            0 -1 9 428334718 -611106438 620777836 -805123627 -934573907
            -1391935061 -200502587 1404697595</internalNodes>
          <leafValues>
            -8.5480463504791260e-01 4.6768811345100403e-01</leafValues></_>
        <_>
          <internalNodes>
            0 -1 2 -1055955489 1074774018 269173056 -1470855158
            1126629542 1107361793 1883396214 -444732685</internalNodes>
          <leafValues>
            -6.8358373641967773e-01 5.9862691164016724e-01</leafValues></_></weakClassifiers></_>
    <!-- stage 6 -->
    <_>
      <maxWeakCount>5</maxWeakCount>
      <stageThreshold>-6.8537193536758423e-01</stageThreshold>
      <weakClassifiers>
        <_>
          <internalNodes>
            0 -1 4 1121972223 -1957047602 771815023 1850074650 408901973
            -553417965 -368218382 -289445261</internalNodes>
          <leafValues>
            -8.8967138528823853e-01 -1.5625000000000000e-02</leafValues></_>
        <_>
          <internalNodes>
            0 -1 24 903482011 -854911980 -585385765 1553568605
            -802948274 1139458203 1591275955 -1409632915</internalNodes>
          <leafValues>
            -8.3981132507324219e-01 2.8727197647094727e-01</leafValues></_>
        <_>
          <internalNodes>
            0 -1 21 -1558504753 -649911274 -2120800897 1317778621
            -1245577107 -81804993 1521166527 -541584916</internalNodes>
          <leafValues>
            -8.3212375640869141e-01 3.9004191756248474e-01</leafValues></_>
        <_>
          <internalNodes>
            0 -1 37 536340211 729255679 607295454 -831496428 -1908176183
            -904820452 -1147426053 -33900264</internalNodes>
          <leafValues>
            -6.8791145086288452e-01 5.6327712535858154e-01</leafValues></_>
        <_>
          <internalNodes>
            0 -1 41 -1968853874 -1857224102 281068573 -734440872
            1368977930 -376774623 -515202548 -234108725</internalNodes>
          <leafValues>
            -6.5914934873580933e-01 6.4800846576690674e-01</leafValues></_></weakClassifiers></_>
    <!-- stage 7 -->
    <_>
      <maxWeakCount>4</maxWeakCount>
      <stageThreshold>-7.7854913473129272e-01</stageThreshold>
      <weakClassifiers>
        <_>
          <internalNodes>
            0 -1 40 -2058092545 -976119783 -1287400491 -551160494
            -564201578 -292913024 1016826777 -604046881</internalNodes>
          <leafValues>
            -7.8896415233612061e-01 2.5123152136802673e-01</leafValues></_>
        <_>
          <internalNodes>
            0 -1 20 -389551745 -1922363309 -826878633 -414971406
            -1198147526 -516390804 -484922753 -275232753</internalNodes>
          <leafValues>
            -7.3829352855682373e-01 4.3975403904914856e-01</leafValues></_>
        <_>
          <internalNodes>
            0 -1 16 -481234439 -19742315 -1244348085 1116722629
            2089626227 -339311953 -343658703 -822150259</internalNodes>
          <leafValues>
            -7.5434434413909912e-01 4.5050233602523804e-01</leafValues></_>
        <_>
          <internalNodes>
            0 -1 39 -694168632 353882459 -1056751475 -157429025
            1912863027 -364777181 -1979311224 1289346943</internalNodes>
          <leafValues>
            -7.1519029140472412e-01 5.1274347305297852e-01</leafValues></_></weakClassifiers></_>
    <!-- stage 8 -->
    <_>
      <maxWeakCount>5</maxWeakCount>
      <stageThreshold>-1.4437969923019409e+00</stageThreshold>
      <weakClassifiers>
        <_>
          <internalNodes>
            0 -1 13 521631231 -57072277 142736378 -37893283 -1417217793
            -620128199 595846651 -627459663</internalNodes>
          <leafValues>
            -8.3547008037567139e-01 5.9999998658895493e-02</leafValues></_>
        <_>
          <internalNodes>
            0 -1 15 -1029202073 -556403622 -1101672998 -52440827
            -1706862223 -1886938693 1334798550 -1342809167</internalNodes>
          <leafValues>
            -7.9263341426849365e-01 3.4530737996101379e-01</leafValues></_>
        <_>
          <internalNodes>
            0 -1 30 -2019747462 -519634417 -1342077537 2042841567
            -1187343397 -1444157062 -1739662897 -1739005007</internalNodes>
          <leafValues>
            -8.4926545619964600e-01 3.8471981883049011e-01</leafValues></_>
        <_>
          <internalNodes>
            0 -1 26 -1222689176 -170409654 -364837486 -636811627
            -301278257 -1846490879 1674110899 -4275734</internalNodes>
          <leafValues>
            -7.7801090478897095e-01 4.6107688546180725e-01</leafValues></_>
        <_>
          <internalNodes>
            0 -1 6 -647513119 696943103 -1040144902 -557326047 36348178
            335692293 -1148656109 -10487261</internalNodes>
          <leafValues>
            -6.6149020195007324e-01 5.7125174999237061e-01</leafValues></_></weakClassifiers></_>
    <!-- stage 9 -->
    <_>
      <maxWeakCount>6</maxWeakCount>
      <stageThreshold>-8.4048748016357422e-01</stageThreshold>
      <weakClassifiers>
        <_>
          <internalNodes>
            0 -1 44 -673186225 -668993185 -1072464595 2026618987
            974646363 -1733102327 -545066037 -504634777</internalNodes>
          <leafValues>
            -7.9351031780242920e-01 1.9634702801704407e-01</leafValues></_>
        <_>
          <internalNodes>
            0 -1 42 -685771993 143782519 1103176460 -1565077289
            1075178294 1139624337 -1596763862 -1979719849</internalNodes>
          <leafValues>
            -6.8038392066955566e-01 4.4469463825225830e-01</leafValues></_>
        <_>
          <internalNodes>
            0 -1 8 -1517322246 -582007787 1360323449 -7356129
            -1781145141 -1056325169 1393943039 1527435773</internalNodes>
          <leafValues>
            -8.2020980119705200e-01 4.2308488488197327e-01</leafValues></_>
        <_>
          <internalNodes>
            0 -1 3 -1021456401 -288241717 -1056469740 1218629655
            1686342546 1613414735 1075978299 -707535257</internalNodes>
          <leafValues>
            -5.9468221664428711e-01 6.2102913856506348e-01</leafValues></_>
        <_>
          <internalNodes>
            0 -1 36 1062926139 -1543027077 -516877957 518220375
            -1207742153 -738065318 -1734082079 -351324078</internalNodes>
          <leafValues>
            -6.8233698606491089e-01 5.8213400840759277e-01</leafValues></_>
        <_>
          <internalNodes>
            0 -1 43 -807953591 -1311330925 268763656 911970304 983782292
            678707328 688343317 -386013893</internalNodes>
          <leafValues>
            -6.2759482860565186e-01 6.1775428056716919e-01</leafValues></_></weakClassifiers></_></stages>
  <features>
    <_>
      <rect>
        0 5 1 2</rect></_>
    <_>
      <rect>
        0 5 7 5</rect></_>
    <_>
      <rect>
        0 8 1 2</rect></_>
    <_>
      <rect>
        0 11 1 2</rect></_>
    <_>
      <rect>
        0 16 3 2</rect></_>
    <_>
      <rect>
        0 17 1 2</rect></_>
    <_>
      <rect>
        0 18 1 1</rect></_>
    <_>
      <rect>
        3 1 11 8</rect></_>
    <_>
      <rect>
        3 1 12 8</rect></_>
    <_>
      <rect>
        3 2 11 2</rect></_>
    <_>
      <rect>
        4 5 11 3</rect></_>
    <_>
      <rect>
        5 14 10 3</rect></_>
    <_>
      <rect>
        6 13 8 4</rect></_>
    <_>
      <rect>
        6 15 7 2</rect></_>
    <_>
      <rect>
        7 1 8 3</rect></_>
    <_>
      <rect>
        7 18 6 2</rect></_>
    <_>
      <rect>
        8 1 6 1</rect></_>
    <_>
      <rect>
        8 4 8 3</rect></_>
    <_>
      <rect>
        9 18 6 2</rect></_>
    <_>
      <rect>
        10 1 7 2</rect></_>
    <_>
      <rect>
        10 18 7 2</rect></_>
    <_>
      <rect>
        11 5 4 2</rect></_>
    <_>
      <rect>
        11 8 5 3</rect></_>
    <_>
      <rect>
        11 9 4 3</rect></_>
    <_>
      <rect>
        11 9 6 2</rect></_>
    <_>
      <rect>
        11 10 6 2</rect></_>
    <_>
      <rect>
        11 12 7 2</rect></_>
    <_>
      <rect>
        11 20 1 1</rect></_>
    <_>
      <rect>
        12 6 2 1</rect></_>
    <_>
      <rect>
        13 0 1 1</rect></_>
    <_>
      <rect>
        14 6 4 2</rect></_>
    <_>
      <rect>
        15 15 5 2</rect></_>
    <_>
      <rect>
        16 8 6 3</rect></_>
    <_>
      <rect>
        17 11 4 2</rect></_>
    <_>
      <rect>
        17 21 1 1</rect></_>
    <_>
      <rect>
        18 8 3 2</rect></_>
    <_>
      <rect>
        19 19 4 2</rect></_>
    <_>
      <rect>
        20 15 4 1</rect></_>
    <_>
      <rect>
        24 1 1 1</rect></_>
    <_>
      <rect>
        28 3 4 4</rect></_>
    <_>
      <rect>
        29 4 2 1</rect></_>
    <_>
      <rect>
        34 2 1 1</rect></_>
    <_>
      <rect>
        34 10 2 3</rect></_>
    <_>
      <rect>
        36 18 1 2</rect></_>
    <_>
      <rect>
        37 2 1 2</rect></_>
    <_>
      <rect>
        37 8 1 1</rect></_>
    <_>
      <rect>
        37 14 1 1</rect></_></features></cascade>
</opencv_storage>
