<?xml version="1.0"?>
<opencv_storage>
<stage9>
  <maxWeakCount>6</maxWeakCount>
  <stageThreshold>-8.4048748016357422e-01</stageThreshold>
  <weakClassifiers>
    <_>
      <internalNodes>
        0 -1 25917 -673186225 -668993185 -1072464595 2026618987
        974646363 -1733102327 -545066037 -504634777</internalNodes>
      <leafValues>
        -7.9351031780242920e-01 1.9634702801704407e-01</leafValues></_>
    <_>
      <internalNodes>
        0 -1 25637 -685771993 143782519 1103176460 -1565077289
        1075178294 1139624337 -1596763862 -1979719849</internalNodes>
      <leafValues>
        -6.8038392066955566e-01 4.4469463825225830e-01</leafValues></_>
    <_>
      <internalNodes>
        0 -1 3991 -1517322246 -582007787 1360323449 -7356129 -1781145141
        -1056325169 1393943039 1527435773</internalNodes>
      <leafValues>
        -8.2020980119705200e-01 4.2308488488197327e-01</leafValues></_>
    <_>
      <internalNodes>
        0 -1 911 -1021456401 -288241717 -1056469740 1218629655
        1686342546 1613414735 1075978299 -707535257</internalNodes>
      <leafValues>
        -5.9468221664428711e-01 6.2102913856506348e-01</leafValues></_>
    <_>
      <internalNodes>
        0 -1 19672 1062926139 -1543027077 -516877957 518220375
        -1207742153 -738065318 -1734082079 -351324078</internalNodes>
      <leafValues>
        -6.8233698606491089e-01 5.8213400840759277e-01</leafValues></_>
    <_>
      <internalNodes>
        0 -1 25894 -807953591 -1311330925 268763656 911970304 983782292
        678707328 688343317 -386013893</internalNodes>
      <leafValues>
        -6.2759482860565186e-01 6.1775428056716919e-01</leafValues></_></weakClassifiers></stage9>
</opencv_storage>
