<?xml version="1.0"?>
<opencv_storage>
<stage5>
  <maxWeakCount>5</maxWeakCount>
  <stageThreshold>-4.2130175232887268e-01</stageThreshold>
  <weakClassifiers>
    <_>
      <internalNodes>
        0 -1 482 -815793353 1652032710 268648704 -372123125 -1742528506
        -1817345781 1913381191 -461641121</internalNodes>
      <leafValues>
        -8.4599155187606812e-01 1.3194444775581360e-01</leafValues></_>
    <_>
      <internalNodes>
        0 -1 25982 -150998198 -901004777 276830250 -1969803123 310616150
        1376340232 810160653 -958399837</internalNodes>
      <leafValues>
        -7.5492519140243530e-01 4.2000523209571838e-01</leafValues></_>
    <_>
      <internalNodes>
        0 -1 25955 -629146674 139379866 -1073741822 -1320603633
        -1020542302 43516930 1126607107 -1023935553</internalNodes>
      <leafValues>
        -6.8417191505432129e-01 5.6513690948486328e-01</leafValues></_>
    <_>
      <internalNodes>
        0 -1 4063 428334718 -611106438 620777836 -805123627 -934573907
        -1391935061 -200502587 1404697595</internalNodes>
      <leafValues>
        -8.5480463504791260e-01 4.6768811345100403e-01</leafValues></_>
    <_>
      <internalNodes>
        0 -1 716 -1055955489 1074774018 269173056 -1470855158 1126629542
        1107361793 1883396214 -444732685</internalNodes>
      <leafValues>
        -6.8358373641967773e-01 5.9862691164016724e-01</leafValues></_></weakClassifiers></stage5>
</opencv_storage>
