<?xml version="1.0"?>
<opencv_storage>
<stage5>
  <maxWeakCount>7</maxWeakCount>
  <stageThreshold>-1.7189252376556396e+00</stageThreshold>
  <weakClassifiers>
    <_>
      <internalNodes>
        0 -1 41325 -103095566 -146545098 1881227389 -612564616
        -929675568 -1258204154 148521710 -71578725</internalNodes>
      <leafValues>
        -8.1428092718124390e-01 2.0217096805572510e-01</leafValues></_>
    <_>
      <internalNodes>
        0 -1 5004 -786443298 -1722611429 -1215704706 -10759905
        1485570443 -1198817265 -99951713 805157438</internalNodes>
      <leafValues>
        -8.3687818050384521e-01 2.9010662436485291e-01</leafValues></_>
    <_>
      <internalNodes>
        0 -1 41240 -128844568 -16547696 -1879044013 -714719098
        -636835798 981729281 676367239 -133221761</internalNodes>
      <leafValues>
        -6.3587397336959839e-01 5.1757204532623291e-01</leafValues></_>
    <_>
      <internalNodes>
        0 -1 109 -1907461378 -140537379 -721301121 -790974205 -108332670
        -1425473525 464230813 -781853867</internalNodes>
      <leafValues>
        -7.3256838321685791e-01 4.4909676909446716e-01</leafValues></_>
    <_>
      <internalNodes>
        0 -1 62339 1863783251 -1290026991 -2130640207 -2029072101
        2038462612 -587022333 -211754020 1322115582</internalNodes>
      <leafValues>
        -7.5736838579177856e-01 4.2529809474945068e-01</leafValues></_>
    <_>
      <internalNodes>
        0 -1 55841 422524183 1006731521 151097749 441860383 1024395935
        705241226 -879904590 -19947365</internalNodes>
      <leafValues>
        -6.1527341604232788e-01 5.2593046426773071e-01</leafValues></_>
    <_>
      <internalNodes>
        0 -1 47388 -1520184492 793018710 -1877665446 -1082141355
        1107894504 1251639502 1074351773 1524128091</internalNodes>
      <leafValues>
        -8.1799846887588501e-01 3.9735704660415649e-01</leafValues></_></weakClassifiers></stage5>
</opencv_storage>
