<?xml version="1.0"?>
<opencv_storage>
<stage7>
  <maxWeakCount>7</maxWeakCount>
  <stageThreshold>-1.5817593336105347e+00</stageThreshold>
  <weakClassifiers>
    <_>
      <internalNodes>
        0 -1 53740 -124060936 -75378672 289870519 -1619005353
        -1843033871 -360660966 34066606 -78686001</internalNodes>
      <leafValues>
        -8.0074548721313477e-01 1.0793238133192062e-01</leafValues></_>
    <_>
      <internalNodes>
        0 -1 29516 -640686105 -674559605 -1760847769 1343088991
        -662680814 2078703655 -485830659 -562180</internalNodes>
      <leafValues>
        -6.4140737056732178e-01 3.9897221326828003e-01</leafValues></_>
    <_>
      <internalNodes>
        0 -1 36349 -283382985 -300444773 -1793469474 -48383660
        -2088547910 2101023635 -70013003 -1258393603</internalNodes>
      <leafValues>
        -6.5405541658401489e-01 4.3846127390861511e-01</leafValues></_>
    <_>
      <internalNodes>
        0 -1 36517 2094955515 -803810309 1884029137 -979860903
        -106251535 -1080317797 650832756 -1613370197</internalNodes>
      <leafValues>
        -5.7472014427185059e-01 5.0706607103347778e-01</leafValues></_>
    <_>
      <internalNodes>
        0 -1 2406 -1795235844 -1728691921 360710622 -770190446 34566312
        -879050581 1628597048 2065006388</internalNodes>
      <leafValues>
        -8.9714586734771729e-01 3.5757246613502502e-01</leafValues></_>
    <_>
      <internalNodes>
        0 -1 29230 -572868882 1347145998 -2130636388 -1705524794
        -666694798 2073660041 -1444185381 -390226763</internalNodes>
      <leafValues>
        -7.0906507968902588e-01 3.9598947763442993e-01</leafValues></_>
    <_>
      <internalNodes>
        0 -1 56993 1081176987 -1659584239 1073775062 -1365810220
        -720781079 562266114 -1004223361 -204046529</internalNodes>
      <leafValues>
        -5.4980242252349854e-01 5.6279784440994263e-01</leafValues></_></weakClassifiers></stage7>
</opencv_storage>
