<?xml version="1.0"?>
<opencv_storage>
<stage6>
  <maxWeakCount>7</maxWeakCount>
  <stageThreshold>-1.7245514392852783e+00</stageThreshold>
  <weakClassifiers>
    <_>
      <internalNodes>
        0 -1 43512 -330952528 -1089254942 369153426 -682654985 -57755236
        -1287127039 -99438091 -1140991087</internalNodes>
      <leafValues>
        -8.6053413152694702e-01 3.9062500000000000e-02</leafValues></_>
    <_>
      <internalNodes>
        0 -1 40928 -1312309008 1099895298 151572563 -684991352 269099140
        139169920 1899119246 -1826098965</internalNodes>
      <leafValues>
        -7.0037353038787842e-01 4.0940728783607483e-01</leafValues></_>
    <_>
      <internalNodes>
        0 -1 21612 1591959391 815463389 -855550498 -170114422 1145588200
        1904996769 -104191018 -1208124487</internalNodes>
      <leafValues>
        -7.0791208744049072e-01 4.4307568669319153e-01</leafValues></_>
    <_>
      <internalNodes>
        0 -1 40946 2077638522 -642670141 -2012216934 -440278073
        1201629824 -89972587 974330813 -436709030</internalNodes>
      <leafValues>
        -7.9107052087783813e-01 3.7878981232643127e-01</leafValues></_>
    <_>
      <internalNodes>
        0 -1 6630 -1311588080 828179609 1426691583 2107426185 2124228988
        2073102402 2056194236 -11197854</internalNodes>
      <leafValues>
        -6.3148254156112671e-01 4.8996847867965698e-01</leafValues></_>
    <_>
      <internalNodes>
        0 -1 13859 1679152746 -70057199 -268431090 -16299869 -91979078
        -1152712565 -766860550 1891353142</internalNodes>
      <leafValues>
        -8.7462317943572998e-01 3.4218361973762512e-01</leafValues></_>
    <_>
      <internalNodes>
        0 -1 43337 1092572724 1225785751 -1583132329 1300890904
        -770979408 2106228957 671181485 -91766301</internalNodes>
      <leafValues>
        -6.5500342845916748e-01 4.8142498731613159e-01</leafValues></_></weakClassifiers></stage6>
</opencv_storage>
