<?xml version="1.0"?>
<opencv_storage>
<stage12>
  <maxWeakCount>8</maxWeakCount>
  <stageThreshold>-1.2244412899017334e+00</stageThreshold>
  <weakClassifiers>
    <_>
      <internalNodes>
        0 -1 44846 -34643205 -27719269 10593599 -145259633 -610562645
        -1088736631 -307371777 -265993</internalNodes>
      <leafValues>
        -7.4140048027038574e-01 2.8879311680793762e-01</leafValues></_>
    <_>
      <internalNodes>
        0 -1 43418 593983357 1467453591 -1072724391 1326824351
        -933377028 2038682351 -567444915 -881029505</internalNodes>
      <leafValues>
        -6.4156377315521240e-01 3.2812678813934326e-01</leafValues></_>
    <_>
      <internalNodes>
        0 -1 33316 -318767244 -1748497317 -716143682 -52887073
        -1064468290 -485998300 1326177090 -1991972108</internalNodes>
      <leafValues>
        -8.4027945995330811e-01 2.6771694421768188e-01</leafValues></_>
    <_>
      <internalNodes>
        0 -1 41199 2102787253 -81796936 1905472799 1131729297 1883363293
        1064863771 -875568560 -7385857</internalNodes>
      <leafValues>
        -5.2546691894531250e-01 4.8190048336982727e-01</leafValues></_>
    <_>
      <internalNodes>
        0 -1 47015 -376968238 -632876641 1795708559 -27373293 -7604211
        -1139593013 -2102703266 -1118962058</internalNodes>
      <leafValues>
        -5.4495906829833984e-01 4.9211513996124268e-01</leafValues></_>
    <_>
      <internalNodes>
        0 -1 9133 43036235 -773928814 -749600619 -197071142 847414202
        2072674307 -627844901 1785718853</internalNodes>
      <leafValues>
        -7.5404560565948486e-01 3.8315203785896301e-01</leafValues></_>
    <_>
      <internalNodes>
        0 -1 64365 -468237313 -2015768283 -198684171 219290385
        -1432971079 -1098866548 -1735677711 -1561601896</internalNodes>
      <leafValues>
        -5.1803928613662720e-01 5.3753489255905151e-01</leafValues></_>
    <_>
      <internalNodes>
        0 -1 24271 1981485363 -584714086 -1340567304 -636235507
        -1072766903 438534187 -367925072 1530980933</internalNodes>
      <leafValues>
        -7.8081524372100830e-01 3.5523241758346558e-01</leafValues></_></weakClassifiers></stage12>
</opencv_storage>
