<?xml version="1.0"?>
<opencv_storage>
<stage11>
  <maxWeakCount>8</maxWeakCount>
  <stageThreshold>-1.5385475158691406e+00</stageThreshold>
  <weakClassifiers>
    <_>
      <internalNodes>
        0 -1 52847 -673849987 -10384385 -721054753 -4864801 -108400001
        -4265845 -1089865089 -554042505</internalNodes>
      <leafValues>
        -8.0362117290496826e-01 3.3018868416547775e-02</leafValues></_>
    <_>
      <internalNodes>
        0 -1 61975 -8946313 -1612875617 -774843937 1863570846 2060442491
        -1144422198 -875381788 249560703</internalNodes>
      <leafValues>
        -7.9471111297607422e-01 1.9750672578811646e-01</leafValues></_>
    <_>
      <internalNodes>
        0 -1 36797 2048146293 -862932514 -845082113 -1403533826
        -91266970 -121898321 -874513906 -33561918</internalNodes>
      <leafValues>
        -6.8368220329284668e-01 3.8195741176605225e-01</leafValues></_>
    <_>
      <internalNodes>
        0 -1 27023 -1629875930 -1084501825 -2021484228 -1124076737
        -609265310 -14170045 -617648146 985529024</internalNodes>
      <leafValues>
        -8.0542111396789551e-01 3.0705934762954712e-01</leafValues></_>
    <_>
      <internalNodes>
        0 -1 54227 1977596860 -1403127270 134463965 1053024410 193163508
        982224971 -645664068 2141111039</internalNodes>
      <leafValues>
        -7.4445551633834839e-01 3.6028042435646057e-01</leafValues></_>
    <_>
      <internalNodes>
        0 -1 28762 -967338854 1362546846 1092161791 -138743081
        1348052997 -359956414 -640824544 -155747588</internalNodes>
      <leafValues>
        -7.0390599966049194e-01 3.5778173804283142e-01</leafValues></_>
    <_>
      <internalNodes>
        0 -1 50946 -1724913603 2128148121 -1660840946 1520134335
        -1190735249 975210594 -1560048706 -1074629954</internalNodes>
      <leafValues>
        -5.1190257072448730e-01 5.4453170299530029e-01</leafValues></_>
    <_>
      <internalNodes>
        0 -1 41255 2010184743 -311624202 -268501163 762900181 -50856517
        -643776534 2012702618 -1141905420</internalNodes>
      <leafValues>
        -4.9387386441230774e-01 5.6249386072158813e-01</leafValues></_></weakClassifiers></stage11>
</opencv_storage>
