<?xml version="1.0"?>
<opencv_storage>
<stage13>
  <maxWeakCount>8</maxWeakCount>
  <stageThreshold>-1.5581793785095215e+00</stageThreshold>
  <weakClassifiers>
    <_>
      <internalNodes>
        0 -1 59899 -1142482915 -1953262965 -1727026757 -46684405
        -604269653 -1952251904 -1316894535 -1695292430</internalNodes>
      <leafValues>
        -8.4813082218170166e-01 -8.8541664183139801e-02</leafValues></_>
    <_>
      <internalNodes>
        0 -1 31597 -436734497 1808168322 809713745 -683486573 -347472968
        1883998600 1763830603 -173282437</internalNodes>
      <leafValues>
        -6.0876637697219849e-01 3.6015680432319641e-01</leafValues></_>
    <_>
      <internalNodes>
        0 -1 50597 330544979 454230886 -2128883054 -719423714
        -2113730370 -1412459511 1897620359 1759164860</internalNodes>
      <leafValues>
        -8.1239289045333862e-01 2.8143507242202759e-01</leafValues></_>
    <_>
      <internalNodes>
        0 -1 43449 -191559055 -317339822 1343932218 1192228824
        -1344340042 2082521580 -863040546 -1090579600</internalNodes>
      <leafValues>
        -6.2059855461120605e-01 4.0596577525138855e-01</leafValues></_>
    <_>
      <internalNodes>
        0 -1 8996 -786509140 1841987767 16876333 -612122613 139
        -155254609 2013300914 2051043407</internalNodes>
      <leafValues>
        -6.9469189643859863e-01 3.9320519566535950e-01</leafValues></_>
    <_>
      <internalNodes>
        0 -1 56945 -1802767156 -1055260527 470287183 419929159 189434146
        847847824 303008657 -649390085</internalNodes>
      <leafValues>
        -5.3726005554199219e-01 5.2523285150527954e-01</leafValues></_>
    <_>
      <internalNodes>
        0 -1 55301 -44711702 -1006943032 -2142691300 -754364223
        -505628130 1252032664 1380305682 1155526399</internalNodes>
      <leafValues>
        -6.8590950965881348e-01 4.0590116381645203e-01</leafValues></_>
    <_>
      <internalNodes>
        0 -1 15727 -884902573 -771632893 144293910 420742545 1216923866
        2033238151 -1031264223 -138611688</internalNodes>
      <leafValues>
        -6.6066664457321167e-01 4.1927275061607361e-01</leafValues></_></weakClassifiers></stage13>
</opencv_storage>
