<?xml version="1.0"?>
<opencv_storage>
<stage9>
  <maxWeakCount>7</maxWeakCount>
  <stageThreshold>-1.4325246810913086e+00</stageThreshold>
  <weakClassifiers>
    <_>
      <internalNodes>
        0 -1 53845 -571474761 -706219633 17768627 1573647775 -676085045
        -1615171190 -1594635285 -268436761</internalNodes>
      <leafValues>
        -7.4907749891281128e-01 3.3333334326744080e-01</leafValues></_>
    <_>
      <internalNodes>
        0 -1 36915 -1157660938 -691011497 -1271334402 -1497694725
        -813105260 2124042659 -95552516 -956342165</internalNodes>
      <leafValues>
        -6.8335920572280884e-01 3.5632973909378052e-01</leafValues></_>
    <_>
      <internalNodes>
        0 -1 27160 1054602613 -1423978282 1528159486 -7185921
        -1148460716 734750119 1570503348 -1610844745</internalNodes>
      <leafValues>
        -6.7118513584136963e-01 4.0550735592842102e-01</leafValues></_>
    <_>
      <internalNodes>
        0 -1 59774 1977498623 501192669 -792069428 -1075919558 -74735728
        1542435295 -117309707 2147476309</internalNodes>
      <leafValues>
        -7.2246748208999634e-01 3.6164826154708862e-01</leafValues></_>
    <_>
      <internalNodes>
        0 -1 55487 -601040914 2135362004 -259894063 -2104376367
        -1434246146 -1952645094 -1836454960 -1409368079</internalNodes>
      <leafValues>
        -5.6164455413818359e-01 4.9794012308120728e-01</leafValues></_>
    <_>
      <internalNodes>
        0 -1 34239 -1722404404 1981165655 -2129622988 1709064905 758740
        -1034712405 -919352330 -1042421105</internalNodes>
      <leafValues>
        -7.4559658765792847e-01 3.9618873596191406e-01</leafValues></_>
    <_>
      <internalNodes>
        0 -1 21510 2145350757 -11624732 -403243273 -11078918 1718611709
        2138007935 2088599359 -25215938</internalNodes>
      <leafValues>
        -4.9969133734703064e-01 6.0664081573486328e-01</leafValues></_></weakClassifiers></stage9>
</opencv_storage>
