<?xml version="1.0"?>
<opencv_storage>
<stage14>
  <maxWeakCount>9</maxWeakCount>
  <stageThreshold>-1.4156032800674438e+00</stageThreshold>
  <weakClassifiers>
    <_>
      <internalNodes>
        0 -1 42944 -1609305361 -49081656 -2112830380 -749620841
        -490385506 -1488453499 571378570 -5244997</internalNodes>
      <leafValues>
        -7.6551294326782227e-01 3.4113061428070068e-01</leafValues></_>
    <_>
      <internalNodes>
        0 -1 48985 -2092432577 -2112601846 147732 2134361437 1913821192
        -920117120 -937813516 -1292689195</internalNodes>
      <leafValues>
        -7.7302676439285278e-01 2.3288634419441223e-01</leafValues></_>
    <_>
      <internalNodes>
        0 -1 41246 -145762049 -183086702 136135188 51861657 1896255547
        -89489001 -72980280 -10921493</internalNodes>
      <leafValues>
        -5.0876003503799438e-01 5.3313046693801880e-01</leafValues></_>
    <_>
      <internalNodes>
        0 -1 21444 -1713807022 -666054444 -2130624182 -649789241
        -402120488 948469818 176890667 2004744360</internalNodes>
      <leafValues>
        -6.9253104925155640e-01 3.7620273232460022e-01</leafValues></_>
    <_>
      <internalNodes>
        0 -1 58075 419909946 -1777266669 839913792 -1137224957 143323252
        688111633 1810578237 826012571</internalNodes>
      <leafValues>
        -6.5285122394561768e-01 4.3678906559944153e-01</leafValues></_>
    <_>
      <internalNodes>
        0 -1 34574 -51380548 2139055866 -218110722 -218300677 1595637486
        2147483519 1723685578 -1074005122</internalNodes>
      <leafValues>
        -5.4235291481018066e-01 5.5200856924057007e-01</leafValues></_>
    <_>
      <internalNodes>
        0 -1 55349 -269942928 1743736824 -67436548 -740959020 -51857
        -286261506 -847741073 -613747517</internalNodes>
      <leafValues>
        -4.6961888670921326e-01 6.1748915910720825e-01</leafValues></_>
    <_>
      <internalNodes>
        0 -1 55832 887612018 778039263 780073820 117307359 1342144506
        -268697609 -805306442 -1368424645</internalNodes>
      <leafValues>
        -4.9923309683799744e-01 5.7238727807998657e-01</leafValues></_>
    <_>
      <internalNodes>
        0 -1 32205 1897001326 -338182139 -1857663168 -720670590
        814228652 -1441578897 881429182 1676182867</internalNodes>
      <leafValues>
        -7.2261524200439453e-01 4.2399194836616516e-01</leafValues></_></weakClassifiers></stage14>
</opencv_storage>
