<?xml version="1.0"?>
<opencv_storage>
<stage4>
  <maxWeakCount>7</maxWeakCount>
  <stageThreshold>-1.6316847801208496e+00</stageThreshold>
  <weakClassifiers>
    <_>
      <internalNodes>
        0 -1 22191 -289144845 -137676594 1103856991 -538980137
        -665861185 -401964397 -74732825 -310904209</internalNodes>
      <leafValues>
        -8.0494320392608643e-01 1.7906336486339569e-01</leafValues></_>
    <_>
      <internalNodes>
        0 -1 8897 869938150 -2019851929 -1073098346 -1143287417
        -1340462906 -620093217 1082753599 -277646489</internalNodes>
      <leafValues>
        -7.5399321317672729e-01 3.4244295954704285e-01</leafValues></_>
    <_>
      <internalNodes>
        0 -1 6774 249557339 -2041069127 1116848635 -543694383
        -1316259137 -20215287 -107223297 2145385471</internalNodes>
      <leafValues>
        -7.6128470897674561e-01 4.2291608452796936e-01</leafValues></_>
    <_>
      <internalNodes>
        0 -1 54070 -359872258 -1902325593 -2041490059 -161541691
        -339450627 -2111665919 -1232501507 -940897743</internalNodes>
      <leafValues>
        -6.0608261823654175e-01 5.5331283807754517e-01</leafValues></_>
    <_>
      <internalNodes>
        0 -1 18188 1530951110 -1724401197 -1862184622 -1388723448
        -1064709698 -74724213 -745843841 902043531</internalNodes>
      <leafValues>
        -9.0981656312942505e-01 3.8669958710670471e-01</leafValues></_>
    <_>
      <internalNodes>
        0 -1 36842 -268437517 -268501017 -4097 1873215486 -1073760649
        -10 -2132002 -8409435</internalNodes>
      <leafValues>
        -5.7152557373046875e-01 6.1469680070877075e-01</leafValues></_>
    <_>
      <internalNodes>
        0 -1 430 -17040177 1862205438 -65537 1878654966 -129 -536870921
        -137 -1252524193</internalNodes>
      <leafValues>
        -5.5437433719635010e-01 6.0775375366210938e-01</leafValues></_></weakClassifiers></stage4>
</opencv_storage>
